-0.6219122345492785|
-0.325465147898666|
0.8589248683064971|
0.054313461455025955|
0.04454471072495436|
0.7989192906358731|
0.49981682927864696|
0.04412824307412339|
-0.11131310206076403|
-0.37152096629143594|
0.052727516081660056|
0.6503709000690363|
-0.18788144867325846|
0.26094953416995986|
0.18006884032992512|
0.2854737485014143|
0.6802775406078861|
1.0057813545438279|
-0.9408193697147311|
-0.1728529629029023|
0.8552826405783834|
-0.14292123923125874|
0.15848010120188202|
-0.8078271449728629|
0.4972136970980681|
-0.14088778085365927|
0.7527640359564719|
0.45418539860306234|
0.6955728762917628|
-0.782970272219809|
0.9438582582575963|
0.9706540331839479|
-0.7278279945329037|
-1.0030518854182209|
-0.38300032358836894|
-0.6330565614528073|
0.22121826829254185|
-0.953871952697326|
0.7956437821130364|
-0.3760702180727735|
0.43406756730403717|
0.9900535274088681|
0.6796709348574437|
0.9052030804141451|
-0.5132329933024458|
-0.0726517357764872|
0.6893144201734561|
-0.8203599566967797|
0.4235744366130832|
0.009810633148017469|
-0.6354080866469886|
0.11094817492878421|
-0.8725821397801843|
0.3840228667614602|
-0.859137115707496|
0.6271028877179389|
0.7464356122070239|
-0.008261222031596861|
0.1569472478428172|
-0.5057282560197617|
0.4369407947870416|
-0.8281152398738276|
0.9822908763832349|
-0.6413032904702622|
-0.7005289763379127|
0.40517442445052215|
0.7021691475990561|
-0.8309481397247198|
-0.16362632559156828|
-0.4030422651563778|
-0.9392874810714977|
-0.4824654614812116|
0.8073512027425522|
-0.9497868806430886|
-0.5155362072733546|
0.4467399644524307|
-0.7743514570742351|
0.045612209854373746|
0.06016510566397993|
0.3436939816252191|
-0.3202783700624363|
0.12393659528867615|
-0.3909377213235858|
-0.6494227578010278|
0.03767281056726052|
0.9231265694373285|
-0.29856436540495973|
0.08378215688823187|
0.9508967228519493|
0.17130407813689824|
0.7051329216279959|
-0.9605509932094647|
0.9922247469264842|
0.061179821695278205|
0.9229019674021733|
0.6636002193582088|
-0.03865076570538298|
0.822087318789565|
0.35232857752884356|
0.7314825246579811|
-0.6908003161896025|
0.9234373769673049|
0.18097939604667604|
0.5788551665149682|
-0.6173005003504302|
-0.7745083817784684|
-0.8573749858523133|
0.8283471954188079|
-0.4473508818037833|
0.913523511770409|
0.2872310974234348|
0.3348476248180227|
-0.6320071267133907|
0.35104814892586655|
-0.6135134594286482|
-0.4860713473461012|
0.8833408926662899|
-0.18513779740190514|
-0.6651609931868617|
-0.5001906389196521|
0.2738779998826465|
0.26965972293115914|
-0.8457489740123322|
0.260514990267428|
-0.18585374013327935|
0.023057504096190375|
-0.3848920366245596|
0.2709079558575389|
-0.985387506777142|
-0.7683625663941328|
0.8506725169454249|
0.4081216257800284|
-0.3436711666425103|
0.886828542220274|
-0.14770757693824124|
-0.6509342363621867|
-0.7635943936347133|
-0.5721446476971765|
0.5853557027815935|
-0.5782794846717438|
-0.21272576020459832|
-0.892579527970283|
-0.7932980983054775|
0.7615168960982222|
0.8684677673514591|
0.013672068883835821|
-0.18545623833286473|
0.5564886253965798|
-0.843151982552924|
0.6152528808156958|
0.28728442149783034|
-0.37166513014703983|
-0.42450131702147004|
0.8775345357808723|
0.6413276011717226|
0.5831802375685045|
-0.9291499590478384|
-0.42624941691485607|
-0.6747154254248989|
-0.8085262929091954|
0.01642801722723458|
0.1073615527251381|
-0.6978744980417516|
0.6653851834312862|
-0.4911909845526486|
-0.6688838725231471|
0.8224875344380781|
-0.15727831522010882|
-0.9913018122681082|
0.4327489417571628|
0.1528145142815671|
-0.8994860615691654|
-0.37370932331249307|
-0.8655591404559255|
-0.5502641063199287|
0.8200535215419761|
0.43671701575901756|
0.11874042017100776|
0.1617138315111447|
-0.3552736586351942|
-0.20482774860826394|
0.9158674544029307|
0.71395465343294|
-0.11370259206795817|
0.5722514167731957|
0.7412682460004554|
0.12470371052061373|
-0.49718986088464046|
0.8804510606927827|
-0.11379909551615595|
0.2624019636021875|
0.9416163274936852|
0.7434473165757408|
-0.8528920166526255|
0.21040818881332488|
-0.952839799261495|
-0.7893557070075785|
-0.17497577305428622|
0.2230552715681981|
0.737818450741123|
-0.6922152584547603|
0.8846050495569724|
0.21564603944487432|
0.6694052689948441|
0.736303405081915|
0.18758657253984168|
-0.6226728072046448|
-0.02632442077793325|
0.3482415393161048|
-0.5363397523420557|
0.9146511890355371|
0.3347581217345175|
-0.5197030894462005|
0.3757665104121054|
-0.44922729578626514|
0.10925217888479372|
0.6876411893872273|
-0.6484420761863968|
-0.6481191547029206|
-0.4345093874702277|
-0.4709081243574092|
-0.4547257365115238|
0.37720573534554075|
0.4645429469198984|
0.5849642574714042|
-0.7679442620188276|
-0.5022393021119195|
0.2698158134172946|
-0.8930165639393183|
0.8594964106665745|
0.77085316466157|
0.3409309864338364|
0.0038984397418201653|
0.7184546250975793|
0.8248297622956159|
0.08321043802559462|
-0.6952077902906779|
0.5807287333617323|
0.8953901767507213|
-0.11420508667777067|
0.02381395019781439|
-0.965434321800091|
-0.4942850810031347|
0.9258061010197595|
-0.8025080869078515|
0.15179585325077355|
0.4384157907755923|
-0.3429456828638948|
0.39830769464854743|
0.8052251377333463|
0.9476818413724916|
-0.7438521539102225|
0.2783532162877449|
-0.29530967611320014|
0.874154608606134|
0.23973124037914406|
0.05988355165566667|
-0.3348924532904285|
-0.2342150946337521|
0.2751605549264495|
-0.2548245244160316|
0.7400472668091495|
-1.0139772207992777|
-0.8157964180365422|
0.21412801275128107|
0.8135782401527848|
0.15228043196887653|
-0.4442140362862277|
0.7788395376324024|
-0.35156187377003795|
-0.6721919130515556|
-0.24711232124710766|
0.04684940936583047|
-0.8612333894775388|
0.5271743919017753|
0.8155721987177309|
0.7704589953775899|
0.2402856898698152|
-0.15399991183063746|
-0.03606078272414459|
-0.4752076978006072|
-0.1316676148992665|
0.45944460274055493|
0.896505136063574|
0.14292935115036162|
-0.05312092211422587|
0.996422330588838|
0.1776996922564162|
-0.9068344653687254|
-1.006541750065064|
-0.6164634411106052|
-0.8528176519667856|
-0.18672373295018177|
0.018616559590111915|
-0.18148001025583504|
-0.7203102077021271|
0.723449833850281|
-0.6686822519087882|
0.6220750493222423|
-0.6570441590136642|
-0.7040993865664386|
-0.4269848358922417|
0.30367054122002785|
-0.637665341989653|
0.6660771020829133|
0.5683255910902882|
0.7509379164715169|
-0.4886112941326358|
0.7608568317473147|
-0.21675338217349713|
0.10023807277600244|
0.7393276299900107|
-0.3134552160341883|
0.5615250348119017|
-0.4563890426249683|
0.6654488197429828|
-0.06950375171353301|
-0.003938916982706262|
0.6523393111039024|
0.6783097440657803|
-0.4358083563128741|
-0.9244283521756045|
-0.9258799495840822|
0.3056915626887046|
-0.849031157001285|
-0.9459409039505664|
-0.8059393923187183|
0.1497166783818977|
0.2966574894419897|
0.9582090766472322|
0.07175783417473183|
0.7693679228775437|
-0.40696937944034445|
-0.2958250257176867|
0.9074159774647584|
-0.1326984098361533|
0.866750663489546|
-0.9822545105952176|
-0.2813904885659362|
0.4359611880901703|
0.2440358861071467|
-0.8450985165372853|
0.618391571267266|
-0.6800943038668557|
-0.6652190700027706|
-0.5309074594032513|
0.8718084743963148|
-0.6707199232582127|
-0.2321488420367349|
-0.9513538234626161|
-0.22087109657551254|
-0.6293876895718359|
0.6373525655119329|
-0.9651053255368225|
-0.6365329382181719|
0.3931530998996301|
-0.347015064824596|
-0.3341990245175782|
0.10011224157416297|
0.9822625821129032|
-0.6191917224429464|
0.07463000143633537|
-0.2769305683025985|
0.33395898431079263|
-0.8283965233040049|
-0.5112594308483548|
-0.9152118049411995|
-0.8872902975647079|
-0.606073149804178|
-0.5001927781850031|
0.014237729833556792|
0.38933935128787767|
-0.6441524574733967|
-0.2182309230943767|
-0.6725413894103345|
-0.06809032214100282|
-0.5313793653551436|
-0.8423417391771838|
0.3475435236856269|
-0.673738922351266|
0.3000300548470137|
0.3343810076625596|
0.5417897011994425|
-0.6397168314705378|
0.2127277213379667|
0.2984937942509804|
0.8129833339603999|
-0.434395615490837|
-0.331474991972976|
-0.43143082293522395|
0.29640059704383787|
-0.371556651645153|
-0.09006445795099992|
0.47452882727302503|
-0.26106114778989015|
-0.3488079570772694|
-0.5373518375047865|
0.1043169869654496|
0.12545046414555414|
-0.23092746692174873|
0.9522317834135494|
-0.9566799677513483|
-0.8132693873266051|
0.8947012527872609|
0.4099615629233981|
0.6933502746957978|
-0.7913021319188814|
0.48747952350456525|
-0.6172333383094073|
0.37311687777265956|
-0.8229738597198498|
0.3326958005751521|
-0.5801767206862374|
-0.5892787479843096|
-0.5965210641537141|
0.9770611930345747|
-0.7022564469552872|
-0.3443243529605536|
0.11439274986195254|
-0.055731761474002196|
-0.9998864993559766|
0.9642903067087192|
0.7379000415909159|
-0.010810354470037607|
-0.5623747800773901|
0.08988763085705845|
0.1810835030697943|
-0.6070761618425949|
0.7554625511670966|
0.23803207534038676|
0.8595643796953447|
-0.23804169585738677|
0.5353021506019704|
0.655852635237219|
0.4935462257195105|
0.39800881685622985|
-0.9790155861978147|
-0.1849803771431688|
-0.7911087284965551|
0.12822668620524819|
-0.5532281745529096|
0.6827395723071735|
0.9948557063191026|
-0.28646373775988243|
0.1506770971434825|
-0.27725589479404406|
0.02149715955320808|
0.9263797582621882|
0.8137954107889309|
-0.9793014595058503|
-0.6168023916230339|
-0.534252878915146|
-0.6599486068931188|
0.2205965572704548|
0.9013273253753216|
-0.5434797260121859|
-0.23992118548223212|
-0.6103603954404326|
-0.2799344590979282|
-0.9094547288863446|
0.5774321192538289|
0.6178158971750233|
-0.7034508492220638|
-0.7653430663490693|
0.4926809829304008|
0.8841609799010349|
0.0659083358474731|
0.4399062853205767|
0.5774228238947616|
-0.7022674442411841|
-0.7973662059038487|
-0.5009614524768332|
0.11076779857898986|
-0.3092424376626492|
0.7201830816002771|
-0.966344946889991|
0.44508588567375734|
-0.20601174031179295|
-0.9490587071063364|
-0.7529990399999467|
0.3505415294116264|
-0.14139882063091908|
-0.6561571297877755|
-0.8278681004940963|
-0.22739068329212536|
-0.5671010501470529|
0.20396240963697856|
0.07800660176732016|
0.7999395739383108|
-0.7264711287970157|
-0.3260074724566373|
0.9197284705858427|
-0.26214049475390955|
0.8150092229242036|
-0.0075562229794713985|
-0.06802682979180032|
-0.2658084943506574|
0.6107144100040283|
0.8116795221560343|
-0.6639146080043887|
0.32401989656445873|
-0.3313309801474717|
-0.1157932861419362|
-0.7601482403966984|
-0.663544272178174|
0.32361621386114403|
0.8037736721180503|
-0.9558990409156203|
0.018086831341448627|
0.34631544038890566|
-0.5834092527015522|
0.9219813530259235|
0.08554790471441395|
-0.25481609271934036|
-0.5486438761903738|
-0.25162657065065996|
-0.02157968036068514|
0.5888724498606546|
-0.3801012510675257|
0.32522847223760176|
-0.19832231237882908|
0.6965435207523426|
-0.16756772723829566|
0.4383392247738057|
-0.8372246475024122|
0.9145839331203522|
0.0809353039297687|
-0.6060858163597107|
-0.1691836381701802|
-0.017476232098370455|
0.36626367157644385|
0.7523755497202883|
0.5377320749497922|
0.4058546999048299|
-0.9957250655244609|
-0.8947468159837142|
0.9543493235717213|
-0.4173796099417059|
-0.5358848570424974|
-0.3966435441453282|
-0.4837188102461224|
-0.41956943713526895|
-0.8323631833510374|
0.5265873676627326|
-0.9314922844178832|
-0.33835658439127514|
0.34386574655541285|
0.28311785686682267|
-0.744164366076501|
0.8760296156359267|
0.9390543903730049|
-0.4632477966736614|
-0.06748605619260879|
0.9099521173109025|
0.8694072611744985|
0.6397796379506107|
-0.6023337848209119|
-0.8781461312380435|
0.2009172484570798|
-0.8690127760371962|
-0.6405829692649732|
-0.22261003572243437|
-0.04540539180677721|
0.9641892275888405|
0.0012086731395207209|
0.9423836377815331|
0.3752664748912213|
-0.6584565531677404|
0.6726319072915992|
0.43363786516568864|
-0.6984690965298149|
-0.30204073445313445|
-0.10334352203761234|
0.028311807092851297|
0.3477702885427987|
0.4940907571240896|
-0.356422941080563|
-0.14695713226018903|
0.5874570380327769|
-0.5764906318428358|
0.2849088640270263|
-0.4672223469129535|
-0.8833626259878868|
0.8569579558543056|
-0.9200350220974178|
0.6174696930288546|
-0.1440026485246742|
0.6895346620689572|
0.44048067583810346|
0.5023713279349806|
-0.5560740166287648|
0.01013383572233664|
0.8576892051171499|
-0.33305097090948665|
-0.47013119057462377|
0.08376126667324077|
-0.035201125873693624|
0.27266305790583106|
0.6395587268014519|
-0.5843392931466043|
-0.2215647591906674|
-0.448086495519263|
-0.9452779642887913|
0.017831086569963513|
0.6279997788371601|
0.5595424790942717|
0.06566215149347887|
0.5927797851900245|
0.8623555546168054|
-0.08979324655421077|
0.4409312030076788|
-0.6576260972611004|
-0.46517223575568983|
-0.20728813427601278|
0.14066009950426964|
0.09638385433835596|
-0.926768235642043|
-0.7592122578994577|
-0.568714556416698|
0.3080352280491629|
-0.0010595289690878496|
-0.23677020253321257|
-0.8911995393410708|
-0.8687975844344328|
0.15165869599262588|
0.534262098834679|
-0.45000464484140346|
0.2810719516105013|
0.5528974584251988|
-0.7988075656520099|
-0.5033793418008173|
-0.3121209435085614|
0.0961785589925404|
0.4801503835281273|
0.9984831048932857|
0.5065768596774238|
0.38284297453778493|
0.04463420855904582|
0.7378674025195108|
-0.3172574311168853|
-0.08924043358542551|
-0.24605349437451832|
-0.4546349162084744|
-0.21290890596887807|
-0.3568256755915458|
-0.5905553589687189|
-0.9748520772015072|
0.468147771575248|
-0.45589880906747954|
0.6979670782284206|
0.07340974221645108|
-0.3458506022307938|
0.4902351947950775|
0.9610839456345632|
0.685820009544268|
0.4646857852131207|
0.4305985911521374|
-0.6375185345500134|
-0.9540543876450008|
0.19897313453766752|
-0.0947878463752529|
0.37008044229059317|
-0.09395729944050679|
-0.5517093571181132|
0.5250865786925617|
0.18433010930059027|
-0.6392454636638775|
-0.6505614891702654|
0.2590439512812901|
0.8779953268823237|
0.27054178353682906|
-0.3141061186423131|
0.5153801847175767|
0.5111147289975555|
-0.3740969416187842|
-0.8543510125608017|
1.0047365456156465|
-0.8647167529311397|
0.07518863978063532|
-0.05403957710071937|
-0.05381082431399276|
-0.08814890712649336|
0.7025836959948847|
0.9600875993128054|
0.36024596182580015|
0.8799299356697156|
0.7944304250004143|
0.7242032587031478|
0.5891682038045776|
-0.8899887913296181|
0.5976247003625661|
0.22271869529047023|
-0.3431064589498244|
0.052941779568939466|
0.4299105296262418|
-0.16270565360034472|
-0.8420086981494316|
-0.6993303730583559|
-0.5477590895253377|
-0.17240610513331553|
0.9462560513444841|
-0.8023035484782863|
0.9872892942320689|
0.44779010799387|
-0.5950157352289032|
0.691837751697689|
-0.7144282626716959|
-0.39737940519529164|
-0.6320204522692757|
0.2319941842837527|
0.3458742134661829|
0.920598064614121|
0.999413751403763|
-0.47360637071589673|
-0.28239702007483675|
0.9617305867059089|
-0.20201947198839887|
0.014451497198065434|
-0.02200048949953427|
0.7373845558153939|
0.21676695656483105|
0.38484513675792054|
-0.8553368043879697|
-0.3832796612411446|
0.7142497850460903|
-0.9180184870334279|
-0.7074520645293716|
0.18047360938910514|
0.7205941212413162|
-0.6314429292374131|
0.7205147871417464|
0.6265933028766724|
-0.6259119939974492|
-0.40198459428596695|
-0.8875773054126579|
-0.8184074549924413|
-0.10895923846734595|
0.21794837455394683|
-0.6520437404377128|
0.6681012882674818|
0.08989929885850662|
0.39043783729328935|
0.6704312248244352|
0.751942238858666|
-0.796029076576587|
-0.33439517127069446|
0.5179645398307289|
-0.06050478116885947|
-0.5823018781836561|
-0.7356654229668083|
0.44928048146552857|
0.8396548146330475|
0.7804296317185763|
0.003481040228467097|
-0.017544115655017088|
-0.9295448926218033|
-0.016946969498989932|
-0.6594386960185287|
-0.7719612065949263|
0.6749288695753448|
-0.2735440973202667|
0.8244645268587034|
0.5532391939991483|
0.8426166477273624|
0.8911788718672738|
0.0913647499670371|
0.655542319820435|
-0.30483238722352085|
0.7463437195355199|
-0.8687501093674641|
-0.8762974117112248|
-0.03853635686744891|
0.819496580936918|
-0.28751340805131387|
0.16655953861531123|
0.692295310941557|
-0.7637998980851127|
-0.7331253759716495|
-0.39380490239212684|
0.9754526906009724|
0.6918921909873885|
-0.5156484042001919|
0.4143530067105695|
0.6399448438801001|
-0.0803318409317414|
0.15909713293857772|
0.9454763561861074|
0.6432000199662594|
-0.8708391023502198|
0.05858024597742486|
0.4434911526290066|
-0.7624041898931299|
-0.94774833873685|
0.4462265038936435|
0.776711039179756|
-0.03455620548316903|
0.5873414198774783|
0.1808106793243449|
-0.4356023946271874|
-0.876271165907189|
-0.5793991662519409|
-0.9333730790830366|
0.5244238968235606|
-0.30580690027280505|
0.7987317951961665|
-0.17337219475327303|
0.21409297560925108|
1.003589360749428|
0.06456450551512313|
0.772913293892656|
-0.6287526215228167|
-0.012001951886450236|
-0.16807403354801123|
-0.8151911145492605|
0.6592095940378256|
-0.2137333839940833|
-0.39092579393824006|
-0.2348492246691856|
-0.9738100073534386|
-0.6694428086550922|
0.45547755598400996|
0.9951743387381051|
-0.9140119248565274|
-0.6369333770336838|
-0.2317933543982393|
0.5120459725594109|
0.45380684178935204|
-0.01909621132804377|
0.9934624720401103|
0.747174674107928|
-0.9484637582321405|
0.3785708528774087|
-0.19897916791651724|
0.7490548952481101|
-0.5632563519380481|
-0.2912513435560101|
0.5373269210586359|
-0.8329938005606352|
-0.025142422282378417|
0.7851312358751517|
-0.5694846578037182|
-0.7929889029300432|
0.8330944483370843|
0.12294119192956958|
-0.8237980558864761|
-0.6365303230415659|
-0.5407687751642911|
0.6864005639974682|
-0.7890254629455454|
0.38287574095589316|
-0.5277837139452841|
0.2240318566614294|
0.3252651555211738|
0.06648514855255984|
0.6435981020039742|
0.14348113416905475|
0.8615614334828136|
-0.0802796598364599|
-0.9795217012730986|
-0.18935353978071245|
-0.006811619394082149|
0.9584675658457709|
0.5229648489862867|
-0.7618743444973882|
-0.10226655058178916|
0.29633375678992985|
0.6872867702857011|
-0.01842105324714555|
0.15434205574950302|
0.4697261809044745|
-0.3842894988183881|
0.6468068589434817|
-0.18005316814781072|
0.9619304801339926|
-0.5916201284599051|
0.3668442226061839|
-0.2914660855585948|
0.027409367084756654|
0.36918465958082314|
0.21556311947413304|
0.690187834621845|
-1.0148364732609414|
-0.04489711378217022|
0.7202005071825934|
0.09471584427325036|
-0.7776197295883853|
-0.49584035631584894|
0.7684149326539195|
0.5486802420269357|
-0.6052702867959175|
0.3772889142039705|
0.6600452009601336|
-0.4736776224339534|
-0.8110153191410499|
-0.18390759849554386|
0.4250092933006501|
-0.7345382711291265|
0.14506302498861692|
0.3313707443701305|
0.21612743125523834|
-0.09158863972264608|
-0.42123497321324943|
0.44634752406826317|
-0.7974189286851254|
-0.5499824002504006|
0.30400713453512374|
-1.0126017526941706|
-0.39180250559682483|
0.06641824584573147|
-0.02148114753140409|
0.570948191007469|
-0.6606449018070087|
0.8847049408513757|
0.8152396651005845|
0.02250462683449727|
-0.7937450703950634|
0.9503370040766681|
-0.7532547336805386|
-0.4685705839172782|
-0.40338975543831607|
-0.010761383297612847|
0.04004520349107174|
-0.8110987864332294|
-0.2890079239894068|
0.5681771071532576|
0.9632533567824996|
-0.5694869835715667|
-0.40110346347131426|
-0.4782956732748328|
0.21955304458621236|
0.04949202516593889|
0.7590183341523562|
-0.2627276303529291|
-0.004912612132679048|
-0.6090647980952193|
0.6342292674934348|
-0.5759643469761079|
-0.6722722890169919|
0.597112893609857|
-0.2213492472952487|
-0.22469587368805943|
0.5280172665172941|
-0.8642556930454647|
-0.05458128177326952|
-0.33120285706769725|
0.7752827576779185|
0.6531012265323454|
-0.36083746930570887|
-0.6030547348129393|
0.653873808589101|
0.32406809794753483|
-7.506468050561614E-4|
0.42213265309441955|
-0.18100906900245595|
-0.5832002561658527|
0.01890837909692046|
-0.8029411314353633|
-0.8797408097498489|
-0.533742488841892|
0.10632295729528742|
0.5032585392321837|
-0.4970862100116713|
0.14091923359416036|
0.22464735115694037|
0.7661205455865172|
-0.0281413015013215|
0.07235690911570096|
0.2644399309270037|
-0.10978956485475216|
0.9842182881434738|
-0.8157581452701651|
0.8432938792219635|
-0.9717763602409064|
0.08269258284501964|
0.4906216238197932|
-0.27069280991086986|
0.8639726645663305|
-0.4025409261228596|
0.6696241053455189|
-0.5549476124767225|
-0.7372509429237842|
-0.83898501789423|
-0.7325307903595628|
0.15534795268114535|
-0.16667223656920174|
0.5120910507464093|
-0.053157111995119445|
-0.4091423748803172|
-0.051805274425839785|
0.17277901693020745|
0.8990627268929825|
0.183847845416737|
0.07674039682799574|
0.48509170944601937|
0.6335270236177603|
-0.9417973093645443|
-0.47696411676454126|
0.9565831392481515|
0.0372916391146883|
-0.6168358338433045|
-0.6792961332327098|
0.5188062856749809|
-0.431261032439117|
-0.6249663490649374|
-0.7818217388075522|
0.8170719537301515|
-0.18251500981028831|
-0.4885305932047539|
-0.10361320644647445|
0.24989854234838343|
-0.8411721116920097|
-0.4293012316516704|
0.03488009256608301|
0.03460076915748614|
0.5554946469313453|
-0.12246503851829434|
0.6375795153342864|
-0.34706444670047054|
0.5030564327951543|
-0.015178937168251992|
-0.8405817589862697|
0.0740548951813587|
-0.2859020710301741|
0.778242609480295|
-0.9446390415830271|
0.04418846915424432|
-0.22457288146621604|
-0.36661726562573865|
0.8609391033166558|
-0.7548548991643068|
-0.6542004180193809|
-0.3394360621697921|
0.9810336843549122|
-0.8154244367227533|
0.18669104011362148|
0.20801521361731065|
-0.21604021537749019|
0.5628672546937609|
-0.5493049931855499|
-0.6867252383793784|
-0.50420618245133|
-0.9284875892138345|
0.9890046156192761|
0.7334049163521148|
0.07958916462741501|
0.531127367283019|
-0.1710423878303301|
-0.41483974590220907|
-0.4638109022818589|
0.47863643205175077|
-0.40922554771592734|
0.682711924012432|
-0.36118145391052064|
-0.5663257911098643|
-0.7537004995988538|
-0.3963985016998982|
-0.0022071863186046196|
0.24354600913851943|
0.21980538194714241|
-0.6119680115192863|
-0.8978064532353869|
-0.9350074650994824|
0.44571926455903016|
0.6599111046684357|
0.5034124707799563|
0.8150238346307003|
-0.08230592777020788|
0.13691657082287986|
-0.6711136412614042|
0.3313543879527188|
-0.8881499404902109|
0.8187454248269246|
0.10000126149259489|
-0.8644331083883315|
0.008338356248520426|
0.71032676433221|
0.16071515281163415|
0.8716293811456421|
0.8111292201899236|
-0.07232834722312298|
0.26445145558365035|
0.5477316556034438|
-0.3249149445484653|
0.474025960794878|
0.38861889387880105|
-0.15456221207566836|
0.6650492311060454|
0.09140150602890817|
-0.2364558138298498|
0.5214367546445975|
-0.220791691440112|
-0.16847591714219232|
-0.38885675121088137|
0.056134127723229656|
-0.31816657654324687|
-0.48409355706740165|
0.9488544164413344|
0.5547717057444861|
-0.880488400591651|
0.39290872731531634|
-0.27500139093291615|
-0.9828286133536913|
-0.3636888064699929|
0.3143490792399492|
0.959779227374902|
0.22082457816685613|
0.29908949103352095|
-0.15913080360557486|
0.9601754345308375|
-0.23487929984230616|
0.7910534957115284|
-0.1970173979171755|
0.8088201497138632|
0.9217155795434834|
0.2661315841451334|
0.6245492836753888|
0.8724594444575505|
0.48675462172254813|
0.9604964801704546|
0.31053512187774096|
0.38999747587146727|
-0.21934189038497579|
-0.7360053747762335|
0.4310222748079689|
-0.6048720929752345|
0.7378043386416467|
0.5665706032235936|
-0.28526796492353534|
0.2952517466624045|
0.21654438564275558|
-0.9181070599833996|
-0.38474656771461335|
0.6249694735631655|
0.18957503444202942|
0.09944796211771337|
0.34919896073436035|
-0.474578121198609|
-0.6151132513463219|
-0.6963234143285892|
0.8796172909287283|
0.25094189878985595|
0.8376155182671177|
0.0693672343308019|
-0.8051954544559377|
0.43863132217920725|
-0.23505041466798796|
-0.038209998128915366|
0.0619125072959179|
-0.7017141355355883|
-0.2352111076093418|
0.5214058216819941|
0.9789085414280044|
0.9759945392330436|
-0.8845717907963584|
0.2605216411135594|
-0.9474184365353657|
-0.5184582375349455|
-0.8806175267417503|
-0.12667005611583204|
-0.6381440690421121|
0.9248308938221379|
0.3932374557424119|
0.2521809597431661|
-0.8930215784961966|
-0.18989708771160718|
-0.5473854255872594|
0.19547367092441928|
-0.7625572534321391|
-0.7344822889732393|
0.1947673120197733|
0.6965709159731516|
-0.2641462241119216|
-0.6523121364089903|
0.7263417966864034|
0.3993171447802538|
-0.030967125643565015|
0.3213443625198906|
0.5092177088172356|
0.7588997712363023|
0.731361923816216|
0.09619500312542684|
0.270285798257277|
-0.4637464544630667|
-0.4687546569242518|
0.008746070137326601|
-0.8312729918973067|
-0.47518546012862584|
0.4008648674349487|
0.3393363787127481|
-0.4785282784206676|
0.133529043926767|
-0.9342466580130215|
0.07643156881576617|
0.5290009842408164|
0.7611828031582566|
-0.8790705498936628|
1.019633660503075|
0.7642113043748229|
0.8642998441039612|
0.16964532331689516|
0.04086802303185836|
-0.3138408805183794|
0.6990682091106818|
0.3961807239288909|
0.6974515481518997|
0.45990878717197825|
-0.18068199415797861|
-0.3151542167267531|
-0.4921800188274711|
0.41304351273221496|
0.6034619020127809|
-0.22567150291759036|
-0.7713023915998505|
-0.3448542280457141|
0.9471898680625807|
0.8364153905036135|
-0.30615247862386735|
-0.3658986707092235|
0.03464526648725327|
-0.34369997813669867|
-0.4286109552337515|
-0.48934302521729506|
0.6291642419776154|
-0.7133306676960222|
0.7519625654442658|
-0.17162598771188423|
-0.7155730711781509|
0.5806176019529335|
-0.43397873947565624|
0.4772677848168708|
-0.6833637258174238|
-0.344341168566691|
-0.6167782651028954|
0.9330774901365405|
-0.6526271088048266|
0.4840432665692692|
0.12800247387683708|
0.8464769289767481|
-0.20922898676373336|
-0.4029338093818241|
0.49059070180047293|
-0.3360695529722119|
-0.8947886417895982|
0.5425684951859558|
0.47198847875011446|
0.7068874295281937|
-0.24371367778687453|
0.5289900158656755|
-0.5741764472898798|
-0.2513687709935099|
0.43860527051162557|
-0.11972924890192434|
0.20012644071172184|
0.1289336487466278|
0.9458831367996937|
-0.801338806014605|
0.7928990975885034|
-0.897722142640344|
-0.7979726782156085|
0.8563456545117805|
0.8491167539044925|
0.4080970665295446|
0.8729304955121796|
-0.7983299245133568|
-0.5348175122568498|
-0.8673944634593679|
0.2576512371280911|
-0.595686543589944|
-0.9841370547581147|
0.7289071998950671|
-0.8537446149283333|
-0.7649000966662379|
0.5674353479443037|
-0.7646561152762601|
-0.9453078409654473|
-0.5781493120096076|
0.09978299696558798|
-0.7742295202965838|
0.9778300314956824|
0.6480215375859809|
-0.7668701639194286|
-0.8061649837837915|
0.8246966949950865|
0.6269472205562571|
-0.6584352302980013|
0.047552800087619224|
-0.9283371551651988|
-1.0088202838942164|
0.7414720668840296|
-0.08372897044817382|
0.06280743137469655|
0.25246708443194554|
-0.8306318394675112|
-0.6904610815684838|
-0.9242972966843718|
-0.6315415414665873|
-0.7024586283760653|
0.84804137906214|
0.9219981996721851|
0.5051421033601985|
-0.5366399653066927|
-0.7168436873311548|
0.04258456783211417|
-0.5227007278137791|
-0.3831312330988407|
0.6225103673554332|
0.9813375588231297|
-0.40969676225017954|
-0.3816453490987896|
0.9032610515450835|
0.23065224804107912|
-0.3868410939699065|
0.20591062691072015|
0.7523085652598299|
-0.4935806969849573|
0.7721455877801335|
-0.6463160185392789|
0.3906283913543571|
-0.3305119300275395|
-0.25960206436846633|
0.2677089882757016|
-0.5805696630825357|
0.382878598472099|
0.8102055976695532|
0.8887626367141344|
0.9202480347303862|
-0.02180113433001311|
-0.010650363613218168|
0.9576623568918703|
-0.5592326738673086|
-0.880938870338562|
0.6703223832330601|
-0.2722936114467207|
-0.6822904401618665|
0.9916992930503397|
0.24619338238048175|
-0.7537621006323567|
0.9523170497857802|
-0.11488062040236467|
-0.8939412258377869|
-0.1670160530508942|
0.38809545327163075|
0.16699768879436916|
-0.3484813539952457|
0.8245075736118782|
0.7613693200524865|
-0.11710755156700003|
-0.6438932909159047|
-0.09841391528684647|
-0.013702980179023373|
-0.5450291219227889|
0.8336475598663008|
0.7849606758398039|
-0.742325469422335|
0.8574308487679605|
0.048318311594898314|
0.6791996166478685|
0.038391261201691625|
-0.17436661235465398|
-0.559783054361568|
0.8496732980202132|
0.9765259578331962|
0.502114246696069|
-0.6049894333144669|
0.2649543680061942|
0.7443303577635677|
0.025119121289240244|
0.7053932126763063|
-0.7821542551911418|
-0.30908082180687385|
0.4599454788404041|
-0.2271882728284778|
0.7816433109058584|
-0.747794257393675|
0.3191905706095396|
-0.9037733342042692|
0.5558699570723488|
0.789225357314665|
-0.43723474239901633|
-0.12539016336546518|
-0.28589992474687587|
-0.6272351726679716|
0.2731882801126484|
0.5599790981775761|
0.9688278452845239|
0.7644716003490342|
-0.113907616437615|
0.028894171156154457|
-0.5753202740344122|
-0.12987492704165735|
0.4512379946075373|
-0.024748826291351132|
0.7334484341816705|
0.9457039253032402|
-0.23101347034371922|
0.9067977837053844|
-0.09678204210946895|
0.6756824798536117|
0.6651391039059587|
-0.42819244281051055|
-0.6627744380607695|
0.3296696555990541|
-0.9279717783618375|
0.029210470204137712|
0.1847340125117204|
-0.5332448189413854|
0.5907583915784331|
0.8561404169696295|
-0.7938861887776796|
0.8633352429485921|
0.6861598640295606|
0.07124323008835096|
-0.21257930428303864|
0.8405627716953967|
-0.38907563617029095|
0.8357681897255267|
0.3050044812087417|
0.8196485228186863|
-0.5846141286899451|
-0.8774808031929877|
-0.32662702254337117|
-0.7616407682723598|
-0.8721817442342487|
-0.5405319714125357|
0.01384330735396934|
-0.9417100408320773|
-0.3270731498179286|
-0.9908210321603595|
-0.5899365518361201|
-0.010848620011898376|
-0.2001457112752546|
0.19814952877195716|
-0.5476326641664185|
0.8216439422875333|
0.26059482377874826|
0.8806151498032361|
0.8436373248764709|
-0.6808055501397732|
0.23596833755669258|
0.22317739479497423|
-0.9284285951351312|
0.4150816619379556|
0.30452277012492146|
-0.7361272198676925|
0.24402859050606743|
-0.4966573721080948|
0.6750798202632659|
0.7038926868529385|
-0.33796100657472633|
0.43152537594338447|
-0.01742595741217193|
-0.4942701538520757|
0.4020146543268881|
0.6387198087188146|
-0.2358974522886923|
0.3358650306324292|
-0.11894883848384682|
0.9438451277826413|
0.8840563256311326|
-0.2809892128425907|
0.4202370340475222|
0.1612927049292749|
0.6667198763835358|
0.6782663679529685|
-0.018220916973989153|
-0.044495472871582224|
-0.9979982404214169|
-0.1943202084478345|
0.07593550481167088|
-0.9687038587160809|
-0.044053965867595|
-0.1694922814795506|
-0.05907088438183218|
0.004199554431573677|
-0.6571114524693046|
-0.8030858335169263|
0.44090908065591217|
0.38580634218222043|
-0.34511134588571374|
-0.10087252027671213|
-0.2951836685290505|
-0.6610495804036036|
-0.7783497618969876|
-0.4229109279435128|
-0.9343972449789584|
0.5637421089322504|
-0.33581772178250735|
0.22701216416919953|
0.15771530261949643|
-0.25968282258382175|
-0.33877332280996814|
0.9404390931535203|
-0.14378716657702031|
-0.6937883604217558|
0.38025743103673654|
-0.7909926676751231|
-0.9797988975158523|
0.44714346178677405|
0.7610596557513024|
-0.5166021098151926|
-0.24155895793402357|
0.05366258122221897|
0.01323687232644215|
0.66757044049572|
-0.08116421920116154|
-0.22809327732905152|
-0.048249896091408|
-0.0303372621954163|
0.8470145025403113|
0.49830318275684754|
-0.9107559927481029|
-0.4188049096769635|
0.7457256017340521|
-0.362757843650845|
-0.07073758918610173|
-0.8376931432864492|
0.2645247125661173|
0.5890806657364093|
-0.7223641796654557|
-0.5647538499073748|
-0.6745743250868926|
-0.7285629143339407|
-0.3490598167922397|
0.5486433092164326|
0.056662851894930547|
-0.13404604918206117|
-0.9416155528326402|
-0.7466632472500405|
-0.3465793571514649|
0.5839008373254833|
0.5608462900400455|
-0.8395435509233353|
-0.8386081926698192|
-0.06338038473525656|
-0.37393089196658996|
-0.0263476764788371|
-0.6039336490139751|
0.22146765123547274|
-0.5996876275627507|
0.3568946685684371|
-0.11299442140124323|
0.8349136269491122|
0.21153605017686672|
0.679974179261714|
-0.16385017383201628|
-0.30824676948054647|
-0.0801028622662479|
0.7864085405481664|
0.2745538026120621|
0.5212043611598144|
0.3867687367115379|
-0.8977971276029764|
-0.3921887080539828|
0.3856405953785053|
-0.4663269775334998|
0.8870314322019413|
-0.08881653442444709|
-0.760993843242576|
0.783861989467302|
0.5119597091013488|
0.27173380666733365|
0.6464353284670991|
0.11214560346581842|
-0.06985337162236455|
-0.17427544636408146|
0.005243346862808313|
-0.30286400434334027|
-0.676896323967531|
0.8266814815194982|
-0.8571892633590911|
0.8303189221972582|
0.5486890950132112|
-0.5973778142712419|
-0.5185745058527744|
0.9131278790913195|
-0.16987301499792826|
-0.06786632384883959|
0.056690052518130786|
0.5881229564019004|
-0.7027123622834104|
0.3218399629013416|
0.8489779165417103|
0.6664775055334804|
-0.5849423869648078|
-0.02830649166258571|
0.9531679315213114|
0.4279158456508303|
-0.07135202041226871|
0.4649646790171683|
0.9005900744612042|
-0.09783114717075347|
0.23192510311978726|
-0.8133882270399633|
-0.9026479445440528|
-0.029409611178764488|
-0.6200345123624643|
-0.5652549274884392|
-0.4343519977983625|
-0.4076790043420763|
-0.631274501218422|
-0.04718103876299309|
-0.2782655235150379|
-0.03674842551043626|
-0.4343132696386269|
0.13731605587571152|
0.7233926215842689|
-0.5720375951435146|
0.7603164893697324|
-0.29924125368792076|
0.8821365881941022|
0.219112844141953|
0.8598107027368563|
0.8418991515713625|
0.5739080068658151|
0.937491789992527|
0.9483769988410868|
1.0290525146430642|
-0.6936887318260941|
0.6616628744967238|
0.42222316849247926|
0.732890395546518|
-0.022379333370378295|
0.5075597296062045|
-0.31434338021541564|
-0.6747243107844018|
0.012204402761851873|
-0.7862473463295037|
-0.28232791989110784|
-0.3259008339941353|
0.9030171549451349|
0.31593946778485793|
-0.7647154923094798|
0.30268934561446825|
0.4933918741809692|
0.6265108696508638|
0.6453288197294591|
-0.13872218440221892|
-0.8698184528181684|
-0.9006915051782807|
0.8751425461203165|
-0.2248051206401318|
-0.8979335209250454|
-0.8527785997776707|
-0.7437530341911515|
-0.36452557094531685|
0.6416106403969608|
0.5491663911521494|
-0.29306703306042026|
-0.012055541661044193|
-0.48236283569251004|
-0.5009496510721408|
0.5042804957463357|
0.2656982325787253|
-0.75161234256457|
0.14773198731491963|
0.5490463198334261|
0.040531522188191005|
0.46812404058733664|
-0.8233235074649842|
-0.7186192218626455|
-0.9819577748683956|
-0.12777573213122292|
0.8402103694237887|
-0.04286115272679831|
-0.38853056647457684|
0.36303560285043146|
0.7539690752082193|
0.09775654580026874|
0.6820090373890432|
-0.6208687216394425|
-0.8844378454312029|
-0.23635311856844918|
-0.09838235974253995|
0.18977325946901774|
0.2090241266134914|
-0.22015801799853119|
0.45769966352811053|
-0.9336617526769663|
-0.0547982366732794|
-0.6880362303862502|
-0.6494728189952609|
-0.2214406985569415|
-0.417641207659495|
-0.4155508862346632|
0.04741224580327331|
-0.15475393652882366|
0.10408309319349918|
0.09924389835559852|
-0.8226892012811683|
-0.8973487947671063|
-0.14706918083239234|
0.07602037614517294|
-0.3699378398604411|
0.1477920807323403|
0.0741353200245532|
0.947353110174915|
-0.5684176738321832|
-0.16683058313911833|
0.685895456379804|
-0.5148938608421453|
-0.5126039104123278|
-0.40813247755412596|
0.6191351629723877|
-0.8052209077983261|
-0.6021165111669383|
0.7879062590459546|
-0.7910528864453102|
0.7445129530707382|
0.9280049494139251|
-0.8503840143011925|
0.8611641673455723|
-0.34666724311491165|
0.47667965993572664|
0.03182532788681181|
-0.6905684901863878|
-0.10399700637432129|
0.1382881071195784|
0.17219608491818136|
0.025786143819069848|
0.5925068286822646|
-0.6869895822790082|
0.14310805899386642|
0.5453781310668857|
0.057204147992362835|
-0.7854264814922126|
-0.7898331222697919|
0.0604551441717807|
0.5721088660485802|
-0.05882039916054974|
0.3701391635302897|
0.280326143751983|
-0.4539432031907516|
0.353751608893083|
0.3143184709597387|
-0.23366053752996352|
0.2715781653889424|
0.1810348979580486|
-0.85123319394007|
0.059419384480418454|
0.1414411391503707|
-0.1589276454574782|
-0.428715950317791|
-0.1781626058227939|
-0.5802615647634185|
-0.8303062042289718|
0.01812593100572843|
0.38400169454148747|
-0.0939426756945929|
-0.46778171191459855|
-0.5926574741959624|
-0.48273022099780094|
-0.2925849585741897|
-0.6030211978940319|
0.9869591471734914|
-0.4112382745588077|
-0.5002454331872619|
-0.956335191322421|
0.9106038804704694|
-0.9327617516825455|
-0.5889079735370728|
-0.8306472237995572|
-0.8553592780818912|
0.45793883654204776|
-0.5996201005690072|
0.47140132602696155|
0.6619672347635666|
-0.6180296984694833|
0.21382042513936492|
-0.22065254331907727|
-0.8637619769089755|
0.12250267133674862|
0.5288633919039603|
0.13500951090120206|
-0.20633720743025485|
-0.2759574579697684|
-0.07435036160735549|
0.7883505110311788|
0.01659620407607817|
-0.7641209877960143|
0.19744759587864436|
0.7092384433264407|
-0.15663364277361713|
-0.43013890718126924|
0.9553775792217828|
-0.4769824522907542|
-0.3759696106645796|
-0.43465890329274415|
0.4676527003442212|
0.5577861862197664|
0.7138583287337166|
-0.07495010460229815|
0.027220847259145392|
0.9478580923822344|
-0.33379326832875034|
0.8125181538839509|
-0.7776675444602903|
0.7728600622197925|
0.043868434086903066|
0.7081450078607385|
1.0258160008558932|
-0.7682992870199727|
-0.4233612642907692|
0.47628085641946144|
0.38616396625786753|
0.9400544036444852|
0.8677705892072607|
-0.4356605969458681|
-0.9964850380459034|
0.2660750901199925|
-0.520440349674608|
-0.6060112035100864|
-0.022859692043881476|
0.6053369875428115|
-0.7408647893951787|
1.0042534250396014|
0.6502760995113851|
-0.28060166547146836|
0.9020289497437887|
0.20560740977221284|
0.3359314947135129|
0.31473914011491455|
-0.3559908580717207|
-0.10139031335924263|
-0.9975622541813591|
0.43604782906547385|
0.6979158730732268|
0.33498576929866514|
0.66782839107759|
-0.4643084582981302|
-0.19324216684740375|
0.2611659028076549|
0.7922590667341249|
-0.4669359706973967|
0.7809939770219071|
0.6511396714275097|
0.017745460093165702|
-0.19601651593624725|
0.06278641095814438|
-0.2596428158308176|
-0.5320161965313157|
0.4498334859215288|
0.7046366148227711|
0.06145871786963434|
0.5094944443465481|
0.0034675730732527444|
-0.13233778871675766|
-0.8435762619967988|
-0.3648079349200943|
0.10244825063040557|
0.9303922971630134|
0.9188532916659613|
0.0037818156065909|
0.038483485266752514|
0.18394717672728805|
-0.02515690544186152|
0.052454590929179694|
-0.6923946379780836|
0.5805895608018561|
0.3516702914345114|
0.6613526422138798|
-0.36128757995690763|
-0.3554325178947956|
0.7069517183675484|
-0.29021257582697557|
0.026805431481296594|
-0.3970001395730204|
-0.6749798113474955|
0.0790312971986142|
-0.022434159641379205|
0.7924776790691439|
0.6488272984855143|
-0.08708128541602711|
-0.8410942055191826|
0.7387944100873192|
-0.5179393588455605|
-0.00797418483092956|
-0.15553455613657863|
0.08378008274557792|
-0.7008379351267091|
-0.4037009510206687|
-0.16370295787347544|
0.5347084945013678|
0.21038165045274904|
0.3992346347226065|
0.2424088684185862|
0.9719557059155236|
0.044929173797483485|
0.7709961522019058|
0.863582232343541|
0.8172913813028773|
-0.06911741704821239|
0.6410425241763476|
-0.5922277141471414|
0.20811832756274704|
0.21205618228087048|
0.40506828172447107|
0.20873201030933927|
0.6846740566415683|
0.28326287257562477|
0.0746420393687384|
0.8580363426894279|
-0.20979170142492679|
0.6929251354536056|
0.42975566189365716|
0.4847739818755506|
-0.02430404501904862|
0.5677029418118635|
0.3719971907429638|
-0.8491572844553301|
0.7612047799885981|
0.22434989368903663|
-0.8021464959532755|
0.9854863759499803|
0.5582233375567023|
-0.43908076453773115|
-0.1499376190749098|
-0.866809402005996|
0.08940570628077063|
-1.010225561167263|
0.6565873009064471|
-0.47086041961152175|
-0.5075551119314666|
-0.19620765339507096|
-0.7410973787898768|
0.7104050181169026|
0.9003303864652908|
0.8292875130144537|
0.5786498968248833|
-0.7606319858504693|
0.021687043243448917|
0.25124545381264596|
0.42572213444580903|
-0.776802382686034|
0.451409075807792|
0.17386639020340877|
0.6124570310232668|
0.7179870768692879|
-0.5850919758298518|
-0.9791625746153051|
-0.9082979232934907|
0.5887394887177093|
-0.8449712800122833|
0.6692939801467422|
-0.409180334111626|
0.39500586273133104|
0.10089678653404986|
-0.36793455882451004|
-0.5165524567433303|
-0.5025335526330522|
0.9062676040472583|
0.8350860483178509|
-0.7987017284956953|
-0.7911444904028183|
0.05082921458604963|
0.9032503134129922|
0.8149537446517153|
0.6833045291971626|
0.9737068156607521|
0.5462252850995433|
0.5128286884662555|
0.22261306646210935|
0.1271899584423444|
-0.46897635046139774|
-0.12279359307250158|
0.012721797738280997|
0.9396302181333596|
0.17269496710361518|
-0.4097832596190474|
1.0074143054531763|
-0.559082328141711|
0.1859953425062936|
0.6927500769295899|
-0.34890132693510106|
0.6110922656177216|
-0.20622125119091855|
-0.34379084397991305|
0.22850144821788423|
-0.5802119840235608|
-0.8046535697388143|
-0.14102049404040964|
0.5712158183011431|
-0.14316481798055689|
-0.25602619641427926|
0.8001669050100424|
-0.318307108324368|
-0.8435725128714345|
-0.7978998145413218|
0.7994610166939038|
-0.9472489715683906|
0.5012393289168381|
0.7492654529371044|
0.9408890990745237|
-0.7599036616255485|
0.031919374667695656|
-0.9412158400326675|
0.05608687169169822|
0.7391684245372132|
0.45704347058582423|
-0.6849014916682024|
-0.5108367450241328|
-0.20530262578648792|
0.5609658394510766|
0.06526468866160148|
0.12470178638747692|
0.48611517600284765|
-0.15302135292329622|
0.9360768899564555|
0.4159144718944227|
-0.9306086372010463|
0.41267025358313214|
0.3022546269020643|
-1.0156390929229917|
0.17956892485481882|
-0.4361774761219031|
-0.6051037548100857|
-0.24275405373725567|
0.25960652936947887|
-0.8105476252326378|
-0.7074088079058763|
-0.2894737635967068|
0.882206379515222|
0.7673889143615387|
-0.5619945498007002|
-0.7299377524653526|
0.27289032256640455|
-0.7094888223166859|
0.17668604624555048|
0.2786415650625382|
-0.560796674995582|
0.15506079915152232|
-0.05192717739767119|
0.8184819789536988|
0.8691857219566997|
-0.4150120898486552|
-0.7169642717884098|
0.861678758054339|
0.9775410163574627|
0.8599700473636355|
0.8624434514416546|
-0.5291612635249615|
-0.5064571799545939|
0.9469926382080495|
0.32409558069970534|
-0.01541719755223612|
0.8458489248761405|
-0.31718633375477934|
-0.8718069268991583|
-0.07443400520229378|
0.8767105920331745|
0.5746292555123391|
0.35505607068370215|
-0.9609703332506162|
0.7785702315930336|
0.06564126823939978|
-0.5612987338928291|
0.5112594579601458|
-0.6559648734156491|
-0.6204633237594444|
0.4790121607551913|
-0.7444492159404288|
-0.3051503217285653|
0.7031148488349905|
-0.30948137506525597|
0.06714966665986888|
0.659335242336894|
0.5959666606809851|
-0.83241314846442|
-0.8162894752215195|
-0.8905520580251617|
-0.07781239002585673|
0.4801360851873552|
0.11355289234660719|
-0.10664869140315669|
0.5794469528614485|
0.32928042299645405|
0.4115982492661616|
-0.4324554283396676|
0.9179720731302635|
-0.09581658301462724|
-0.715655039154111|
0.8411465431381882|
-0.5191054363908213|
0.3355367113342176|
0.37116711100079075|
0.4517144037773131|
0.5404903720752755|
0.7237958946082071|
0.5928872086079612|
0.6619282539746746|
0.6218459936247164|
0.44301384400255867|
0.7370962898452298|
0.09747953211252683|
0.11732682987665684|
0.5840237273740433|
0.7290611482376841|
-0.8928986279337159|
0.5597310539610006|
0.15801800312148098|
-0.3332093706894536|
0.6679143230748973|
0.29315586594007115|
-0.7578456160149937|
0.8972644404024306|
-0.4335483250514365|
-0.5904483234662535|
-0.31766763408502685|
0.7661640724916281|
0.9434504252900181|
0.7742295956965343|
-0.668572264048729|
0.45897656067178433|
0.9065435287900935|
-0.8311528797316262|
-0.6824700259919168|
0.3812270655772988|
0.4946422369757109|
-0.07893809237460189|
-0.50868500673623|
0.33268018323469395|
-0.6124071329658843|
0.5011338772092082|
0.5829658766214116|
-0.06318066449005957|
-0.03319994965934804|
0.5000206618146766|
-0.08806242453010917|
-0.242710112610162|
0.5707396469837858|
-0.7418931595185173|
-0.30868044989443155|
0.3477872608468064|
-0.7134725893971576|
-0.11520190105573865|
0.5424691589948919|
-0.18577267661306962|
1.004942039194559|
0.7646363314498456|
-0.7255104375867033|
0.7308840695338401|
-0.46268757396398935|
0.8504704741999407|
-0.5625660685859848|
-0.260809833904455|
-0.9769518962270518|
0.5921846486013701|
0.6545682516227612|
0.8888162679453598|
0.2663705486337938|
0.9627616198245257|
0.029295841937448667|
-0.4716373245141339|
-0.8610431892068481|
-0.5553547044939846|
0.9299842832363096|
0.4925615465214469|
-0.299995058612272|
0.38329291693364054|
0.15615966427353734|
-0.5259407111800289|
0.7735884157351325|
-0.1542234836178778|
-0.7518082491922283|
0.6627816588353683|
-0.9648086051213745|
-0.7819053115955603|
-0.34889183213656727|
0.866943411229783|
0.06286322010826341|
-0.5102610054115326|
-0.050668317829832554|
0.8194597107560109|
0.4785525659939024|
-0.6413433364376016|
-0.029725993334003963|
-0.7489705188850746|
-0.29847345231472694|
0.7968132759652181|
-0.8924881535490131|
-0.9664098778845742|
0.9791695306814349|
-0.24582167731795868|
0.1078158213895345|
0.03370398931641643|
-0.5202283263220173|
0.4991795705367321|
-0.6526743947168151|
-0.10195472332509135|
-0.29572842701952967|
0.7013480223230535|
0.6104471347361434|
-0.7825788049364591|
-0.6276274625383895|
-0.22044770636779765|
0.7525464295041824|
0.5638828679861329|
-0.8836598841301552|
0.3741450940031988|
-0.16294535615357866|
-0.8841241993077066|
-0.18038672604471828|
-0.37540854894642156|
-0.02546730212319118|
-0.4158626324472741|
0.2989503038108435|
-0.7035644177471138|
-0.8591626061636525|
0.7429591753666215|
0.14101502921023545|
0.5304897268843607|
-0.7021288694908175|
-0.005142677841588425|
0.7942065485211599|
0.8367263271993794|
0.04185940399276112|
0.950564235451713|
0.4634526776103742|
-0.22568171651353844|
-0.19925047608348956|
-0.6474879410606809|
-0.13617352951074996|
0.6467116911671257|
0.7024086417830515|
-0.09527816583521131|
-0.02710376586088017|
0.388742955095025|
-0.3286382367170426|
0.9397901792155917|
-0.549408164488177|
-0.4652478841663375|
-0.9712783299581015|
0.11238336781411899|
-1.0200268983420802|
0.9078834468631158|
0.8036440544357226|
-0.1334501268704657|
0.8750838679353591|
0.5179611239885332|
0.5667396751452565|
0.6165295434009198|
0.9652453885586301|
-0.2239277785072772|
0.311398556635456|
0.18860099933354654|
0.6283505562460715|
0.08260773077880294|
-0.7332047024560413|
0.6904593675416245|
-0.6710203240283847|
-0.6299528053199938|
-0.4968894119659165|
0.32776804083610483|
-0.921162871351694|
-0.05337610034474765|
0.487374530966316|
-0.8838290051269945|
-0.8752868812695345|
0.9161460258252403|
-0.4701774205871276|
-0.6034802411570886|
0.9835608975076617|
0.992959144849184|
-0.7328530137625533|
0.5910848031717634|
-0.8270603328047832|
0.5024682655227076|
-0.35241574932818237|
-0.15358073702648217|
-0.5120990541388437|
0.43123034019778034|
0.5304362510326642|
-1.0179002589760289|
-0.34840679720058426|
0.006892820436400413|
-0.18947713978087502|
-0.4796839288408938|
0.25785391685574516|
-0.9397487296703101|
0.31170977927531|
0.9668790675240949|
-0.16833445016613277|
0.48080020094676756|
0.6934483665065513|
-0.8097432516834933|
-0.07193135994871576|
-0.31629583025488983|
0.6748625591025935|
0.3679172914128681|
-0.07233349277681912|
0.8247932619961355|
0.052095149249274206|
0.1950827748366794|
-0.3628237891322863|
0.7838940543621796|
0.35890147077767687|
0.18943011746793803|
0.1258131436654127|
-0.026471867876878975|
-0.47583762840074423|
-0.3421182956396127|
-0.6717499631924848|
0.866185211552872|
-0.282943042036251|
-0.6022182709002714|
-0.17056193168188782|
-0.9207697791542128|
-0.702494999125663|
-1.0165755748759577|
-0.8632375611393557|
0.7406047162428175|
0.4007064517504652|
0.026679342695251285|
-0.0068651798802469785|
-0.2576763723936251|
0.622788400325119|
0.8297627240360819|
-0.5161788963676429|
0.1204270659061797|
0.8493301650146031|
-0.6725475369505864|
-0.35795883154896896|
0.9591702619716689|
-0.39456434975054244|
-0.8736510673803819|
-0.36782345629976687|
-0.22530453952546087|
0.20278914258209046|
-0.6952265780623044|
0.18792411089043937|
-0.14459967329842296|
-0.08797841497526478|
-0.6707904826110114|
0.49293640760689333|
0.3801752410692694|
-0.05976041570873981|
-0.9374932340111491|
-0.41694882961277513|
0.2729964617262911|
-0.7978756079404369|
0.0573670911738352|
-0.2940785624024167|
0.7319484257813611|
0.3794713609056676|
-0.2880977709946692|
0.4606712816132954|
-0.844790655063167|
-0.10691892290333331|
0.4913846348220545|
0.47250791274243187|
0.5377430637588937|
-0.18071020480740524|
0.11730766617606267|
0.351361298363941|
-0.7943332910736715|
-0.934910755932062|
0.13594883514106326|
-0.9609907356211931|
0.15461097438157279|
-0.37175595488467983|
0.40989228183422793|
0.6167572116367962|
0.037496265842175434|
-0.7845693166983921|
0.9483057284935862|
-0.14991094576911992|
-0.12535554350991499|
0.8429050470693884|
-0.23051823726418463|
0.13759655157671463|
0.23879263974880544|
-0.8186487556380956|
-0.3782076690137804|
0.9600130614568482|
0.5109672265709585|
-0.8826813553057097|
-0.5988010294969459|
-0.7858856672951311|
-0.6900533629432988|
-0.010551729808993741|
0.22767913431099032|
-0.47064020224967107|
-0.7229026587472817|
0.7790523668754943|
0.26329924954794803|
-0.03738205406729295|
-0.019709699856332214|
0.05033662543125315|
0.7789360912626037|
-0.5165299897443097|
-0.5167832501835047|
-0.631484599865324|
-0.10431041393619443|
0.6432463099014774|
0.9301415774909528|
0.12654274377974062|
-0.7156264479284687|
-0.8021974401470712|
-0.428255172142841|
-0.60767567801549|
0.6496866408798819|
-0.7591386687528602|
-0.757078841833535|
0.24949662856652244|
-0.26349064833169555|
0.8635694708221867|
-0.7743040414546492|
-0.12814689149452918|
0.5156024797419675|
-0.8465160442120535|
0.4385336329965053|
0.4739510756797201|
-0.1719708403580269|
0.8958324119519476|
-0.7847437188092193|
-0.7936618764587114|
0.26060146536328704|
-0.8830024060506213|
-0.5952642348124584|
-0.3168368407388318|
0.9475395681929258|
0.755518106908131|
0.4893074392563879|
0.2605052545045084|
-0.8444560128578594|
0.8865737800571272|
-0.780025622295434|
-0.4229284676212539|
0.9323364908093876|
-0.5191755186222935|
0.3852767719441603|
-0.5051989693337717|
0.5599944945810283|
0.4174897044447452|
-0.3468959912388462|
0.15079563991890285|
0.2412041736641522|
0.9117659365880695|
-0.21776563836605714|
-0.462825852300946|
0.9397653614543107|
-0.5834203753626956|
0.5548714384736617|
-0.7589004779326116|
0.0770769292105505|
0.14600400142690387|
0.9162508833914821|
0.9470099627454677|
-0.5059287075408051|
-0.14939898483372993|
-0.3445683146408723|
-0.404007134849625|
0.46922046581154686|
-0.0843916916825011|
-0.21754087561592383|
-0.887547459912055|
-0.7729187716058946|
-0.3217164655893259|
-0.10797979039105252|
-0.8711193546941471|
-0.0991620619912628|
0.23989074862929788|
0.8931900736936317|
0.7414420493688052|
-0.3796357861817767|
-0.5593890683467991|
-0.5197241368029807|
0.1836639401546556|
-0.842786879292786|
-0.45686221927039766|
0.016437821673062947|
-0.3268112938822186|
0.9389052486499876|
-0.011963642930649932|
-0.17680429222175825|
-1.0046820167950838|
0.846583136224944|
0.7992866482625793|
0.4986931673932657|
0.5279200945525762|
0.6860900132702824|
-0.5321740836773189|
-1.0166672346285381|
0.03998008163840423|
0.9420696132254406|
0.771168490805665|
0.6590163681916948|
-0.24437760286773788|
0.8153566103069728|
-0.4376315073450586|
0.7743228056059895|
-0.46242394037622386|
-0.047693080958244656|
-0.947949780983822|
0.5119720899686341|
-0.6732185156878386|
0.3751720427645001|
0.9569394076510775|
0.23615393586660158|
0.09850609469033994|
0.262521932836282|
-0.24044068450154238|
-0.07424234269311225|
-0.9187396702425372|
0.4383567729904939|
0.5965595775714149|
-0.7143901917306482|
0.5560975482234506|
-0.6326275849905427|
0.6644763503095814|
0.4799396069607345|
0.6760195155680365|
1.010674630021086|
-0.36701498271572686|
-0.5337822278055474|
-0.602005622988815|
0.833450646254307|
-0.46356466620990805|
-0.8971291946482383|
0.21540240078211015|
-0.06763687175334612|
0.09806294980652225|
-0.03596112911332264|
0.37949475886180617|
-0.9540592998407019|
-0.004684157852415416|
-0.6134060667013489|
0.8498917687710125|
0.8329165191917172|
-0.38484629567269724|
0.5959983494085462|
-0.6860074981222313|
0.745660681811985|
-0.6422135410119906|
-0.7838553321925332|
-0.2591391723288522|
-0.0573315995069033|
-0.21828834505507375|
0.13385566408975516|
0.12587902988882768|
-0.8672943144049262|
-0.2231365827790462|
0.015726436746175607|
-0.12144928598167651|
-0.7388192681547053|
-0.022395967138985583|
-0.5596389886753905|
-0.18838010051258502|
-0.5865239869332051|
-0.27290153702574516|
-0.6702005006126108|
0.22399764496280916|
0.8722773897007847|
-0.2448674860413095|
0.9663105891652908|
-0.36774882023340033|
0.5856243701258139|
-0.4159510510940136|
-0.11541433599070611|
0.9303572189366187|
0.3559037788045758|
-0.19346170495763038|
-0.20069062879832103|
-0.852762968735664|
-0.5469324200012602|
-0.2761796780468368|
-0.04262579528884528|
0.6766034265242546|
0.7431238303246428|
0.6993604664462458|
-0.027132895291998957|
-0.3718754939390243|
-0.4397411518278148|
-0.2340094228949839|
-0.7649443850721785|
0.41081357298173404|
0.31965552144383974|
-0.29375416355048933|
0.7790694711439052|
-0.591660926202941|
-0.15944194381950538|
-0.9899930058143811|
0.7967994587500153|
0.17146243011066786|
-0.8503990289191791|
-0.44831334048271676|
-0.49879243248217636|
0.17674939724541083|
-0.5953314048393421|
0.6693032710322816|
0.4563702339387778|
-0.6897941971953503|
-0.4326824635118029|
-0.29075369142359203|
0.7065077796092558|
-0.7330161817936657|
-0.39997406760313364|
-0.9696125288563601|
-0.8599224190547734|
0.3539049260987993|
0.7338010454794319|
-0.4663551056047183|
0.9152175342549241|
-0.8873475332217179|
-0.5080889563741064|
0.8072936566915051|
0.3840299181297933|
0.9739198749959833|
0.9076617135865176|
0.10020194380408251|
-0.0663670810641161|
0.9698474602087146|
-0.3740594475031404|
0.6032383261109069|
0.9592808987951172|
0.9255282581997388|
0.9747740221375735|
0.013584971464265145|
-0.7122780546658579|
0.6099151659395793|
-0.905517187800306|
-0.7645497603648136|
-0.4821779738925553|
0.6617069525095942|
-0.5466349259380481|
0.04980807924565057|
-0.7079270479459364|
0.4162561551650513|
0.49935072861621893|
0.05415082757004906|
0.24867574554244856|
-0.18588484956564028|
0.2829405359250727|
0.40228029532527976|
0.5506439244998711|
0.019026752815849063|
-0.11683531194920199|
-0.34167584891715613|
0.588950254212391|
-0.027163925713491584|
-0.6071997189552968|
-0.33594627144593275|
0.6433952030662053|
-0.8233788627056224|
0.3005954767699455|
-0.8625066322897452|
-0.885961648570631|
0.051837381789606576|
-0.4163711823924746|
0.020417072584621436|
-0.038520451354749394|
0.5092471285965623|
-0.34274467074457704|
-0.62931123468646|
0.19273181112045867|
-0.09039656471390686|
0.37481271799724153|
-0.5894302770450185|
-0.8998765694726595|
0.03531877960699502|
0.76642291667277|
0.311562306051022|
0.7061401729442802|
0.13103578157470772|
0.14704263925594901|
0.2358380381020476|
-0.765069907697767|
0.43824514733772196|
0.7960629954441679|
0.07070270447224218|
-0.9878737194458943|
-0.8142835992099698|
0.5741192992362842|
-0.743625641901971|
-0.23635844157475777|
0.2069735142834923|
-0.3248692661313812|
-0.2568595800828482|
0.15345308514808972|
0.7997287436801676|
-0.11792247013367305|
0.29794298337106867|
0.2174247459707181|
0.22704917650013234|
-0.11146062677072348|
-0.8969116023679768|
-0.1974733370066772|
0.5718963417065724|
-0.32600895663792767|
-0.47989776192993705|
0.18783231236220654|
0.19062410059372067|
0.7973925944191524|
0.7006231113579775|
0.6718293948378141|
0.6223676104780308|
0.757877039480565|
-0.8567502403113896|
0.036263367642259695|
-0.3712202916518191|
0.33959413276597245|
-0.6982908923529016|
-0.18559755027892913|
-0.30220736401193704|
-0.006322896773336458|
0.4208435529205889|
0.5106868558445745|
0.13530355360072824|
0.30768690593543585|
0.16648670487717684|
-0.5675862333336609|
0.9660557104480247|
0.9712325197353987|
-0.3456564761650027|
0.12320601714805464|
-0.6467174246879608|
-0.46411821398854886|
0.11295544326721364|
-0.9388836578665531|
0.5634036211844171|
0.10287662398844515|
-0.04339348686927015|
-0.05385580916208134|
0.1242569329326795|
-0.16677576016878692|
-0.91799038231159|
-0.6727437878675313|
-0.925005751265271|
-0.7053594216364425|
0.2262279563381087|
-0.8046582928004694|
0.28047319529957|
-0.6909787156108214|
0.06885109393257485|
0.5740496265066265|
0.707442195266174|
0.307450942719545|
-0.8339740774014069|
-0.008210851501392039|
-0.4945981931015132|
0.20733601335233212|
0.9796751365992082|
-0.4457115963692626|
-0.8964376228505796|
0.6221154801385854|
-0.6884866911904536|
-0.2632035144450112|
-0.6116291264195505|
-0.8645899227378403|
0.8664950297859311|
0.7989268337451739|
-0.5404677850734957|
0.5559582524933728|
0.3871235231565024|
-0.7143575846570477|
0.9040214140789029|
0.8950955612880149|
-0.2808624840263279|
0.6733431139124515|
0.8604546857582622|
-0.23682496015626814|
0.689771457367849|
0.734614603926696|
-0.4364366853535516|
0.7215784425853877|
-0.09825205206524953|
0.3721602740887666|
0.45147466558160865|
0.3959166890238429|
-0.4774324022095305|
-0.6568213391659188|
0.4602611927692243|
0.8001745838023603|
-0.7357777579462325|
0.21928294322022646|
0.3916465081134113|
0.5616192890618433|
0.09043741456752874|
-0.004424093995057538|
-0.6856415313830836|
0.812159715430892|
-1.022598491782348|
0.1911874854148853|
-0.04788098113619212|
-0.9328293563679297|
-0.19823469343473935|
0.5377783892319331|
-0.7787125543001284|
0.7038484421152154|
-0.5322233914235486|
0.9758494190099394|
0.6939432464603413|
-0.9785263247448543|
0.9193182761795398|
0.19490054952322858|
-0.9423795246643679|
-0.502835724199262|
-0.3308000361769917|
0.8301975632359256|
0.2611919554689572|
0.44827934360466987|
0.6312568286379315|
0.031115987422137142|
0.7334087439282049|
0.7972832109902305|
-0.9223795319899049|
-0.03794922901286582|
-0.05831067360017186|
-0.40517225971146376|
0.11920032271599677|
0.9158844120188474|
-0.845824917699709|
-0.6410902466956852|
0.02391275429968652|
0.3318221853784358|
-0.6833665102633736|
0.9011247132890788|
0.4189165245563578|
0.45363070571374847|
-0.7325268885034106|
-0.047970340204443|
0.8568617205633183|
-0.6870646039155401|
0.17527599332052313|
-0.031769615410409305|
0.46576567398412216|
0.29240068614074777|
0.4133974736711822|
-0.5127816688667388|
0.5935345248813935|
-0.3101129074542238|
0.3618961317122946|
0.5311441609164846|
0.7159597329972246|
0.6784302876615683|
-0.5547185060999771|
0.495174560018601|
0.437365059403652|
-0.9729591867398311|
-0.7982502148725236|
0.5270807944282357|
0.4001585142930357|
0.9446459614325478|
0.44873089843067704|
0.17760968233196187|
0.10704081201291056|
-0.5525857212577142|
0.39000658405684197|
0.17077178282193264|
-0.32379983186294825|
-0.8452673949752665|
-0.9090314802467917|
0.09948692319480316|
0.9689312572388916|
0.38676073647662923|
0.8730560873111799|
0.6871831360927394|
0.20405754348456276|
-0.8107154312268421|
0.22321374144905265|
-0.677978438339531|
-0.6339281729639127|
0.6727153104658878|
0.6502424594636859|
0.5583169829758846|
-0.47175441606210183|
-0.9060379064750953|
0.1143640741650264|
-0.6852731514372267|
-0.9513704501664985|
0.25495913345273113|
0.8175882317158513|
-0.30990838106682866|
-0.18980779734316242|
0.3188364659049416|
0.9661301737308222|
1.0077234278806082|
-0.09581128743465467|
-0.3268542972566108|
-0.13412236569816863|
-0.6050471072435077|
-0.9560586159811861|
0.41804069247591136|
-0.5895913150903586|
0.6133071329211577|
-0.695989618181148|
-0.41238210095313554|
0.7589123068704822|
0.3703445793253493|
-0.8478289342020503|
-0.30834331377131186|
0.9057710678554991|
-0.8476648937780323|
0.25329293737049136|
-0.32298903312000404|
-0.333778863125221|
-0.6200736993853599|
-0.5156636611144192|
-0.2390415581963844|
-0.01111398485477655|
0.7498415498050842|
-0.16231548082737668|
0.6331700501438549|
-0.21278149281653214|
-0.8484205492811191|
0.041589343098562555|
-0.3240062476926778|
0.2793740127653261|
0.7960105111141746|
0.7101786086743517|
-0.7703886887675527|
0.2028125111607756|
-0.17650202083976077|
0.8074616393595192|
-0.6718584526601737|
-0.5577391371375886|
0.7810734308890005|
0.1277053455197817|
-1.0137307788588605|
0.26908350859569646|
-0.5392498989145871|
0.07223530944128473|
0.3196777303259456|
0.45166601104277704|
-0.8262525307750342|
-0.9617527354060902|
0.13558295294659325|
0.48081965312649794|
0.46211494035421796|
0.5587264350262465|
0.7839737789829294|
-0.8985096301759163|
-0.9797169990520302|
-0.09577007519416693|
-0.41165254508123644|
-0.7704564842279576|
-0.8873481952813117|
0.9181381347861595|
-0.05947938968060548|
-0.7001524678931228|
0.8966135612273327|
0.9451930491985624|
-0.027991655987144537|
-0.9556453794523369|
-0.21985529967280723|
0.47472494667910387|
-0.6401292716098254|
0.7673772225028794|
0.08662163340816674|
0.9312685826949028|
-0.16750741089182947|
-0.09154741230251622|
0.914449332603251|
0.5613718128261256|
-0.5429092300990547|
0.48838482100583747|
-0.7352595057229794|
0.43246638044673696|
0.24509080810359238|
0.774790100681409|
-0.46057433585539964|
0.7401328406760774|
0.47689278394483336|
-0.6709375285525206|
0.9183087003340575|
-0.7604729927217635|
-0.8370090087631024|
0.7489796443575579|
-0.5614107409381045|
0.8862876602122097|
0.46500977741276456|
0.8806912709429915|
0.803033616811336|
-0.6955496323492634|
0.8776426559893211|
0.17458526714600414|
0.7981331194059242|
0.0024100246393309018|
-0.27946558814521|
-0.691098701127504|
0.6985372093351744|
0.11860135357498663|
-0.9404356269649528|
0.9679763331371426|
-0.9115119837010787|
0.15199766046236532|
-0.6100640510917836|
0.684776897929536|
0.8116140217351475|
-0.8245041992319803|
0.7380649433650284|
-0.7043269667102862|
-0.598641462691036|
0.13251025434060648|
0.9590632848098515|
0.39983805841265163|
-0.47060659401068355|
0.31961243313916776|
-0.4293866278516803|
-0.845959896951451|
0.6837405622919841|
-0.8821567402727082|
-0.6924841111431718|
0.43159950077964515|
-0.09134010784335567|
0.260372183420578|
0.28807661374125615|
-0.2548826013783918|
0.14014230213514448|
-0.5487106129072047|
0.7514745326857986|
-0.8718821797589977|
-0.7826879692181243|
0.2034584049819273|
0.6713019122334334|
0.5706903748306325|
0.018918861465223546|
0.6968083615859129|
-0.42741109199619004|
-0.10287529083068356|
-0.7449428949911082|
-0.2397812783344622|
-0.18263144214290028|
-0.710821100026518|
0.5922993396503964|
0.1989050947851572|
0.5835845438001799|
-0.3601483223116557|
-0.8315551224874486|
-0.1432762179081349|
0.09375581815471073|
-0.2691454757734056|
0.5539414583774106|
0.7157353778342243|
-1.018066738361546|
-0.6491575412995361|
0.7788079060850163|
0.5524651446611798|
0.5413341909040678|
0.34168073055117976|
-7.073771582312659E-4|
-0.6744369633179769|
0.4107991431018739|
-0.9464087488687088|
-0.07336577332844649|
0.5176191733419833|
-0.3410962055307127|
-0.9459841583958054|
-0.5955997507130883|
-0.3434643106678172|
-0.39331243783387637|
0.06650894498451991|
0.6885189277413423|
0.8816898914032174|
-0.6717594367782264|
-0.2262947504569961|
-0.9273041690257772|
0.7750298678398063|
-0.2915268998877008|
-0.873388979203017|
-0.154313948284106|
-0.21119136274079153|
-0.05145902465271772|
-0.18271998910040255|
0.5904005485903119|
0.4949113478450585|
-0.4918876389441343|
0.6983678468011087|
-0.3163208088379103|
-0.6832928019846678|
-0.5869377358475055|
0.23752224575962816|
-0.43350999846593974|
0.8304165685483909|
-0.8497255973184871|
-0.8880540362480365|
-0.40145787954741025|
-0.4637832409608599|
0.26768865903526323|
0.03894285751884087|
-0.524201843799234|
-0.1639807654514959|
-0.4100847637847413|
-0.23386064053207994|
-0.26186608091329383|
0.594143390727874|
-0.8806824549510907|
0.23271053368394579|
0.12278922639408739|
0.20196861856884402|
0.38351212912531535|
0.4381218606330104|
-0.3535446262468771|
-0.21116652480012538|
0.21408343388853254|
-0.5734393022681404|
0.8832383350589512|
0.7825864568786158|
0.7003734451578542|
6.512592948597443E-4|
0.676474529933349|
-0.5083308617607809|
-0.6394830686646391|
0.366373267711489|
0.7432582598240475|
-0.2540526490422496|
0.8236633337233583|
0.8932174708035665|
-0.11554738939362681|
0.3704834866340651|
0.7357826747632328|
-0.9285397335771891|
0.7675733626559157|
0.014682076644478908|
-0.050022756597931574|
-0.8271510386852652|
0.9004040237119074|
-0.8587534794370584|
0.1329715424994727|
0.5179309351109669|
0.8028003347733195|
-0.20342330183153381|
-0.5394200982877642|
0.9330271735545382|
-0.2815243865454165|
0.8107103151592593|
-0.8704257306126385|
-0.17687149156876134|
-0.015377649558557699|
-0.30217930315086766|
-0.8952046747678826|
-0.715115194154194|
-0.33947780542105593|
-0.7336916210842719|
0.10815645533730492|
0.7571749831716604|
-0.565598532213542|
-0.8788818844490744|
0.692822126264691|
0.47511049077668127|
0.7012558503416095|
0.662244967952141|
0.8681491751126951|
0.41217869549190084|
-0.606949665108941|
-0.3888190708793585|
0.8100191724180399|
-0.9928321230215658|
-0.4892406284245765|
-0.6931147265603192|
-0.5757785660346911|
0.7933495097259503|
0.8114443480304986|
0.8614270180021607|
0.7403346175899621|
-0.8431203041565402|
-0.32151807664511756|
-0.59467079729306|
-0.22966861365656593|
0.8247027444107947|
0.8792318354747112|
-0.9985577775342203|
0.6485853625547885|
-0.7598077323173001|
0.8733437282774907|
0.5539903454442177|
-0.7608476077360984|
0.14919849769675642|
0.3252443488114581|
0.6303052018676881|
-0.31502958371705686|
-0.0653172198953764|
0.14440482046096262|
0.35063615873766324|
-0.600313265943975|
0.6541894156837581|
-0.2990744496518171|
-0.4316754467306717|
0.9264605473918186|
0.1727114972056966|
0.2206395414048885|
0.3779982875989826|
0.8170820503673056|
0.5150614964255598|
0.16093978184379285|
-0.2958808311353458|
-0.7705093772664741|
0.6784788879587721|
0.08024848613697613|
-0.14227182921249915|
-0.1312329366623042|
0.36711864941887484|
-0.49559387480685574|
0.8513418030121459|
0.6005838114402552|
0.5263442831898496|
0.2787451928498625|
-0.9985772764251923|
-0.7808224176992808|
-0.030904570702620187|
0.5923782761396931|
-0.01787065326384321|
0.9514696045183488|
-0.8017270309060486|
0.630985854310927|
0.8384595133741116|
0.7111884965696307|
0.8872429892703565|
-0.7297781582833023|
0.8633862545809752|
0.0823985221272739|
-0.42162093689179897|
0.536885575550842|
-0.5222606796573608|
0.4240695142708659|
0.9129289341452003|
-0.7728365249533574|
0.08210390194802558|
0.5976783888729431|
-0.08911747560558587|
0.5799777233975668|
-0.6581874605780208|
0.6996323574886186|
-0.8700194554261944|
0.063985294596884|
0.2522689560187651|
-0.5318458082455858|
0.2858698088705157|
-0.8897829684540856|
-0.36278425090607486|
-0.7220138022830075|
0.555580186035368|
0.6672475400873342|
-0.6412002424203671|
-0.7430521974717457|
0.36760425228077814|
-0.2739235648089943|
-0.14645149900162258|
-0.39961228975857166|
-0.8970546342841454|
-0.1839729730411644|
0.2933230346980846|
0.9149213478546736|
-0.7138576432512586|
1.0233145381899005|
0.3749693236761194|
0.657337678494492|
-0.41572867670494984|
0.7980310396972621|
-0.7895565278223974|
0.2961391376427304|
-0.908758601647798|
0.8835163334962324|
-0.6883609731855121|
-0.3907480841062126|
-0.9063599018523927|
0.563062417617816|
-0.531164341820801|
0.011465425277593673|
0.8669783712009579|
0.005944541651349559|
0.10485376147581685|
-0.4064006188338629|
-0.06242106473231916|
0.3041741782871584|
-0.09911383448454629|
0.8876755983257663|
-0.750085365731901|
-0.4958632360448168|
-0.4107512548809079|
0.24121753424273723|
1.015365251940931|
-0.6639838114771988|
-0.6644775785530698|
0.1663770665992112|
0.9684893571444775|
-0.8674281565339631|
-0.38453332660811335|
0.5410692999396364|
-0.3348300502210795|
-0.6253069975364988|
0.9598934238698668|
-0.2512294359851547|
-0.3614613773996221|
0.7514283815367564|
-0.45623292005116467|
0.3532853286620584|
0.8126024454489089|
0.6549799713261999|
-0.8481511156057056|
-0.2457350536867427|
-0.7269530484502439|
-0.12262194183024808|
-0.9012197229559921|
-0.22631619830664254|
-0.3139981903718888|
-0.031712529849060755|
0.9414828045943454|
-0.531987547988522|
0.1399280313167998|
0.19549045503104517|
0.73753781359569|
0.4353408209983346|
-0.17797023387247177|
0.4413807556693498|
-0.2659719086550573|
-0.026536769807160743|
-0.18987902733145148|
0.6368070672523934|
-0.8068324410939979|
0.6114137768440867|
-0.6575879914887752|
0.6388700396384648|
-0.9725046827230093|
0.6685194453063484|
-0.5484323504421169|
-0.36807041467691937|
0.7220329568783065|
0.34615550488825425|
-0.7730654799570849|
0.4777492810008116|
-0.10095064978847271|
-0.6832287631127738|
0.999370961798546|
0.5173495502967163|
0.7370929528493622|
0.22416077441452908|
0.1439349425150723|
-1.0139923244200006|
-0.31812477845475984|
-0.8887331913059843|
0.035535140585435665|
0.5749701006599434|
-0.9996379655109171|
-0.1651903115426861|
0.4016419091615181|
-0.741606714420973|
0.8218514063709161|
-0.4135643088201675|
0.5831660713835659|
0.8437167012363842|
0.6902632210176615|
0.6782744171949393|
0.045134600327525524|
-0.713958994583285|
-0.8851623861177298|
0.430891264342669|
-0.7070070092199441|
-0.9060914501177394|
-0.7162422721155375|
-0.20739494507688913|
-0.1912548076186886|
-0.19476510400026956|
0.13100141284850986|
-0.05783067116991654|
0.2197780288077451|
-0.9440394347843192|
-0.1521971282977404|
-0.08252401610952068|
-0.41686290570704915|
-0.7603419703718455|
-0.6958587269079765|
-0.41671001686961895|
-0.6846819928247211|
0.5082791128949685|
0.8187981490545208|
0.38737746171692716|
-0.7107356299530907|
0.3870189717891978|
0.3984920211660575|
0.06929852412280395|
0.23111164682432578|
0.418665543008073|
-0.6597069718543054|
-0.724747863816043|
-0.7608474205031316|
-0.35585760252989773|
-0.7877307582996258|
0.9785042966601734|
-0.3662896929357257|
0.46440689676511254|
0.8286170756309383|
0.6346163247617417|
-0.30725420910404516|
-0.5108577926536023|
-0.993252508927667|
0.3767240204964542|
0.7249635696578076|
-0.5521094346412766|
-0.6829812545169311|
0.28739553892755676|
0.4583692064068719|
-8.856369639152707E-4|
-0.14161059691400307|
-0.054028975711559776|
0.2806678555870058|
0.7442405065347208|
0.753729264599775|
0.20838076388467602|
-0.009658074446747883|
-0.6218687984983848|
-0.9934007243823401|
0.8230878615418454|
0.7807531395744953|
-0.17240323701408167|
-0.4230237047604751|
0.5880448038578566|
-0.6428538706771888|
0.4687508143055632|
0.6116039445720295|
-0.466616337728026|
-0.27131563889514704|
-0.37199552722901763|
0.36801510132025117|
-0.037973174599409264|
0.433650760131079|
-0.6003869039215929|
0.9821416422407536|
0.2060414785928081|
-0.694938443271724|
-0.56544719967067|
0.5729219512353363|
0.34331765216210225|
0.9578032793687858|
-0.5231490162648569|
-0.8230208299741066|
0.825585276880714|
-0.9976787431125864|
0.11200000463958684|
-0.304832989766566|
0.9004249187082805|
0.8148585872666513|
0.5307098354703672|
-0.4752402971234683|
-0.8993823888469056|
-0.9521746892826107|
0.32125128077096093|
-0.8283559621684147|
0.9349668100585479|
-0.42172137517351116|
0.5131887253872175|
-0.837207062182836|
0.47378091366436703|
-0.723306979214714|
-0.526245477946515|
0.6264686279847106|
0.11896656680910553|
0.16080037124821164|
-0.3998086902720447|
-0.3358886659525796|
0.9885979948570057|
-0.5396189656935253|
-0.31253112002048394|
-0.1749919571108902|
-0.6131090605383434|
-0.6639259268851401|
0.012223014845103587|
0.697703163200684|
-0.6583408390483537|
1.0136285906125952|
0.2821276821716736|
-0.05215121779841265|
0.2910613282723435|
0.32714998485753616|
-0.07065162871884412|
0.9710674085827684|
0.1730201528020682|
0.8494619033773511|
-0.5674420778891284|
0.635392865636781|
0.6911994335282592|
-0.13161142197917902|
0.4899902503426606|
-0.7189133753960552|
0.6689265450734427|
0.7189715085053621|
0.6017035296549982|
0.9518967373846238|
-0.6993110531113762|
-0.41533357320522507|
0.721606705441435|
5.198545172535851E-4|
0.8508008633251078|
-0.2387056734061844|
-0.6200686172332862|
-0.5730522810713549|
0.9224308334855186|
-0.4911776722304217|
0.8591886360352426|
-0.4794909509135551|
0.005844604487377279|
-0.2704860597786887|
0.2247936909996452|
0.029782344508284913|
0.8043021998296533|
0.12521532444416508|
0.9360062138346504|
0.5559705487687514|
-0.9839587907562042|
-0.7523218596675288|
0.621068373861933|
0.19894479682041155|
-0.30332356577396236|
-0.3140242248792125|
-0.24400700383622054|
0.5378621492254488|
-0.9419447717787524|
-0.03664067975377793|
-0.1921058281321643|
-0.8990517221115694|
0.7876443908698777|
-0.9267170093802312|
0.10561522760461026|
0.35332327684830755|
0.7861158142889217|
0.6824316485900048|
0.4590571308326394|
-0.5585527356061833|
-0.9502946140725027|
0.7836750816935998|
0.4044679556157125|
-0.8034590086219557|
0.9405144297355702|
-0.21053748222164084|
-0.3931882842843519|
0.6754412092028268|
-0.6935992055932366|
-0.011502580925921447|
-0.2966709534673892|
0.8194921633153077|
-0.0294344199046976|
-0.008940599667189473|
-0.14974924508695509|
-0.39701596782674153|
0.23066170271634634|
-0.807934392570966|
0.685874110254364|
0.3194385006544806|
0.3698700080507068|
-0.5670155473015607|
-0.009635716050142391|
-0.970694250232717|
0.24141538174066438|
-0.4457306464285|
-0.5290523557154382|
-0.0029913477428253556|
0.12518450671675918|
-0.03017576652197949|
0.11039125173897597|
-0.32362841390171126|
0.8343258588077084|
0.5531386731178979|
-0.15914009598062226|
0.9507358219071379|
-0.2928800059441017|
-0.0332573889660335|
0.6690887291461103|
0.9951212743488602|
0.3637924642942296|
-0.9519858216951158|
-0.05696290440770772|
0.5881817200125267|
-0.35114283773857646|
0.8543249527153609|
0.45888243884470065|
0.837481122306138|
-0.3763253147266968|
0.8124941678245102|
0.8986292263926742|
-0.5115192006074175|
-0.24239843382261636|
-0.06369310364597634|
0.1020741431970076|
-0.8419742258839745|
0.00440582743249623|
0.616173366367729|
0.1008318288218654|
0.4490187190184743|
-0.24031814024808035|
0.5663106247138969|
0.19656621485206635|
0.21390759172398713|
-0.36729295015624946|
0.6346261735270684|
0.3978416500951183|
-0.851032734054033|
0.27571187836821903|
-0.36287352135183787|
0.2856883395222921|
-0.6483497302669863|
-1.0213515280615295|
0.2952916481141479|
-0.5903725263611085|
-0.9272837290485295|
0.9091741281733935|
-0.2137941979160994|
0.6181156538666064|
0.6909429207206862|
-0.44693630722287325|
-0.679697094305091|
0.6309804210618898|
0.07628384163445014|
-0.2176553384678437|
0.7977042580974436|
-0.06381998844877852|
-0.18829249895140035|
-0.7416858535588756|
0.5455672857698117|
-0.7913034208804742|
-0.3156459376719536|
0.43431616034452375|
0.5272103553111318|
0.7158142747248896|
0.881103475269076|
0.7002206590601453|
-0.4471931162270418|
-0.08144463591134798|
-0.2867361003751929|
0.3140819412811893|
0.7234161686498362|
0.9345673472943531|
0.308446260019882|
-0.8138989041924375|
0.6242323089841039|
-0.47451297473269183|
-0.008505579379305957|
-0.8350327277667049|
-0.5264386664763309|
-0.8233442490411426|
0.12643561175463083|
0.4843764280237379|
0.5336433096332905|
-0.4848832188169215|
-0.15447965839457378|
0.0810634964784433|
0.6145912599621627|
0.598929411205707|
0.4814064758773508|
-0.3997738661637322|
-0.917657530771488|
0.011571427750099355|
0.36104162918203214|
-0.29912480763947613|
0.48097158626398184|
-0.05553335348627307|
0.4681591675934747|
-0.3583189794501853|
-0.7401494030251641|
-0.283743823303232|
0.4201313115892175|
0.7662483250081403|
-0.8023610408448474|
0.10747157968851326|
0.6375639960211278|
-0.5653645265211723|
0.025616376402979212|
0.7676555786970921|
0.43509751778803973|
-0.6101284372628142|
0.47839150685956466|
0.11363375696906429|
0.3394494019175565|
-0.30250321352530724|
0.5146205146252807|
-0.5272731488355891|
-0.8034735634969484|
-0.9110464364583236|
0.4502267981702224|
0.4481828004120339|
-0.365968248610003|
0.4349901265369676|
-0.9280875650546039|
-0.12042661842137607|
-0.7642760457189185|
0.41976756250780817|
0.4255936843942451|
-0.7381309912995324|
-0.8839513175562101|
0.6631015764531621|
0.7919487795278606|
-0.8379872181760581|
0.5939663939601989|
0.3270345702663564|
0.08078925986460805|
-0.4102407704456537|
-0.6953647541752863|
0.4118210273712942|
-0.6759761568455265|
-0.2756574949301825|
0.11061696846075175|
-0.32758379738891497|
0.9347764266355356|
-0.7264090345052014|
0.9865361840581655|
0.36564385708810115|
-0.7868796378792576|
0.20024854631289998|
0.6242696353987176|
0.6887078501074706|
-0.7157924208292646|
-0.9315744768618942|
-0.3974093592274586|
0.8194636218926798|
-0.44923412991368994|
0.5178636515000291|
0.5563728451952039|
0.9072765785710668|
-0.1671376807255203|
0.07646486155095278|
0.5713526188663206|
0.22522987552339604|
0.03438401589719507|
0.1156883542653672|
0.41833463671702303|
-0.18103009965867506|
-0.25925312701493114|
0.2645804058690152|
0.5921250585288098|
-0.7318731973435045|
-0.2206476410246188|
-0.637985807917391|
-0.8297259619165233|
0.48156097033439743|
0.11725797530011448|
0.24164053179991768|
0.9453413557628061|
0.8571480011751981|
0.4923058276238332|
-0.9527527191691127|
0.565399776324395|
-0.6943345279209363|
0.7166935575013618|
-0.18686558006811677|
-0.7130085619374082|
0.26521563921437674|
0.7222883613558623|
-0.6171438093985321|
-0.07065685385115483|
0.7487509695769567|
-0.21749634788302355|
-0.2863672815874859|
-0.2475110854380692|
0.2538036056177429|
-0.012984302530209194|
0.7903845749416162|
-0.7106978296512969|
0.010090709478208035|
-0.08641242456052965|
0.7095431882047321|
0.9108488130969578|
0.6568341036836234|
-0.15200088604599046|
0.41008695333992906|
0.5765746976154369|
-0.39151196097882873|
-0.22651753136064223|
-0.35050283789149156|
-0.08032970929254796|
-0.9003974912841056|
0.7830532624143739|
-0.36881280544529216|
-0.1653332445782898|
-0.7661677535936326|
-0.7274662934943402|
0.7624833846061521|
-0.4700037291431351|
-0.3420206177468637|
0.33217384389715476|
-0.7445596389346795|
-0.7190623183645488|
-0.3525038134745797|
0.13020038589322294|
-0.6288805251362384|
0.14725729345549776|
1.0002803141945804|
-0.0586006605317589|
0.33034402956645037|
0.09673915646917228|
0.832225671008259|
-0.7765367344964967|
0.3875939597408501|
0.6838457916216002|
-0.3206032867807225|
0.4264654924282556|
-0.31043837553936915|
0.8139288564147055|
-0.9737221820043208|
0.5722109936523626|
0.01798277214596167|
0.20586213289201602|
0.36375891988850134|
0.47598527314914685|
0.7511821938376224|
0.6657158195337859|
0.7409076460577256|
-0.22080420472512446|
0.2186030998192983|
-0.5099238672874694|
-0.9464453440774981|
0.8416242217597387|
0.2987256359048556|
-0.47365341732553856|
0.5323134679547387|
0.4459111147199623|
-0.9521826893319296|
-0.1560782464753672|
0.8117952153464411|
0.5772832064250941|
0.4927589055116776|
-0.8733351657254842|
-0.12971041683494494|
0.16396483180456659|
-0.41378705577003944|
0.7761044285972247|
0.12243862055563916|
-0.2886605312870709|
-0.09677123905441673|
-0.783664168177064|
-0.09639345787126619|
-0.10432906574250983|
0.3827603574541224|
0.753682624242755|
0.8113925386189467|
-0.7465033332738982|
-0.18228652224232805|
-0.15076214677618813|
0.41317147242545127|
-0.9655097239316436|
0.9577853323169848|
0.8191700751532741|
-0.6109746508494379|
-0.4894232685035897|
0.5461479656247661|
0.24930857336577997|
0.8315881315393117|
0.10079637120852852|
0.38417378151621695|
0.12491618303689053|
0.3071214533454347|
0.1264503300319971|
0.8294372023492195|
-0.9426285568066789|
-0.8078343434568864|
-0.6743965965995017|
-0.4532581593424517|
1.0208575138738094|
0.5309705136090547|
-0.08700498390667422|
0.6974927912533108|
-0.29561942461423496|
0.7023967572195459|
0.16541201210554446|
-0.02160176970732287|
0.6118376613241524|
0.5699039851487129|
0.2224638983884528|
0.8039943808672841|
-0.8379416632337007|
0.5635663732396408|
-3.819006690297571E-4|
0.5089901328996398|
0.7750923692806444|
-0.5302686103644597|
0.49210928392059916|
-0.7965229197538977|
-0.10944108190019153|
-0.9011251343266662|
0.45114748759740686|
0.5258713558569182|
0.8801416200605449|
-0.8209450398092506|
0.5047876831210764|
-0.5435184013337147|
-0.5487645948724635|
0.3748564080804031|
-0.27452134421040175|
-0.6026568651373984|
-0.7045939369600202|
0.911836317087943|
-0.5791806929488732|
0.04433904160373386|
-0.8345330155008663|
-0.44876033710998925|
-0.9253222387441271|
-0.07690759671756738|
-0.18188745948028226|
-0.22233139118625866|
-0.9477990149185521|
0.952766840636338|
-0.8074294266820514|
0.03951838446296144|
0.40795521168587|
0.31180942493947134|
-0.3544916342701652|
0.4936099363304957|
-0.21671331867212895|
-0.029482798409742984|
0.10227201764099314|
-0.619751615216459|
-0.28889308785677226|
0.20202296064384198|
-0.16954279069363154|
-0.8667428736206809|
0.5142246280916977|
-0.7016629625352346|
-0.7320729961577542|
0.5429476581166724|
-0.20489874835046426|
-0.6308148228598556|
-0.12409070279268516|
0.3323466548705715|
-0.12622404869236772|
0.10697909955984576|
0.3774944062630312|
-0.8483539397435229|
0.7170148835465454|
-0.3068267305466392|
-0.5547692616062522|
-0.9117805813048124|
0.32760368109652904|
-0.7786253322657452|
0.6159708775601785|
-0.9393312038952956|
0.1838285584717448|
-0.7042639629553946|
0.7697753674976412|
0.2044786277058562|
-0.09943903753190628|
-0.5972640224471368|
0.9213349217507958|
0.272963527607519|
0.4919151616083844|
0.44506999778728973|
0.8889683769636308|
-0.033295897717318494|
0.7680512236026642|
-0.40234198213565125|
0.3555598610224303|
0.18631799406362506|
0.8081818171065163|
0.46232795352508166|
0.8160088922103105|
0.5969291628431864|
-0.37738459228025045|
-0.5088513784169084|
0.9003539823325506|
0.1143647872923231|
-0.6339500271044942|
0.18434682263585048|
-0.1246305619131208|
0.5557428543464583|
-0.12524442861075674|
0.4401526706402002|
-0.33987115908409665|
-1.0118562635642285|
-0.9120324351828188|
-0.1882651902659263|
-0.9330578838166778|
0.6018836095460562|
0.5542374398026176|
-0.5820376527775076|
0.1220963878543401|
0.8790019398955076|
-0.7659461100976567|
-0.28234861531371624|
0.8215050115043363|
-0.7680092060695577|
0.17317685991270768|
-0.575122176817206|
0.8047485002278038|
0.5777383927914285|
0.8782729066339122|
0.9569227719374952|
-0.529744268336507|
0.45491869681272146|
-0.07749584917339256|
0.07917240954694418|
-0.6033022254529565|
0.6944740079784633|
-0.5164108408856559|
0.7957276550715283|
-0.21173922536079676|
0.9140684075207866|
0.5906297289654481|
0.7386373401967432|
-0.14081606623976467|
-0.10127341171213339|
0.7307828398290063|
0.11613749120275316|
-0.06617549301930409|
0.5170262710026022|
0.20413609421715773|
0.2927689508344968|
-0.5236656915567601|
0.3780743695547405|
0.8618801644686088|
-0.5789904496698207|
0.04844171922345564|
-0.4168979346637378|
-0.15184582366768723|
0.168714941736622|
-0.8971700921001535|
0.22094521162124767|
-0.6000229357446392|
-0.9807804090061141|
-0.6460743610079903|
0.5927034797007337|
-0.8162126063700843|
0.5640157677950457|
-0.5641312726799054|
-0.38699724464785196|
0.019767436914576605|
-0.3538302955877082|
-0.6658661829763527|
-0.1760022367164816|
-0.787186584938|
0.31381926418485656|
0.4358795200523683|
-0.46128738601076774|
-0.44384963800292354|
-0.3396900073842824|
0.6675631194760017|
0.6696868304435435|
-0.9220132061854447|
0.4778227587117078|
-0.7257759636268483|
-0.6263605771412526|
-0.5815148087665643|
0.39547578029904307|
0.46343369493138376|
-0.7887292686556204|
0.29188932941150175|
-0.028791046159350814|
-0.9874090455310468|
-0.6265369091644132|
0.13460816788241317|
0.17504955558698065|
-0.31336340497785464|
0.9537661212130851|
0.26692441221870883|
0.06896494401589262|
0.6908153522884036|
0.24254169043201732|
0.05774330590717485|
-0.24556085898407587|
0.3226703047687486|
0.1206702342820172|
-0.8819483420542705|
0.1354318098818179|
-0.45446340114060085|
-0.09640632054946151|
-0.27798882321658713|
0.4189526395912252|
0.8096599881621507|
-0.38492157683138056|
0.4037904787004626|
0.4475131510770444|
-0.5723944132888521|
0.24948921466104484|
-0.3553801712206954|
-0.6843665359925641|
-0.32560054718925346|
0.397130262000602|
0.5601884557905156|
-0.7465333743489178|
0.7907181728250483|
-0.2977806719253617|
0.2979888210969794|
0.7155843530734756|
0.0597592921791791|
0.2581788822917503|
-0.1797251283557672|
0.5002869343907129|
0.08198417438863932|
0.584420242294247|
-0.2580052735254506|
0.21284377901141643|
0.27058689897064925|
0.7786006649166347|
0.5656118958168824|
-0.22598806165575797|
-0.694623032883088|
-0.7435014826524903|
-0.7500260373966331|
0.7781932619552563|
0.16164980325760972|
-0.8981765895052408|
0.41359300943570426|
-0.6568061302380283|
0.6257474969988301|
-0.5359049185995465|
0.3342062742317207|
-0.12344331148571862|
-0.7382189164043987|
0.5412281168659362|
0.2782658222749888|
0.1098987874252361|
0.6023320212040567|
-0.6088845763180843|
0.8366564093642115|
0.5565854718448923|
0.9646935742262512|
0.8785155743405236|
0.5192495854011198|
-0.2451789052596596|
-0.6956403565449667|
-0.9743063505534497|
0.8786339399342514|
-0.6362276788073401|
-0.7194087977809375|
0.41846777416310277|
0.3253401921731164|
-0.8640793891745105|
-0.004310175960471922|
-0.6103807489200119|
-0.3434826487359705|
0.4541657014416846|
0.1586279601215115|
-0.5863242950965221|
0.06912647045802019|
0.26388653591777966|
1.0014418955269362|
-0.7144180148826533|
-0.6945467042501573|
0.4189153978799393|
0.4091028471054525|
0.43320471091307505|
0.09500036892668139|
0.7106759597851486|
0.8235574451673882|
0.14075870268185647|
0.9025319631136073|
-0.5869514601399053|
0.9656224834019592|
0.9806012557547471|
-0.9170546964711492|
0.3906151641665752|
-0.18480535767329656|
0.4055469334256617|
-0.6784545381507986|
0.6399891646241626|
-0.49585014327160976|
-0.8774262983907365|
0.580301264933631|
0.776709817338609|
0.29251747137778755|
-0.9636024660884719|
-0.6954917938100498|
-0.6645569567589324|
0.9605883105495862|
-0.2753160125962301|
0.3588265245017025|
-0.37761813620609624|
0.12945685245647479|
0.40670893892282417|
-0.32032263601613586|
0.3203616222113356|
0.7596040247649273|
-0.38018355388917335|
0.47175882021629423|
0.08233648177571068|
0.7224688245007842|
-0.710068310883776|
0.6686086616721675|
0.44574713374609276|
0.6203832995997152|
0.22984653079769846|
-0.041789166833119715|
0.21994841046242003|
0.8667676707404567|
-0.8131075186994687|
-0.1272374602262171|
-0.6251107833331958|
-0.8933405839057894|
0.8749510178465078|
-0.07052360639890651|
-0.5425885982599068|
0.34549663362704686|
-0.12714528532174238|
0.06089254253791159|
0.8003018688973014|
-0.15325414195792508|
0.16915051890684837|
-0.5429660047685876|
-0.4948812595621603|
0.39827166866006314|
-0.5735793766722181|
-0.49216581407290744|
0.3141556379910992|
-0.5968776508920167|
-0.18671486400146264|
-0.883067926500754|
-0.8754193973212159|
-0.36692868053100663|
-0.4312108687955538|
0.6803988895144203|
0.08897965362866339|
0.4769351893108884|
-0.189737530361959|
0.3494350083626734|
0.14574261138173655|
-0.7638879013027486|
0.8113917893388982|
0.27233694813377085|
-0.7859038021743386|
0.4238643230658163|
0.8240717569039803|
-0.8521997619849463|
0.7954013101420739|
-0.8486867653898771|
-0.8645151032008961|
-0.8012205156890535|
0.16724638178372164|
-0.4195025866073912|
-0.21844735053326803|
0.17135250395303558|
-0.12974732774639902|
0.5664130854045936|
0.11807759911082229|
-0.46806778855906694|
0.0229484529075875|
0.74685725700515|
-0.18796185671720317|
0.9422056013744565|
0.5602126478753585|
0.7002250728249717|
0.33101071630000656|
0.03204084937088881|
0.06014445499466209|
-0.05963080697236014|
0.04558319613576674|
0.42644056967971905|
-0.8338797432361492|
-1.0112888847324693|
-0.6082643892367637|
0.8170363527669433|
-0.06860054256775013|
0.9784992406412351|
0.17777974568110116|
-0.8167243195063387|
-0.041935025318050226|
0.40216068562364765|
0.47744500099405895|
-0.14458279381711436|
0.9779430005811256|
-0.9530590771596423|
0.763502269700184|
0.5517413111292243|
0.13027682599563767|
-0.5354616872599242|
-0.3828107306931069|
-0.568386024011683|
-0.696130814484765|
0.15543299163635396|
0.9412023619035665|
0.19959188573023293|
-0.9851299228069379|
0.9431701132997232|
0.337167526479496|
0.8594356769328934|
0.29526081341113886|
0.660211779135728|
0.007097611269446916|
-0.18319754178626066|
-0.19264943876955234|
-0.2925049720628975|
0.3495674500497082|
-0.6644382714474176|
0.9690076116365417|
0.6499858700548652|
0.596314902214948|
0.04880590584251131|
-0.294590630083892|
-0.853798746642958|
-0.5248969204176466|
-0.7887326940170515|
-0.09547998237530735|
-0.5996725893224045|
0.049757931476895674|
0.5334538737120409|
0.342726775209343|
-0.9842089904816211|
-0.6894044842461649|
0.8674813867518333|
0.4219207622801712|
-0.8833071429212052|
-0.3966464641822503|
-0.2833770610465742|
-0.33403913953092046|
-0.12869339995565515|
0.1354828942797252|
-0.9480570687153014|
0.36224984606036664|
-0.07337724249757688|
0.35919843851670913|
0.4263571446467185|
-0.2059098273325275|
-0.773783971074035|
-0.8183318378178523|
-0.027244663606276216|
0.3063734833260701|
-0.20375475917498617|
0.3934389855673993|
-0.2947652486927843|
-0.3945691918319911|
0.2824287337897102|
-0.268514442778497|
0.2392372896130631|
0.6399218898950634|
-0.6837813009859139|
0.5406134304037157|
-0.7265325392841849|
-0.5069486579995192|
1.0043776417519619|
-0.5179759998570004|
0.4658307952627839|
1.0061157787292965|
-0.2503821024484676|
-0.07902324992794357|
0.11499006048498356|
-0.2158667383824194|
0.8034893953819986|
-0.47718896622688567|
-0.20967609367302703|
0.9999299393883458|
-0.7387356143985151|
-0.8857372773290948|
0.6039316904681532|
0.4178204487033371|
-0.9644305465859371|
0.6382988769815312|
-0.943710468525364|
0.8884479687096439|
-0.7041422474303518|
-0.3021393118455218|
-0.11184296120693622|
-0.5743842498643825|
0.4224367619149274|
-0.6348367072383353|
0.9378187366915871|
-0.37833702459686597|
0.09626940409847116|
-0.8125652606810086|
0.7456923473863888|
0.06411464849032156|
0.6095174015199256|
-0.6143992010624809|
0.03277811722310648|
0.782694383861224|
-0.8390452660035349|
0.663793205171321|
-0.4345202034479813|
-0.015150606072759426|
0.5437166664835461|
-0.9256388651356104|
-0.3594009273579522|
0.49649105179304864|
0.7908556119931056|
0.3536767245927536|
0.19436129661486654|
-0.27864117931643084|
0.16127499805066164|
0.8232314538832461|
0.8530493035575596|
0.2913046321993199|
-0.2541038972709633|
-0.49763327574691363|
-0.05545778419276337|
0.811420425960538|
-0.41073870357044784|
-0.10793822225312259|
0.889112600369831|
0.72337161760397|
0.30496439172614986|
-0.2950744393993757|
0.18361196659666168|
-0.8964209017699395|
0.5023061576699613|
-0.755122577037677|
0.6790502409951888|
-0.28166097586595906|
0.7649759810684713|
-0.7346047349885795|
0.6164894930789703|
0.8224366377719585|
-0.4839589968315966|
0.7244313907281199|
0.7766113987547143|
-0.3952250727435515|
0.9416322928709102|
0.6155481865456504|
-0.07589739974102476|
-0.794799463710139|
-0.74569111344431|
-0.3060820119281632|
0.38314704854569487|
0.6175270212037188|
0.6934593664344889|
0.04223929296940077|
-0.020423825394565956|
0.3809827109119897|
-0.3785703207963305|
-0.14438347137003657|
-0.11398201173316364|
0.30923283400727625|
-0.6708574400453827|
-0.6614208053321469|
0.8387693365630661|
-0.06892894019568153|
-0.3680865152818966|
0.7432252625817256|
-0.40618861160264763|
-0.2799099570571538|
-0.5444575218073701|
-0.19854213276560598|
0.4766268511467727|
-0.5946499657405089|
0.28239588623813566|
0.07626577805988843|
0.2894858730213579|
0.4673123561477127|
-0.37705703242224387|
0.4915857398239033|
-0.13281944189364847|
0.3624354037031638|
-0.5101150359006913|
-0.3569676889027502|
0.45769929733570447|
0.9423951820948041|
0.2652120236546277|
0.9643210603483141|
-0.47655569708459183|
0.039351325579754806|
-0.6714888939726719|
0.824921311198879|
0.902414756874691|
0.5847350568614336|
-0.5394016803015999|
0.837029000805269|
-0.8942689788433741|
0.0672167869208298|
-0.22281655389380642|
0.3616316757017254|
-0.5726189060307344|
-0.4157283293149793|
0.4701274414697459|
-0.36775756642035423|
-0.920659080881213|
0.5640994524604137|
0.9906449078095085|
0.12500083396685843|
-0.7676376828058286|
-0.9533914153772898|
0.9487817878796174|
0.21003049787033362|
-0.841244197968952|
0.5194361096290389|
-0.1999067973533444|
0.9230834960547699|
-0.7872770048082709|
0.006583957401413047|
0.005832344896111118|
0.3488147294485888|
-0.5354056546118007|
0.8582178713601636|
-0.4750302367084592|
-0.3485814136427819|
0.09156370593066541|
-0.2215979830624212|
0.21699306867305362|
0.3014395017506583|
0.4787048285792442|
-0.09448803446042728|
-0.4082368139807984|
0.7464208213176963|
0.3896204264185709|
-0.02962637622033306|
-0.8922002054950755|
0.978788194219639|
0.30603119594335165|
0.6694046037076521|
0.8435844655223167|
0.6829143982066046|
0.8429405495460206|
0.4806358494544064|
-0.2823499549209564|
0.352351238084539|
0.12463651952560885|
-0.10626871050464816|
-0.9808802472814817|
-0.2490196146590432|
0.1143839567434658|
-0.07280717275202618|
-0.8459197919564306|
0.13669659384946387|
0.18897643426513921|
-0.9279214160056514|
-0.6880978013138959|
-0.0027546177629932853|
0.9752140414080605|
0.761064719502685|
-0.5424838916495738|
-0.3966795055465993|
-0.42302522489789246|
-0.15120549254693816|
0.3426691168317646|
-0.8064971019537283|
-0.013426170260725397|
-0.7835701143553302|
0.6887397264386793|
0.05776752310669433|
0.8651294997155196|
-0.27796402811748727|
0.34503022230968583|
0.821455688681275|
0.9003545703932576|
0.914708638518024|
0.68168078348415|
0.16595896970188434|
0.5976806437005209|
0.9199788901483502|
-0.49598454174601736|
0.4081140633376526|
0.7724344813599772|
-0.24518695240254623|
0.6807246418654369|
0.03694820040183014|
-0.13438375074025377|
0.22625932609876753|
0.3215276014410143|
-0.7661607039012878|
0.7460771107570853|
-0.21550563150660057|
0.8153249873798011|
-0.09540453563820574|
-0.8616591532874107|
-0.14431267586875116|
0.5281857915013872|
-0.2773419327210897|
0.5795878580039426|
-0.5180524412754289|
-0.4761509117902916|
-0.3237515326387474|
-0.9961016275388465|
0.02345890569240662|
0.022760029551624386|
-0.6227655001239706|
0.622873759607283|
-0.09511380735491093|
0.4897250357174119|
-0.9318755228921964|
-0.9255453509688883|
0.17381089608091804|
0.6567551038657871|
0.3587344584932646|
-0.11852654901701797|
0.23545139270686022|
0.45229475682120185|
0.1144740821937653|
0.06490534353636906|
0.34861696574986634|
-0.3234840824372921|
0.8405461527649125|
0.18257309230070348|
0.22470701858105366|
-0.21737717101310572|
0.5039167050209085|
-0.6883374209594338|
-0.46085631308852193|
-0.9529015347711447|
0.9093855457688278|
0.0010966594941332008|
-0.7842325757832969|
-0.6722492283269509|
-0.24817541117417596|
0.011749785951671868|
-0.13802884214071454|
-0.48000137634000983|
0.5853131925507484|
0.4421972288754082|
0.5961916943907418|
-0.6182559115603515|
0.7347608176766641|
0.030988730935266908|
0.4702715327072402|
-0.21834105357865877|
-0.6009010858903869|
0.6197207479966957|
0.6038098939859783|
0.2402607021184187|
-0.47208364821859683|
-0.8247566519227542|
-0.4664895133389256|
-0.4325015307417143|
0.6827928563108983|
0.5947191387642405|
0.7776324337115883|
-0.06524695719154572|
-0.3377897007624523|
-0.7707517032900542|
0.7577460013704967|
0.6304125322260653|
1.004185755420097|
-0.005838487542028524|
0.6099411527320956|
-0.18354157261973886|
0.6186173571859552|
-0.20529671487585974|
0.5932069185692096|
-0.6575204040653042|
-0.7254531415524973|
-0.6129109521265838|
0.10206790588757611|
0.6312523742117304|
0.9940412279059895|
0.34812454138322146|
-0.06250851794390817|
-0.02826642767509984|
-0.27651329300057687|
-0.9424010712800208|
-0.3253458248965617|
-0.15414866390802243|
0.010632232780049579|
0.4609117857904448|
-0.4005120850489768|
0.7596536100340731|
0.35314710659613185|
0.5919522367444414|
-0.42049237326369904|
0.21974368331792274|
0.7279626024748767|
-0.7580584935372652|
0.8137290806030368|
-0.27507263174001023|
0.06106937543876298|
0.11147701346687065|
-0.9394673678373472|
-0.2899670972471952|
0.5012594356271199|
-0.38115417675763785|
-0.8018425679058007|
0.8911902993927706|
-0.08892548286058942|
0.056046831697778215|
0.006456430113746531|
-0.7239463515886041|
0.8794752131539085|
-0.7606614611384541|
-0.6000675302839462|
0.4040387029879861|
0.2039619304890457|
0.5981749533720085|
0.4606263579844887|
-0.5847769324131754|
0.06991981606711226|
0.9338150022189521|
0.9652614050706788|
-0.5076613998831158|
0.3349034675252845|
0.5099186545407555|
-0.4822614065577532|
0.40006870191451976|
-0.743310414313153|
-0.08328089685022272|
-0.13842736798185956|
-0.389286059386829|
-0.9703432013995444|
0.6953607178242193|
-0.7875538185286425|
0.5332417235077723|
0.02141165876980081|
-0.9279086759799238|
0.9734774291029658|
-0.7073278151877537|
0.47218573231549305|
-0.5262290242957661|
-0.05060593194845657|
0.06009332050986402|
-0.04916262464440618|
-0.09091364669303197|
-0.1052700782880729|
-0.7079086952572597|
-0.6641494945950668|
-1.000389827923044|
-0.2722834547833633|
0.23965827764034736|
0.9086230748069544|
0.2220308139208996|
-0.8232144505944966|
0.2218587799111726|
-0.12050492139831591|
-0.3131127842889539|
-0.25778147964984466|
0.6995781372702028|
0.5957722631778667|
-0.6318111057105579|
-0.9284029604937577|
0.659111681271203|
0.31307019471429676|
0.4012954401734925|
-0.050032462099297625|
0.47790140619940535|
0.5556608704920578|
0.8861613929337526|
0.8866233602955952|
0.556414150863018|
0.5197076089488831|
0.24848855888820073|
-0.8386517839467894|
-0.42047754382424285|
-0.09261782955946371|
0.5924886624297659|
-0.5453654424043612|
0.9729722350406641|
0.407603307585032|
0.02624517739127746|
-0.5603897269845532|
0.0813368480377468|
-0.05392277652157085|
0.5637192944564784|
0.7924235678747439|
0.7625306150153522|
-0.03373134363492626|
0.2545394260115254|
-0.3243557980545662|
0.7229309528466379|
0.0708332962602675|
0.45577005495560985|
-0.6138211702413616|
0.5959809900190828|
-0.37560440277767665|
-0.42586097523953764|
-0.5779490463844306|
-0.9018473852673649|
-0.37240456128014754|
-0.5232581213703454|
0.9150045302769397|
-0.815487020893763|
0.08995447460798706|
0.9668483036765955|
0.6990041600976944|
-0.815021122273984|
-0.685766256521957|
0.748671301168817|
-0.42133650045776355|
-0.13717523185071345|
-0.2234539497487057|
-0.5284338142261905|
0.31555977682783104|
-0.68610375397735|
-0.243972734381358|
0.46663371307381724|
-0.9696230160417202|
0.7705117054718067|
0.16441387071629876|
-0.990267778217172|
-0.5383484374718969|
0.36171836664161644|
-0.596020377977813|
-0.07039065822261309|
0.41069609461230144|
0.12080331611978833|
0.38754768795174593|
-0.87321099786902|
0.42508911561108814|
0.6856234835322325|
0.5338546181100028|
0.9276242267970334|
0.71234115776039|
0.3076754653591457|
0.9281712778305576|
0.10924078605610119|
0.5572167373646915|
-0.009835968809040443|
-0.21031545734972562|
-0.4167914247657568|
0.9438600928594165|
0.5630309629991036|
0.7761818592340309|
-0.19740290104757222|
-1.000257993179308|
0.7396853896169289|
0.3841544017687837|
-0.20903407770980645|
0.39863862912144954|
-0.2192507445535445|
-0.08979817902084125|
0.7051841154195266|
-0.9224344465673026|
0.9675742058136999|
-0.21716606960325086|
0.23582284857219923|
0.037606496364338646|
-0.458007368117107|
-0.29172637069517526|
0.9282645064242393|
0.9183963399895652|
-0.476079005448404|
0.6950500256429041|
0.160886483679344|
-0.08485579196477182|
0.5152307419341471|
0.15905836667551015|
-0.4903343008485874|
0.7397042341531991|
0.7186180966004397|
0.048600163628561725|
-0.9850329039374535|
0.7847390912219999|
-0.9910888494046897|
0.8925715901139696|
-0.7931822310436019|
-0.5895085038630339|
-0.7673854640975255|
-0.3292469751236701|
0.8268890958412146|
-0.33141869522757983|
0.07870218047088756|
