-0.6218055806732375|
-0.32592581434490625|
0.8572891518200783|
0.055180672254768824|
0.0443433626136799|
0.80023622585078|
0.4994117226718712|
0.04548886567744166|
-0.11032065482461707|
-0.3733106267108838|
0.0541145008684681|
0.649787476418506|
-0.18650499228689518|
0.2589692162068086|
0.17995708382228784|
0.2846635298658238|
0.68114480078579|
1.0049036376249687|
-0.9411580586402395|
-0.1740152373793872|
0.8540737564050591|
-0.1448763272975191|
0.15726890731735285|
-0.8063778048229826|
0.49595844075080053|
-0.13878328021975733|
0.7539556676036598|
0.4548875247370193|
0.6939704566921963|
-0.7828665033293648|
0.9447012773698645|
0.9713374162145328|
-0.7288043064383943|
-1.0024208318046945|
-0.3841625731652861|
-0.6323730696290724|
0.21954080603894469|
-0.9542808306108069|
0.7963767274797547|
-0.3759716687968825|
0.4331422807857619|
0.9890895730062665|
0.6797344271144155|
0.9045842770921592|
-0.5112645522446839|
-0.07223081272068033|
0.6882396493793137|
-0.8189267117417978|
0.4222148593002546|
0.011203849158578558|
-0.633732298238001|
0.11155351084022448|
-0.873357458633003|
0.38304495397141897|
-0.857950879549513|
0.6254498575112034|
0.7451514706189643|
-0.009695605254872742|
0.15502719289244207|
-0.5054509718283849|
0.4367100370028163|
-0.829188076917384|
0.9815393661506691|
-0.6409619998005278|
-0.699118940507809|
0.40693954818471717|
0.7035463621083182|
-0.8298647788178072|
-0.1633758038045336|
-0.40460828384766917|
-0.9390573298230581|
-0.4820666037738283|
0.807693849706429|
-0.9495178673317255|
-0.5143921475849408|
0.44641474674920323|
-0.7726216144796195|
0.044157880907406695|
0.06018409970868034|
0.34416539292689996|
-0.3213554614208022|
0.12370019411491608|
-0.39136173178344724|
-0.6494726975494328|
0.03846112861135084|
0.9235791132852553|
-0.29750705060153987|
0.08354105540240497|
0.9526795179353832|
0.17282896495391872|
0.706225185226926|
-0.9608552975765863|
0.9909421591152285|
0.06254211258804382|
0.9219253835671684|
0.6646461293913505|
-0.03846252722621748|
0.8228370615266534|
0.3529733863762596|
0.7315322143204629|
-0.6891945891345751|
0.922544488024483|
0.18193530391023358|
0.5780665244321415|
-0.6187038996344397|
-0.7744939665291293|
-0.8587682839966196|
0.8299527047932037|
-0.44708059218396096|
0.9124505466281976|
0.28602266743313676|
0.33478270434516805|
-0.632878040477185|
0.34992745918236945|
-0.613616794363676|
-0.48725768279192|
0.8849464002217758|
-0.18326919354464508|
-0.666645362698477|
-0.5002091279220086|
0.27298388765551307|
0.26841247650493905|
-0.8467334370767357|
0.2619273652131397|
-0.1852406270141484|
0.024760110827236427|
-0.3830588877123525|
0.271827422826017|
-0.9853299673692314|
-0.7671649106039937|
0.8516432881372349|
0.4091747419042797|
-0.34544305215144744|
0.885756234227499|
-0.14805359212644217|
-0.6494584886394446|
-0.7624383068861316|
-0.5736874602072362|
0.5859806101344641|
-0.5774060935455411|
-0.21129883151210802|
-0.8940470186673873|
-0.7936545959540527|
0.7628027291575754|
0.8674905169431483|
0.011976331951517491|
-0.18347631633505726|
0.5569908698278073|
-0.844734770005911|
0.6155498129106561|
0.2877749377159048|
-0.3709570131564714|
-0.42471979258083287|
0.8785508840191388|
0.6407888204953077|
0.5835870382491374|
-0.9290068011915266|
-0.42615702075999384|
-0.6738201650581358|
-0.8069845062006016|
0.015131962407774171|
0.10934498238547147|
-0.6993069580906186|
0.6648579156991579|
-0.4931121971847125|
-0.6668741425652361|
0.8228947413100339|
-0.15889890235874443|
-0.9899606119604458|
0.43182003410812037|
0.15291575530719317|
-0.9011916951059661|
-0.3726121352992571|
-0.8644966476906876|
-0.5501018763875716|
0.8200929877112982|
0.43785278053817456|
0.11826465205153998|
0.16384761056143685|
-0.35564335131092734|
-0.2066859405496459|
0.9175770144518131|
0.7150217704484477|
-0.11554881130243078|
0.5739071314464003|
0.7425399450292525|
0.12344751289499968|
-0.4966162592016066|
0.8791782982106707|
-0.1149851689895906|
0.26394888625082086|
0.9406825926595427|
0.742841161070644|
-0.8535739334075636|
0.21131552281164354|
-0.9530078745986674|
-0.7880861449120551|
-0.17445387531208612|
0.22228317294551492|
0.7367354980524338|
-0.6930831918148557|
0.8863522626839433|
0.2139052427553926|
0.6692841810442322|
0.7380420905764709|
0.18627534061878415|
-0.6210849831741042|
-0.024371255762909175|
0.34867928875411325|
-0.5356239120212436|
0.9147912412089144|
0.3353133173332183|
-0.517971609738614|
0.3746403880763414|
-0.44893031625372515|
0.1088446262306808|
0.6879094759554414|
-0.6473916004619011|
-0.648471631228366|
-0.4356435194246013|
-0.47114545190663054|
-0.4559219218994739|
0.3765224893167368|
0.4637236293008443|
0.585008024888127|
-0.7674265458649103|
-0.5035936350297583|
0.26894454643778|
-0.8932417131452842|
0.8610732726923435|
0.770139038282795|
0.3416159953594602|
0.0025884900462950907|
0.7198242979280143|
0.8256360224657222|
0.08335027665076451|
-0.6938433066382482|
0.5796228395994627|
0.8949706849506174|
-0.1158811094276757|
0.021995118117105833|
-0.9637392712728694|
-0.49594745081617264|
0.9265782672632412|
-0.8017059752124638|
0.15382934570735463|
0.43637488550547826|
-0.34444220661908226|
0.397653745009659|
0.8057721175419732|
0.9460606317751995|
-0.7444352057679156|
0.2774543145520531|
-0.29391409340133345|
0.874380614255656|
0.2386546783083554|
0.06116414314221578|
-0.33475858579771306|
-0.23378029418587576|
0.27416057558064477|
-0.25279273001966984|
0.7408889163964665|
-1.012547653572169|
-0.8149312577262843|
0.21554191888557378|
0.8117043415368781|
0.15278886685801416|
-0.4462914373180226|
0.7801975655496536|
-0.3511058914390146|
-0.6732138866842091|
-0.2486732538811341|
0.04474485159229097|
-0.8628084799194099|
0.5280140868569814|
0.8157841012397481|
0.7715555185993801|
0.24083447257510232|
-0.1549541370915994|
-0.034318453824591214|
-0.4766545437208672|
-0.13223558596902593|
0.45933005318725384|
0.896756817755393|
0.14425075273069152|
-0.053726222079601454|
0.9966335734873788|
0.17889950770251292|
-0.9058420623795731|
-1.0052676647745615|
-0.6154226855248267|
-0.8541104398267677|
-0.18753840897637172|
0.02015917501235788|
-0.18260421856913542|
-0.7187611544744723|
0.7228806155396573|
-0.6701527725855491|
0.620548630987724|
-0.6555533533865306|
-0.7021559228872508|
-0.426566509198896|
0.30369226419571793|
-0.6374809972073662|
0.6672306865168363|
0.5666596248583731|
0.7496577112472226|
-0.4868257900177737|
0.7612994419216675|
-0.21587760413246432|
0.1022474192605139|
0.7382454626969388|
-0.3154000118172354|
0.5622395091518291|
-0.4584494277555492|
0.6668485382211629|
-0.07111239630880797|
-0.002424797980889051|
0.6512075432109479|
0.6776446740621667|
-0.4348758462075978|
-0.9240982625230661|
-0.9262938051502864|
0.305972924718135|
-0.8483388375576907|
-0.9444363972133755|
-0.8061097874918304|
0.15039998860822637|
0.2955983647746713|
0.9587283248594068|
0.07339914873023515|
0.7690442356086528|
-0.4062298552205614|
-0.29724932129861215|
0.9067019279689698|
-0.13243589364110778|
0.8674658414839952|
-0.9821030650072073|
-0.281623276983597|
0.4344846929340832|
0.244142512808962|
-0.8449429096703388|
0.6185448021087685|
-0.6806073273403537|
-0.6650905398750616|
-0.5300973950711921|
0.8701923854232736|
-0.6695920062209239|
-0.2332229260010274|
-0.9514774979631098|
-0.2196913790693328|
-0.6291689427929409|
0.6357478076497642|
-0.9643379636078566|
-0.6358464341187513|
0.39501588866660153|
-0.34567144637390523|
-0.33229392299056904|
0.1002247799956361|
0.9827039515153961|
-0.6179869128649207|
0.07475876635223208|
-0.27540542189585315|
0.3336908373583394|
-0.8273490715104319|
-0.5123077348083759|
-0.914891019233856|
-0.8865092957158004|
-0.606185991701014|
-0.5010193100376931|
0.014557240167343437|
0.39074062869486137|
-0.642711972653342|
-0.21961633691934723|
-0.6739940844299405|
-0.06771835071530456|
-0.5318526936328611|
-0.842028370206592|
0.34613936084323865|
-0.6751577699657386|
0.2990230072769349|
0.3359437709613393|
0.5432557627419051|
-0.641211468278269|
0.211059245039738|
0.29872311760605075|
0.8124744637623017|
-0.4352235724965375|
-0.33339497934639695|
-0.43134258706498413|
0.29444089553130076|
-0.3704502383689675|
-0.08833992975246108|
0.47607177116365695|
-0.2591926534418814|
-0.346823977479605|
-0.5393897777950919|
0.10395873827835506|
0.12361791453050683|
-0.22973563136993186|
0.9512313136781093|
-0.9551357469952079|
-0.8134695101771381|
0.893917711528981|
0.40951896461892684|
0.6933802010933624|
-0.7910285960477098|
0.4874331170873466|
-0.6177378856213666|
0.37306793755926787|
-0.821484622002536|
0.33222388171739037|
-0.5791512843581228|
-0.591129760953786|
-0.5968658229495113|
0.9773403504031015|
-0.7004290609149089|
-0.34542312877854364|
0.1148880990307043|
-0.055130946384672704|
-0.9985890869618622|
0.9659091035344924|
0.7371882269597245|
-0.012909581080601388|
-0.56417859641519|
0.0884149542117768|
0.18002247792718057|
-0.6089209679998479|
0.7546869180543921|
0.23898255034742558|
0.8594007885782315|
-0.23702471302546363|
0.5350586967981595|
0.6563931962780011|
0.4920588198784672|
0.39836079083537584|
-0.9778911977131683|
-0.18415770618416138|
-0.7907967685719708|
0.12922991972250006|
-0.5532289336089022|
0.683426604434459|
0.9942679307047195|
-0.28505140163042436|
0.15087545487290713|
-0.2791682567524492|
0.023464863965747887|
0.9272941969718742|
0.815131142318933|
-0.9794436637853827|
-0.6166969850736612|
-0.5344845470264853|
-0.6589990331333337|
0.22256340740904473|
0.9026026977933982|
-0.5415545636037703|
-0.23957759845326942|
-0.6108827480525034|
-0.279767691632923|
-0.9086738918877036|
0.5782611588817128|
0.6187592131990675|
-0.7022730180506717|
-0.7660884622630372|
0.4920701916231332|
0.8846885835069438|
0.06531624796060477|
0.44001691464103787|
0.5783946240573737|
-0.7010034461155209|
-0.7979464902955254|
-0.49910723568279336|
0.11038917214409245|
-0.3109366057399627|
0.7193684729376231|
-0.9656174088690019|
0.4452306939876609|
-0.20582410308861776|
-0.9497197979859142|
-0.7543206602595857|
0.3504680250563492|
-0.14145061676212764|
-0.6556214873699565|
-0.8281279454859957|
-0.22544396635941544|
-0.5680770047446382|
0.2018852655210893|
0.07646825680972953|
0.7993075181270021|
-0.7256982282659419|
-0.3245848178939509|
0.9199706222166474|
-0.26177343578832823|
0.8167550206483274|
-0.00814415329293355|
-0.06846205490870381|
-0.26573869310514936|
0.6115500875718647|
0.8105866258474989|
-0.6647099435923156|
0.32499016349359355|
-0.3298973657508192|
-0.11705224362665315|
-0.7585430814605616|
-0.6616688896591727|
0.3252813957101337|
0.8036270982988415|
-0.9550859509129936|
0.019990670669127818|
0.3444031073517892|
-0.5842472026824546|
0.9223681635332149|
0.08636616581332539|
-0.2552596925211824|
-0.5473743532147495|
-0.2512546262324154|
-0.019640796007282413|
0.589694755665529|
-0.3794229592837113|
0.3271039738095072|
-0.19934335456978514|
0.6960093907834485|
-0.16799106787026596|
0.4365006304641445|
-0.8366397028209833|
0.9140098007629448|
0.08035332877216604|
-0.6075714624310478|
-0.16840198940205178|
-0.017952268820473842|
0.3646814475269053|
0.7532500576455073|
0.538782074204085|
0.406459901624546|
-0.994852607917605|
-0.8963730304219304|
0.9536838873904209|
-0.4172392472237114|
-0.5370368553216804|
-0.39611214695745467|
-0.4827858748369609|
-0.4189203804569982|
-0.8309566218622988|
0.5263436543709467|
-0.9311952273028942|
-0.3380155678604994|
0.3432635319820766|
0.2827588240240012|
-0.7429841537220687|
0.8764657970086642|
0.9393834856270576|
-0.46319037836186117|
-0.06723408971266528|
0.9101629669339685|
0.8705361301164954|
0.639681425535257|
-0.6012976673678151|
-0.8794169917856616|
0.2001559038334845|
-0.8680688968335516|
-0.6393004230645879|
-0.22209535652635687|
-0.04723299884154782|
0.9646654573117719|
0.0020184522919543236|
0.9426002295699472|
0.37346339047196625|
-0.6571408840668025|
0.6735771266917319|
0.43505167139557027|
-0.6966786938097393|
-0.3029229208029262|
-0.10439613766966559|
0.026796188535410378|
0.34796691148801157|
0.4942974534606172|
-0.35572294294219486|
-0.14692402911794705|
0.58688842669114|
-0.5766649737735584|
0.28688417842611025|
-0.4681313868951332|
-0.8824956540072773|
0.8565685044265742|
-0.9186605942814333|
0.618944592538854|
-0.14398508269724286|
0.6878194846455783|
0.4406604767699278|
0.5011133726874178|
-0.5563050993097043|
0.0089523820421354|
0.8579149088421543|
-0.3324859060562931|
-0.47149436292659|
0.08371532427255444|
-0.03609442751627458|
0.2746006845017797|
0.6379437733338381|
-0.5860437728094096|
-0.222041345704132|
-0.44793689880672033|
-0.9442445873524783|
0.019379656923046343|
0.6269850827090886|
0.557822427678224|
0.06625452974742518|
0.5947401560299179|
0.8614699323565277|
-0.08891319088987518|
0.43995039308900763|
-0.659277549117383|
-0.4661451252516867|
-0.2067974157967493|
0.14241430874065383|
0.09678663048063532|
-0.9251685301859294|
-0.7581332467207311|
-0.5696103409218998|
0.3070980050904751|
-8.06617645170216E-4|
-0.23494563306883587|
-0.8918298837357833|
-0.8682766189191741|
0.1521751745004465|
0.5325518848102027|
-0.4512699257751568|
0.28010462313287693|
0.5520058812555003|
-0.8001191376575684|
-0.50306683093872|
-0.3106497865327703|
0.09702683364937803|
0.4816569345336724|
0.9969640565886841|
0.5053890140833293|
0.3846009730461712|
0.04365668463424883|
0.7376577305242602|
-0.31660139976228713|
-0.09034794668004074|
-0.24804049010619975|
-0.45350844295858606|
-0.21320554822395688|
-0.3584614378026237|
-0.5910427795423938|
-0.9748052389895738|
0.46964126919420035|
-0.45723086447792916|
0.6983056271001268|
0.07279229152116917|
-0.34657439480124463|
0.49060291879731666|
0.9602331667676104|
0.6873728482493324|
0.4633847706472934|
0.43181129530725043|
-0.6379562853126163|
-0.9530689051200508|
0.19966253414679166|
-0.09416638020454993|
0.370519128752786|
-0.09593324582608422|
-0.549798704555101|
0.5246721043731271|
0.1845369585610988|
-0.6391785961241959|
-0.6499116430174133|
0.2590937736077633|
0.878465387514571|
0.2689800429523971|
-0.3149992699540204|
0.5136939348704153|
0.5096495258279053|
-0.3721365450341144|
-0.8532846597961987|
1.0033553546438574|
-0.865359087233526|
0.07685670114294464|
-0.05474080192499023|
-0.05229063654513468|
-0.08918952388306493|
0.7024533439228703|
0.9587085527863997|
0.35892611681379827|
0.8789375117871755|
0.7949617838987746|
0.7230817751234928|
0.5910295208193641|
-0.8902910645044475|
0.5975049087586904|
0.22235006267013152|
-0.34354983332348443|
0.05209447321131301|
0.4317453579216681|
-0.16150618583484685|
-0.8415468764513432|
-0.7011372210978621|
-0.546783799335453|
-0.1704952627733805|
0.9473493256598868|
-0.8006107511625409|
0.9859242070269033|
0.44865108618014904|
-0.5933983150428067|
0.6910926631208023|
-0.7143422839041794|
-0.3990543449871244|
-0.6320456255935843|
0.2333493517974994|
0.3461293353144185|
0.9193664054932508|
0.9988628730376405|
-0.47178419915165765|
-0.2832892474657478|
0.9607770903616953|
-0.20226597630629878|
0.01353448666574555|
-0.024031615696264524|
0.7377539141329489|
0.2164527165246777|
0.3839729987985365|
-0.8559535699621|
-0.38132872311351534|
0.7135126696236365|
-0.918372023531956|
-0.7083583002541831|
0.1819714191082068|
0.7199387667296092|
-0.63033752641438|
0.7204332694188268|
0.6259707341071947|
-0.6268060886605378|
-0.40263840878575435|
-0.8876067031982657|
-0.8192227536844119|
-0.11067967493341375|
0.21726988285058996|
-0.6520450618243345|
0.6681832816497376|
0.0904024316831591|
0.3907053684545931|
0.6719622176043736|
0.7527905152026825|
-0.7956959647815863|
-0.3343181934184454|
0.5163942073019047|
-0.061382909078275115|
-0.5838319756164467|
-0.735766104100353|
0.4479499429659644|
0.8393438029050276|
0.7806424261657795|
0.0038663750925833746|
-0.017233028930751796|
-0.9299022420761031|
-0.018747517667850537|
-0.6607962324572535|
-0.7728220785833836|
0.6744372330877723|
-0.27170561730750525|
0.823183808586227|
0.5532753378317066|
0.8416331096102335|
0.8893455840524371|
0.09121958136877317|
0.6542605712712671|
-0.30398719437238775|
0.7481885444074099|
-0.8673605227028575|
-0.8778709821721604|
-0.03748999107619648|
0.8204054906716152|
-0.28692639750513826|
0.1647011614541585|
0.693530599151381|
-0.7621755739022433|
-0.7340751128495768|
-0.39292259906466326|
0.9757556136266065|
0.6933296768693891|
-0.5172825263144186|
0.41564834738290296|
0.640741516607358|
-0.08004785237929077|
0.1597523153482479|
0.9458289315135952|
0.6431339057650602|
-0.8699456974334238|
0.05665201868560179|
0.44335409318336405|
-0.7626277748198935|
-0.9488989189666842|
0.445052040253737|
0.7774626469262228|
-0.03374653258202462|
0.5867917206301657|
0.18055004230579713|
-0.4350193391876954|
-0.8747501794023196|
-0.5788105627153929|
-0.9320504005186615|
0.5249210698086888|
-0.3076896104115177|
0.7996003550774389|
-0.1720048616008302|
0.21207273169692314|
1.0029220298083803|
0.06304146730825766|
0.7747551433135721|
-0.6282466368334909|
-0.010718009897133897|
-0.1665954216719879|
-0.8150815745196068|
0.6594890281529949|
-0.2131384237009058|
-0.3904835435626717|
-0.23590290119052146|
-0.9749091388499882|
-0.6707771316160419|
0.45441995586783684|
0.994347195504126|
-0.9124765630231219|
-0.6357894397647136|
-0.23220210689515822|
0.5138839510453429|
0.4529589933537714|
-0.018778677597388115|
0.9935251633224794|
0.7480260328944303|
-0.9488370177281245|
0.3780721073046616|
-0.19939801649023964|
0.7487030051057787|
-0.5643719846008677|
-0.28940448925189816|
0.538562303381093|
-0.8346008742977398|
-0.02716538410197882|
0.7860710472890011|
-0.5689669873183915|
-0.7931572792193026|
0.8329106300367929|
0.12154611083994|
-0.8236986076109272|
-0.6370002995439639|
-0.5417634053422581|
0.6877690647394156|
-0.7904377730155995|
0.3827373267709853|
-0.5258428088634145|
0.22255524850378694|
0.3242101690155491|
0.06549437368547166|
0.6446869207728045|
0.14433149914640186|
0.862588634407529|
-0.07944372914201386|
-0.9797929982816374|
-0.18887690991091555|
-0.006950255545602224|
0.9579823145304911|
0.523120835826426|
-0.7615209408378933|
-0.10432361266887988|
0.2966311102413288|
0.6856953218036471|
-0.01709566349661562|
0.15419194880747406|
0.46907406036034244|
-0.38534324943607995|
0.6474937237205298|
-0.18209315520154412|
0.9630505001036914|
-0.5914736847023121|
0.3681731570296807|
-0.2905753982395829|
0.028480728109002762|
0.3700235328165031|
0.21397330051919006|
0.6900424175008847|
-1.0138916201884747|
-0.04578400571391002|
0.7214516133670464|
0.09437368276959943|
-0.7767339420145521|
-0.49417052959550295|
0.7671810375110228|
0.5468313165480978|
-0.6038415605000388|
0.37894986898003474|
0.6616709956041629|
-0.47504703666484754|
-0.8112599302409016|
-0.18357551566425293|
0.42620200917996887|
-0.734323435502546|
0.1464806882791553|
0.3311778936100013|
0.2141315360572896|
-0.09039076307275658|
-0.42084500666226743|
0.44663567483230815|
-0.7968080486256736|
-0.5482189362095571|
0.30409318451596185|
-1.0109902023662913|
-0.3928378456349762|
0.06797367442186744|
-0.01982441159854798|
0.5713628203123253|
-0.6621866111186863|
0.8852088999687459|
0.8150742979675191|
0.024260258841694086|
-0.7943129319248158|
0.9508071832363321|
-0.7522149006984008|
-0.47042533663249786|
-0.4041225104869161|
-0.011029223560925573|
0.04168089303342544|
-0.8117064779676908|
-0.2884668441553982|
0.5700912289621834|
0.9642584272329211|
-0.5695258913212108|
-0.3995815687948522|
-0.4790800320449224|
0.2193244406738077|
0.05085942265307898|
0.7579795744118482|
-0.2611847730362601|
-0.0065829585248257366|
-0.6077132449618176|
0.6325520484444078|
-0.5740933013207264|
-0.6734106413995847|
0.5974723032520836|
-0.22231533403612316|
-0.2241010752884837|
0.5300347086331743|
-0.8631045474807717|
-0.05423684916514902|
-0.3312484122410846|
0.7742684251775519|
0.6529987876185961|
-0.3623448642141651|
-0.6024322794586948|
0.6526721009244338|
0.3259701533724643|
-0.0023546070186839063|
0.4232870982471592|
-0.18184811837044945|
-0.58413662604484|
0.02097624210871696|
-0.8036430066352379|
-0.8812655885981324|
-0.5355096013054609|
0.10739922452022188|
0.5052566389468829|
-0.49793929482144583|
0.1392983769197715|
0.2254393509294405|
0.7665398822899254|
-0.026050564213321758|
0.07105330891576057|
0.2653695214729946|
-0.1118355064045378|
0.9831688058480065|
-0.8152823343598284|
0.8416477296749796|
-0.9709193676850866|
0.08215101952384499|
0.49133189838849384|
-0.2699085952067828|
0.8656886370359808|
-0.40419437534753017|
0.6712812421163513|
-0.5552739187554995|
-0.7389624621139355|
-0.8397081417636566|
-0.7306598058539766|
0.1543641272639208|
-0.16489360544832757|
0.5114292978222205|
-0.051473327897690345|
-0.4095821197140487|
-0.051219286137167204|
0.17399611140802515|
0.8987836502410127|
0.1850597651951711|
0.07543010740812792|
0.4863054996193846|
0.6332352674727053|
-0.942501561598178|
-0.4759912775693763|
0.9580521379007283|
0.037957217124126766|
-0.6150514532183516|
-0.6782119226513478|
0.5168245090813268|
-0.43270307114448275|
-0.62536248759778|
-0.7801862246276321|
0.8178500174785972|
-0.1811362962662498|
-0.4879589172598915|
-0.10222546241364977|
0.24984406714712415|
-0.8424452007008124|
-0.4307766536800546|
0.03349302544138466|
0.03559211738135758|
0.5570452364351752|
-0.1231044502669179|
0.6368799065246847|
-0.34710072150328863|
0.5038772665345445|
-0.013117899530971274|
-0.8401905045202228|
0.07583722085170902|
-0.2840593770293482|
0.7782302904468082|
-0.9458316060110401|
0.043064475788519276|
-0.2234378857437203|
-0.36694240343501877|
0.8625886577312878|
-0.755497239901737|
-0.6557609256272532|
-0.3376558169264622|
0.9811698747969235|
-0.8166968370546512|
0.1850466770030359|
0.2075673541335993|
-0.21673843943786025|
0.5635749640863362|
-0.5508982311783379|
-0.6865762993174256|
-0.5052428824866557|
-0.9280042182289272|
0.987690332130718|
0.7321556416031193|
0.08062100967737994|
0.5317846916023523|
-0.17031183940147926|
-0.4156657417752377|
-0.46556486517656587|
0.47874522274178877|
-0.4087127094104164|
0.6816785859884551|
-0.3612200406768145|
-0.5659170871869177|
-0.7549694736393145|
-0.39612654771964334|
-0.001240364874128902|
0.24234066429735748|
0.21873944016392893|
-0.613150234409519|
-0.8977367100409819|
-0.9352301870909093|
0.4448071604106734|
0.6591488639281019|
0.5018803786684725|
0.8138839851205893|
-0.08254911365275641|
0.13565051231716563|
-0.6728030040906319|
0.33283742698079755|
-0.8874954973430335|
0.8186459805188919|
0.09848896305680081|
-0.8654021241126435|
0.010314747565363231|
0.7105888858543836|
0.159598264194379|
0.8703819387744176|
0.8130193574667693|
-0.07420412408231536|
0.26605147699798615|
0.5482749484961132|
-0.32604469055008184|
0.4720511454872614|
0.3900977940556699|
-0.1562923293914949|
0.6644413436639163|
0.08963261782414406|
-0.2368229953746535|
0.5211154741385631|
-0.2212079905360768|
-0.17006262768551408|
-0.38711945733344094|
0.05411118180834745|
-0.31875195289603897|
-0.48288641453917563|
0.9482555360434582|
0.5529818017441447|
-0.8803884786713063|
0.3914688180186355|
-0.2735044762827745|
-0.9820834770682698|
-0.3631502180922311|
0.3159974431064467|
0.9594873214190108|
0.21950855103401584|
0.2989059430520368|
-0.1595601604635904|
0.9617084744165603|
-0.2336218501801026|
0.7914684676045013|
-0.19702883858241518|
0.8093631441546092|
0.9229729366251684|
0.2655547087867221|
0.6253494114313405|
0.8725875589869633|
0.4886432865386369|
0.9613330719024045|
0.3086612924862572|
0.38825056837954297|
-0.2188342033539868|
-0.7349817224087988|
0.4319245090550773|
-0.6032832916388372|
0.7363532511050195|
0.5663077369159096|
-0.2855496212126849|
0.29416348694046096|
0.2168725398551712|
-0.9169898193089835|
-0.38664393548382214|
0.6245603313376983|
0.18779901599891466|
0.09958671436305475|
0.34816585374588727|
-0.4746296932235429|
-0.6133235031068723|
-0.6949374274694872|
0.8794742720304973|
0.2525819442143442|
0.8384972312146495|
0.06788204837203239|
-0.8049066272937629|
0.44054732332726615|
-0.23338046997624165|
-0.03677189860165569|
0.0627209921967504|
-0.7007936270251556|
-0.23482265396891921|
0.5223993128203738|
0.977347597883824|
0.9759425594737611|
-0.8830511366105765|
0.2617616229779968|
-0.9469756851054821|
-0.5172599491106027|
-0.8792292756429047|
-0.1270335328425816|
-0.6371232346681587|
0.9238313944475856|
0.3929121708437561|
0.25341333738664723|
-0.8919239062752119|
-0.19052815862577752|
-0.5470549284487958|
0.19523047290415624|
-0.7614478248142889|
-0.735479947300659|
0.1954769916682673|
0.6979421097773949|
-0.2640919790806697|
-0.6525685420712908|
0.7273161002941791|
0.3978652326412759|
-0.029652736663772754|
0.3198760780749032|
0.5103815254172398|
0.7590418459690708|
0.7297487483102412|
0.09640047295151283|
0.2720174415146643|
-0.46307148856156866|
-0.4697885821531695|
0.008075539625296233|
-0.8320484907446214|
-0.4737076339313506|
0.40213098541820264|
0.340615423685517|
-0.47940104224423247|
0.13234216241362043|
-0.934685018308514|
0.07759917614474666|
0.5269792653447933|
0.7596446868176813|
-0.8802519864769867|
1.0183442052580431|
0.76474168193244|
0.862810006830457|
0.17055169233560846|
0.04298097841786545|
-0.31172877446062114|
0.6995990831735039|
0.39679862323833814|
0.6982794550552629|
0.4602743790579073|
-0.18174596667385035|
-0.3136204506260162|
-0.49328760973087815|
0.4126622201453417|
0.6043044008121441|
-0.22534122818416644|
-0.771037354315506|
-0.3456426389739679|
0.9462776435535902|
0.8372713998264147|
-0.30621631798391497|
-0.36709394830887965|
0.03569713907657487|
-0.3451643787626938|
-0.4267030026385539|
-0.49069984809296735|
0.627694435063047|
-0.712127864248675|
0.7533639363551033|
-0.16998419470477097|
-0.7140186249267951|
0.5824080169024589|
-0.4340806644828583|
0.4771062895566482|
-0.6839139731517355|
-0.34415984775392006|
-0.6150342766408555|
0.934348433674332|
-0.6521818873809798|
0.48591723904485196|
0.12840388705311973|
0.8474111981273564|
-0.20819024398222782|
-0.4026941132490605|
0.4906623718250737|
-0.3353511412934595|
-0.8948521043297488|
0.5439346939060552|
0.4735112989252643|
0.7084582089760119|
-0.24530962972493187|
0.5305218245671935|
-0.5748376702827328|
-0.24982930012886426|
0.4369310365904393|
-0.12121540347824752|
0.20208141746655434|
0.1280737246855978|
0.9455235845556723|
-0.8015685635179699|
0.7929978547221894|
-0.8983229494232297|
-0.7971566750477121|
0.855236673642905|
0.8502084448093451|
0.4078956661628669|
0.8743540041783122|
-0.797590610991505|
-0.5340815528307877|
-0.866763573646476|
0.2597022370298434|
-0.5963157742363243|
-0.9833569321958161|
0.7282484353710644|
-0.8542553495099083|
-0.7668208412016653|
0.5659167637175277|
-0.7652093098070265|
-0.9448508089626941|
-0.5769531447304926|
0.09831271384139768|
-0.7758577327564009|
0.9787665255099827|
0.6465503907222432|
-0.7664172813374205|
-0.8074237698490749|
0.824176133281146|
0.628730269050047|
-0.6582991571905544|
0.04718668073359056|
-0.9294657406671714|
-1.0073527426307558|
0.7414079969025846|
-0.08560549138983951|
0.06140424237818453|
0.25407091392634995|
-0.8314574544923754|
-0.6893930281014097|
-0.9254554172482996|
-0.6320474613757795|
-0.7041782893362095|
0.8482373881120784|
0.9228451297731276|
0.5061970718647676|
-0.5348770722445545|
-0.7179823779314513|
0.04127976405177539|
-0.5246692047398888|
-0.38122525427751597|
0.6243642033104215|
0.9819396245120932|
-0.4100351945729003|
-0.38290089898264246|
0.9048366024146668|
0.23023443045912997|
-0.3850437060651757|
0.2051849984000626|
0.7520501665019087|
-0.49187698849303557|
0.7726985991441622|
-0.6449992317147529|
0.3901444133593492|
-0.32988970048999827|
-0.25873531525107396|
0.26683139597194544|
-0.5808269861678689|
0.38171746498545184|
0.8108329463706561|
0.8885780377351992|
0.9190459533868881|
-0.02144399438543423|
-0.009996796112613726|
0.9569310806184761|
-0.5606435278532587|
-0.8795225476398354|
0.6706079851871182|
-0.27031820155258757|
-0.682805304357532|
0.9903526564901911|
0.24750014733135411|
-0.7525456060816099|
0.9538550806399764|
-0.11637698205153267|
-0.8936228517062746|
-0.1669532031754676|
0.38877700176530144|
0.16682915217133254|
-0.350132674575308|
0.8260516672389644|
0.7596830462325095|
-0.11782420539519188|
-0.6428901748025958|
-0.09944338311720022|
-0.012417672664258727|
-0.5455933781255436|
0.8344849850634312|
0.7852943429215689|
-0.7418196752617163|
0.8576994855525343|
0.0464341397357209|
0.6774454142255288|
0.03683241870967317|
-0.17253867625550012|
-0.5583377140795203|
0.8486564966746898|
0.9760510799335177|
0.500214513421831|
-0.606360648578462|
0.2632911083691692|
0.74513543006263|
0.027105286420990034|
0.7069225415825335|
-0.78121015790823|
-0.31035105365259735|
0.45824123205670775|
-0.22748812839680843|
0.7809882973023339|
-0.7482185357691782|
0.31740475462349227|
-0.9050821491729321|
0.5573589916407137|
0.7893723346590568|
-0.439037693704773|
-0.12745807806719675|
-0.2864372608920089|
-0.6262308526394508|
0.2748711623830688|
0.5604674035004574|
0.9691063948066937|
0.7638325621629553|
-0.11458218209458071|
0.02950175571280826|
-0.5733030190131367|
-0.1312791912175174|
0.4496973294877743|
-0.026114268832705134|
0.7351282146027772|
0.9458966052581215|
-0.22919664999570943|
0.9079534261117993|
-0.09681344309915839|
0.677030637146865|
0.6662213576045118|
-0.4290938405307522|
-0.6614850358333348|
0.3299388103658701|
-0.9265751049930543|
0.030003287866675457|
0.1855187838087006|
-0.5316971866008369|
0.5924727907946064|
0.8546704180638078|
-0.7949208378754595|
0.8640128067767191|
0.6852282847217995|
0.07061350281228088|
-0.21382996860467537|
0.8420927908945733|
-0.38797453262041637|
0.8371858382811143|
0.30656693777600375|
0.8192747397469177|
-0.582798189530609|
-0.8766880603370353|
-0.3251019510016786|
-0.7618098855910773|
-0.8733652153302299|
-0.5404812805903174|
0.01515612546155893|
-0.9402469835737001|
-0.3266840657484097|
-0.9893201113157603|
-0.5902109961028457|
-0.01199333988976331|
-0.20044920597450394|
0.19975385527366743|
-0.5458230195885342|
0.8233520264389601|
0.2600521498530714|
0.8803477277427201|
0.8452348613919815|
-0.6820518901973561|
0.2351423638114483|
0.22326904386892682|
-0.928139591010149|
0.41382440723218533|
0.3058224922828425|
-0.7371717706845377|
0.24503814658936046|
-0.4958823112037046|
0.6752532636161445|
0.7038750217058848|
-0.3382708017234378|
0.4297491394079184|
-0.017896477325278333|
-0.4958272494500444|
0.4011036430531718|
0.6391802394830444|
-0.23704339272874486|
0.33619126011997447|
-0.12043501993534557|
0.9423923474076787|
0.8839692426014759|
-0.28108824592897336|
0.42230971463567196|
0.1620357267653278|
0.6685603619561993|
0.6770398344447899|
-0.01606650938269196|
-0.04417614027269793|
-0.9965291725643027|
-0.19635298912098864|
0.07585308612385133|
-0.9685896182103672|
-0.04422932726704887|
-0.1688445253905286|
-0.058873640569266625|
0.00335435651509067|
-0.6558178530925943|
-0.804768592988443|
0.4413632746878433|
0.3874465074191756|
-0.3463356296054492|
-0.10003113222471927|
-0.2934918572163616|
-0.6620641882764552|
-0.778610409011898|
-0.4237450742627386|
-0.9334886093021574|
0.565287608724517|
-0.3368942189282802|
0.22609290820298267|
0.15965042581100744|
-0.25801916405291747|
-0.3369239025289726|
0.9397360987636488|
-0.14204528774662226|
-0.6922765972253653|
0.37900028974840444|
-0.7921638600754058|
-0.9806368075729036|
0.4454678684929324|
0.759928757011497|
-0.5173074075584561|
-0.2415848421465613|
0.054713590460692865|
0.01165957385546642|
0.6693590367750949|
-0.07958213765496824|
-0.22636262359092957|
-0.049610679126048246|
-0.032070903353491984|
0.8458001628390406|
0.49815880278717256|
-0.9096834822566454|
-0.4206807946998851|
0.7444718687314534|
-0.3609797128565708|
-0.0707315163268218|
-0.8371657343529575|
0.2657484715748119|
0.5888163057858402|
-0.7224113558667843|
-0.5653927640948674|
-0.6754318393431296|
-0.7274443919655175|
-0.35096275082393363|
0.548326492746631|
0.05735782016825131|
-0.13378106934664047|
-0.9418910155556757|
-0.7463735980135638|
-0.34833750367313215|
0.5842815786175681|
0.5623373696461819|
-0.8407863563617329|
-0.8392714545914303|
-0.0633933701703551|
-0.3743423845158888|
-0.02482153050533157|
-0.6045122203105937|
0.22233053206569808|
-0.6005487053272119|
0.3561847814297989|
-0.11253278395149968|
0.8347950454998005|
0.21090884718307598|
0.6806020367448378|
-0.16178701932468287|
-0.3093472184672456|
-0.08015510897279213|
0.7848208049767055|
0.2729952639728311|
0.5229800666092884|
0.3872100635783401|
-0.899232107100572|
-0.3936770776473343|
0.38754286664305887|
-0.4667781374855676|
0.8886776600117241|
-0.0871758228461569|
-0.7619261697107804|
0.783419484519126|
0.5103770606390484|
0.27268143026145436|
0.6461505338704597|
0.1125464052270985|
-0.06775202754499315|
-0.1730165447427748|
0.0037768267332935735|
-0.3018084420588514|
-0.6762111103024414|
0.8276051365961352|
-0.8562628743963768|
0.8296584453180222|
0.550046891779553|
-0.5968352168852834|
-0.5188055538940781|
0.9146923756772869|
-0.16830649425111174|
-0.06923070506389559|
0.05581404383445085|
0.5898904002014733|
-0.7015015158794503|
0.32139389043497274|
0.8486603619536702|
0.6674468759323187|
-0.5840802046483179|
-0.0279126022412636|
0.9514182753721497|
0.4279623246777951|
-0.07130314237183481|
0.4667670161457308|
0.8990718344715134|
-0.09744943506843401|
0.23107966251124182|
-0.8129751126546775|
-0.9030823075665889|
-0.029971889319748434|
-0.6185940058082369|
-0.5634646865391147|
-0.433433694777482|
-0.4081736488838253|
-0.6294918014032881|
-0.04929553049456381|
-0.27933229462547743|
-0.03688781145450088|
-0.4353489000352905|
0.1354236121802119|
0.7249669230461409|
-0.5735817492254223|
0.7620217994932007|
-0.2978792030178086|
0.8826961740818265|
0.21880988291821227|
0.8602039936930224|
0.8429183377197264|
0.5734892254300473|
0.9359711743074114|
0.9481848683967351|
1.027482903730596|
-0.6922437757863671|
0.6606761749458758|
0.4240541497863661|
0.734174724308567|
-0.023970282510029885|
0.5088489879052406|
-0.31465000343742994|
-0.6743475938362371|
0.010610392580971337|
-0.7877940839607301|
-0.28139681545133327|
-0.32396389310754065|
0.901435904230065|
0.3171641730103641|
-0.763549915822952|
0.3034044446170721|
0.49302559796440515|
0.6271002166977742|
0.6454492801641936|
-0.13732608740832383|
-0.8712269448228799|
-0.900527117162418|
0.8737897189564868|
-0.2236237111083711|
-0.8970169886318868|
-0.8534638461993272|
-0.7423572899956951|
-0.36594837808056213|
0.6403635073692358|
0.5485385624933187|
-0.29410130544211055|
-0.01026355759269645|
-0.4804159971365923|
-0.5010036426952956|
0.5028781007847922|
0.2649763572857431|
-0.7512482757690485|
0.14923191047062495|
0.5493400682689179|
0.04150212195305014|
0.46983573628739833|
-0.8244058594027256|
-0.7180101231841082|
-0.982658792936489|
-0.12856598775302136|
0.840592658425956|
-0.041386349723114654|
-0.38782540808017063|
0.3645561540421547|
0.7531705139348372|
0.09570714778438388|
0.6812645421186534|
-0.6223799119206942|
-0.8830587791443567|
-0.2345132535752783|
-0.09856606066018606|
0.191671960832055|
0.20935129818431567|
-0.2207613903700025|
0.4576075401217213|
-0.9336296853319317|
-0.056749247018222176|
-0.687032526703555|
-0.6500485602596998|
-0.22149249139103958|
-0.4189546025990612|
-0.41679354554908604|
0.04624627753783053|
-0.1536295280530656|
0.10395073111292627|
0.09766549490967219|
-0.8242240420149758|
-0.8972223940492258|
-0.14901705265818743|
0.0773550893961364|
-0.37142161907367505|
0.14870918794537477|
0.07456595481246321|
0.9487664815348873|
-0.5695763945693717|
-0.16854304930742936|
0.6853114017668501|
-0.5141297067207292|
-0.5117520816427988|
-0.4098939234598439|
0.6205833137584665|
-0.8040482098281271|
-0.6006547121951725|
0.7869124538047452|
-0.7891504729699665|
0.7427559285477516|
0.9268194864905911|
-0.851052100681175|
0.8608469459415736|
-0.3475948061839718|
0.47647329911470926|
0.03008036252385644|
-0.6905527264385632|
-0.10278844676548168|
0.13666337805837042|
0.17209716358033836|
0.026901679018626827|
0.5923554024355915|
-0.6856276102596329|
0.14286809059907876|
0.5463258737952026|
0.05601905029777945|
-0.7866664815951314|
-0.7898890967225682|
0.05878215474607828|
0.572601576448299|
-0.06074900611184856|
0.36870457480825913|
0.2819138899332797|
-0.45346568038163293|
0.3555347991375046|
0.31517988365358107|
-0.23235182160872736|
0.2729724570527788|
0.18271612785949995|
-0.8499683681667966|
0.05974635377846351|
0.13987432892649138|
-0.15690205369228516|
-0.42705901421841813|
-0.1761991612131792|
-0.5815888904273405|
-0.8303941060439204|
0.01927456385223906|
0.38370073110327596|
-0.09243271574070801|
-0.46916209475973264|
-0.5914148917603121|
-0.48239499783532697|
-0.291300316811899|
-0.604832654586626|
0.9861457349796051|
-0.4130547097740952|
-0.5019983682355341|
-0.9570690265441683|
0.9090737742608241|
-0.9327010626444016|
-0.5888104520016851|
-0.829080547382739|
-0.8546016476047806|
0.4577000649243707|
-0.5984903770393714|
0.4711876353858671|
0.6605394585834563|
-0.6196803443743337|
0.214491511966813|
-0.2193775423953484|
-0.8628587376556247|
0.12135258554548074|
0.5283366466495321|
0.13349729856494977|
-0.20745763760162741|
-0.2773779477558585|
-0.07446849680121244|
0.7884708838578385|
0.018491193952459982|
-0.764652488507137|
0.19732099816185086|
0.7082502590691655|
-0.1547383826421945|
-0.4307324950688027|
0.9552312160158495|
-0.4764822044857321|
-0.3762221362194185|
-0.4365094304130118|
0.4660950913805704|
0.55594962035431|
0.7144566398369048|
-0.07659736172486997|
0.025494399970376024|
0.9469476496628338|
-0.33456832839742273|
0.8108134594880589|
-0.7788751264167189|
0.7732698648969013|
0.045680018311720985|
0.7066385459195017|
1.0243271249918864|
-0.7664123933419351|
-0.42384365627848397|
0.4769626716323341|
0.38683765126237085|
0.940385089359081|
0.8681383811406039|
-0.43610428685402136|
-0.995459822641576|
0.26548402493098594|
-0.5190327270025007|
-0.6074477074480249|
-0.020809447620041915|
0.6044359187372612|
-0.7414196928168885|
1.0027342854937207|
0.6491447362479301|
-0.27883767495334344|
0.900929831633435|
0.20387156855320832|
0.3353887496810048|
0.3163696094959325|
-0.35468751147966904|
-0.10282958174126522|
-0.9971986884087366|
0.434256739470007|
0.6992311134275558|
0.3335550002808306|
0.6690610339622761|
-0.46587805479853517|
-0.19409960427068704|
0.2609775478584559|
0.7913774982175943|
-0.4685420860392583|
0.7819583036012021|
0.6513334511698047|
0.019651435506736113|
-0.19605289411695145|
0.06228557992910609|
-0.2611915763790482|
-0.532491123188961|
0.4495656792263638|
0.7036296821883816|
0.06076263989681233|
0.5090174963604004|
0.005428331715271001|
-0.13357645823523692|
-0.8437565798887527|
-0.36285321554857675|
0.10222322747573863|
0.9311086764723115|
0.9180085777470219|
0.0022376504483060384|
0.04040602726952043|
0.18384702019037127|
-0.026302733841496364|
0.05180639868049849|
-0.692871928443584|
0.5796075172765396|
0.35072291983643|
0.6616832246886584|
-0.35998712552272844|
-0.35438394780399063|
0.7061257226168821|
-0.2886086620493193|
0.025510100860461554|
-0.39548797632979665|
-0.6731814196464087|
0.07752218571358241|
-0.024102979565633|
0.7913087482311009|
0.6484923049302698|
-0.0871880721018309|
-0.8418332229358962|
0.737242888987561|
-0.5174309165869703|
-0.005823750168108758|
-0.15562135436452204|
0.08589442038217725|
-0.7002366019442081|
-0.4024592116462694|
-0.16390878424279942|
0.5349682461314689|
0.21159633129358596|
0.39778539071106994|
0.24405479013174528|
0.9711204562211551|
0.045963691491523406|
0.7698530590340775|
0.8633778940089979|
0.8180408985570429|
-0.07015052101934649|
0.6419564952488419|
-0.5919720079168781|
0.20927094884589076|
0.21350538371704023|
0.4067131363770284|
0.20803663250514642|
0.6828694637512631|
0.2853627803110301|
0.07524201247593855|
0.8592336694512199|
-0.21126365935341765|
0.6929628321171363|
0.4316265384571136|
0.48335351773358837|
-0.022450734621166007|
0.567997635342577|
0.3713543334499695|
-0.8482500205521966|
0.7610764023753223|
0.22592173748240232|
-0.8005610385261924|
0.9854980318525132|
0.5578585768772744|
-0.43745395602340154|
-0.15205998338890803|
-0.8679875531337933|
0.09072334894906645|
-1.0093196042533639|
0.655515478061775|
-0.47048830645415446|
-0.5070903298274722|
-0.19686310197937223|
-0.7426359759674173|
0.7109361293384551|
0.9017921169178805|
0.8293015197973128|
0.5803857473388861|
-0.7612828295732398|
0.023653708053236213|
0.25223670001424436|
0.42674613852862997|
-0.7767493682300997|
0.4520353081558311|
0.175484586379265|
0.6111617859740347|
0.7186102426786904|
-0.5868432122839923|
-0.9787758603986983|
-0.9091330637077049|
0.5896037795497041|
-0.8439654249669604|
0.668780493806152|
-0.41004535110125756|
0.3946739134320484|
0.10277746278958606|
-0.3667152439862686|
-0.514682439965732|
-0.5031585603016533|
0.906516921367317|
0.8342143426370143|
-0.7973980440187891|
-0.7925135792113873|
0.050076095601956104|
0.9021796364094314|
0.8134859773247338|
0.6816633977342287|
0.9722615889998791|
0.5473829731063896|
0.5146511276932473|
0.22385593595572975|
0.12776073784081857|
-0.4694649438418526|
-0.12251171921014489|
0.014655277784378716|
0.9413344569251817|
0.17218814756912057|
-0.4114473993366189|
1.0061200890225013|
-0.5602380405515527|
0.1850062387489408|
0.6922893768223605|
-0.3508993639077529|
0.6127542198960031|
-0.2049658635474196|
-0.3451283476024103|
0.2281195711166908|
-0.5820459029997065|
-0.8063198976573156|
-0.13989268400573115|
0.5730849983544479|
-0.1418745730818549|
-0.25780230000882176|
0.8017360656367722|
-0.3176384962578227|
-0.8426330114576291|
-0.7985425482517354|
0.800083240021064|
-0.947057978621071|
0.5029348669179107|
0.7504218474970457|
0.9417974285760184|
-0.760354509642943|
0.03284814486168939|
-0.940496663886137|
0.05442620498222393|
0.7401902186286359|
0.4574436989941879|
-0.6841415380091901|
-0.5104801501608179|
-0.20443327345309986|
0.5610059633169592|
0.06567544044205144|
0.12518232177531052|
0.4874316511108288|
-0.1536484035051113|
0.9365138912236666|
0.41447648644073243|
-0.9307231358105558|
0.41172628836711345|
0.3002830676542018|
-1.0141050170375476|
0.1785390230345935|
-0.4354184905300583|
-0.6037250537403605|
-0.24384691169561443|
0.25895016766624396|
-0.8107003731589961|
-0.7071134706383636|
-0.2892200474165635|
0.8813314171376619|
0.7689306849153317|
-0.5604540579499551|
-0.7302849553539433|
0.27219795750778986|
-0.7111235426504888|
0.17735347303068957|
0.27903965906423933|
-0.5610246809057949|
0.15442983661616966|
-0.05391864922125332|
0.817111747108634|
0.8678785257392186|
-0.41497226110719015|
-0.7152349813256969|
0.8605832012104101|
0.978872292893676|
0.8613024488335255|
0.8642010030330386|
-0.5305031880124786|
-0.5083073790497854|
0.9470563743736384|
0.3251622166574737|
-0.01595469669173156|
0.8458332956033411|
-0.31538819466196544|
-0.8712564152071207|
-0.07485351349390006|
0.877861389716788|
0.5759874574034483|
0.3531467454108591|
-0.9602337010716773|
0.7776183622879373|
0.06400457328759733|
-0.5616192696321409|
0.5101700252905644|
-0.6568928054822977|
-0.620114198880043|
0.4782986990548516|
-0.7425886218970779|
-0.3046769968018284|
0.7018103660816238|
-0.31114989465905885|
0.06762711573604441|
0.6588072531498839|
0.596346487064955|
-0.8339953770990691|
-0.8152038535174366|
-0.891677703701878|
-0.07613951835390961|
0.48049042609098447|
0.11195948713217921|
-0.10504073325027703|
0.581226542597528|
0.3309921131338061|
0.41206319288677795|
-0.43315902700348213|
0.9174815550164557|
-0.09753228333195935|
-0.7151528733303698|
0.8396202843260122|
-0.5185175163836333|
0.33434890208153645|
0.3704200512707912|
0.4528575556881622|
0.5405766269860454|
0.7220292415516317|
0.5929065331376204|
0.6605522209507569|
0.6209280879556877|
0.44135265425678066|
0.7386712359248399|
0.09800441430735038|
0.11863230305974909|
0.5829603498815352|
0.7288340956955784|
-0.8913883235066683|
0.5601453343916388|
0.15980664197526784|
-0.3318991176138294|
0.6662188959143873|
0.2939215449915792|
-0.7594421020933132|
0.8969053558285237|
-0.43453413751390024|
-0.5917134303094969|
-0.3189878647389484|
0.7652909770539917|
0.9434394239069966|
0.7759860439143178|
-0.667942680375425|
0.4573925359149812|
0.9068204757135685|
-0.8300583704553909|
-0.6834674253506744|
0.3810701750605794|
0.49373982815211964|
-0.07828333212021311|
-0.506750965929697|
0.3315408978059958|
-0.6119098714129584|
0.5010091362068995|
0.5810200292252929|
-0.06251331416907052|
-0.03387523086501547|
0.4982549590053766|
-0.08618140088548583|
-0.24093302326139146|
0.5687933167416129|
-0.741117803016035|
-0.3077545741195411|
0.3462722672097751|
-0.7131427488797805|
-0.11658170239267605|
0.5423131694688667|
-0.1843553535825825|
1.0044118080093103|
0.7656067742658236|
-0.7245647024917884|
0.7325537883657405|
-0.4616114514698807|
0.8493494635230753|
-0.5636381666041062|
-0.2610088634247057|
-0.9754795793786593|
0.59132031967565|
0.6550027646273998|
0.8898407714986114|
0.26483335128087293|
0.9620600733621326|
0.0303284771726436|
-0.47304028635940437|
-0.8609687741831522|
-0.5550485061872757|
0.9303511141707926|
0.4927380486274376|
-0.30115422521451507|
0.38133252713489424|
0.15615479851158628|
-0.5244444427669944|
0.7724143254817551|
-0.1539077608407742|
-0.752774394025256|
0.6646162501828315|
-0.9651923400092953|
-0.7807901053410903|
-0.34719653129390515|
0.8684775935597527|
0.06414915238353908|
-0.5089237845813394|
-0.05264175738300583|
0.8205065139267064|
0.47691383760570716|
-0.6426804892005764|
-0.03183431401013493|
-0.7494574604703365|
-0.2986595842622254|
0.7966814562419016|
-0.8908266481729276|
-0.9661005629082358|
0.9776717241498407|
-0.24552525087325058|
0.10959304033511451|
0.031978807456815306|
-0.5197800862291727|
0.5000963468646941|
-0.65247191809795|
-0.10195685240169923|
-0.2953859921039963|
0.7020390174607694|
0.6123619814539573|
-0.7826439782323813|
-0.628748631840943|
-0.21982287622847116|
0.7543990405424446|
0.5658168531627561|
-0.885192130448909|
0.3747195498296122|
-0.16185577701290652|
-0.8851351091858836|
-0.17928335049365043|
-0.3772872948611978|
-0.023801106515277955|
-0.4170240819283962|
0.2970955566054435|
-0.7030029897927733|
-0.8592833283038973|
0.7439660720915151|
0.13930605181964192|
0.5308238697902387|
-0.7034647306901403|
-0.007154806702338673|
0.7940372030900285|
0.8354407135294032|
0.041330582150720954|
0.9505740364239637|
0.46408487657890646|
-0.22404580135419377|
-0.20108299295144394|
-0.6459798596532281|
-0.1374909444302767|
0.647887594261717|
0.7019215901880023|
-0.09574125209804518|
-0.02858969864970143|
0.3903142648417114|
-0.3294085135956501|
0.9405275277860357|
-0.5478443435020456|
-0.46373394275993246|
-0.9704229753296338|
0.11442790731959661|
-1.0185920728706446|
0.9088358368905054|
0.8044097118077022|
-0.13203620722911039|
0.8753146853611969|
0.5199333805492966|
0.5677882627556667|
0.6181515662224067|
0.966252144779144|
-0.2239200129733079|
0.3122258957417275|
0.18944430500378506|
0.6278324293275984|
0.08396792159843448|
-0.7326800622325312|
0.6893106751747268|
-0.6703989174611368|
-0.6310399682893254|
-0.49810114324655963|
0.3279969238793132|
-0.922636009795222|
-0.05544563333391368|
0.485850026094031|
-0.8853483976422613|
-0.8748543189692548|
0.9162612837312843|
-0.4721245809456683|
-0.60451409571308|
0.9838760414567759|
0.9924653095548556|
-0.7326124882253338|
0.5896203627111373|
-0.8288826702145256|
0.5028201087311497|
-0.35409575819661837|
-0.15319572866983627|
-0.5110780520529843|
0.42996412935631373|
0.5293827672443521|
-1.016631898208771|
-0.3471174796753449|
0.007701136628541662|
-0.19016618437327626|
-0.4803898035630608|
0.2569086258634484|
-0.9403751760171892|
0.3116302525206614|
0.966846320455863|
-0.16865132969417967|
0.48102828727795494|
0.6935566548811637|
-0.8107373914616313|
-0.07187493741258415|
-0.31772499742737986|
0.6758020550714211|
0.3679385819753807|
-0.07248653724255202|
0.824276543991154|
0.05409254246129745|
0.19714675585536418|
-0.36296711120242786|
0.7845755230286237|
0.35922598993379207|
0.18900926832324771|
0.12501444272936527|
-0.024976221992631057|
-0.4752973207650509|
-0.3428517228552516|
-0.6730087873371555|
0.8662654221511235|
-0.28368861672664397|
-0.6023696953473723|
-0.1704932593385169|
-0.9208124983072399|
-0.7011159452142592|
-1.0154089191802254|
-0.8634629108141202|
0.7397564888800375|
0.4021885047972634|
0.026340770104490832|
-0.007821859302241307|
-0.2583850980592266|
0.6211980331350585|
0.8280343699085917|
-0.5164147305575684|
0.12178384361587191|
0.8502899250647531|
-0.6710712770055023|
-0.3576494944739602|
0.960714540508529|
-0.3960789520948809|
-0.8719337138588923|
-0.3664117365734197|
-0.22692717345588134|
0.20428380198315937|
-0.6940463711939525|
0.18884549052192812|
-0.14358315025365354|
-0.08652480810451191|
-0.6711360186461081|
0.49185495470561114|
0.37880544953344186|
-0.05962875389599947|
-0.9362421954141373|
-0.4176168620552604|
0.27353222379212067|
-0.7989051828426341|
0.05820768534239178|
-0.29474033269429695|
0.7322475040129764|
0.37745801074699215|
-0.2887277558207647|
0.4592051112883978|
-0.844714665722267|
-0.10671691932832213|
0.49053932784877846|
0.4742938078216048|
0.5368374731181844|
-0.18258504071063716|
0.11887198008364594|
0.353290489879666|
-0.7950590355301217|
-0.9338076759836451|
0.13411421194991094|
-0.9607687061794734|
0.1535289309645331|
-0.37213916828117805|
0.40888662970193745|
0.6178026344265946|
0.037080501009446126|
-0.7843571156338774|
0.9491173709568489|
-0.1482436110175715|
-0.12659087710847053|
0.8440810358666012|
-0.23158207136221845|
0.13948476971778784|
0.2406491994391883|
-0.8173583608423791|
-0.3795435221956231|
0.9599527734061407|
0.5122362326191793|
-0.8813186544599139|
-0.5978851243530604|
-0.7847561600617675|
-0.691733740354602|
-0.010385631931178363|
0.22876373619398513|
-0.47259206264718506|
-0.7229048672773507|
0.7775221029672492|
0.2649414340433339|
-0.039298599189124886|
-0.018241880313866934|
0.04862557662172543|
0.7801474744207971|
-0.5184459616245971|
-0.5170598615331797|
-0.6305822115977623|
-0.10426361753107669|
0.6415635741270757|
0.9298364104438659|
0.12637895978642305|
-0.7141483504366908|
-0.8021164658213359|
-0.42657080390227736|
-0.6090313222149374|
0.6516089947010004|
-0.7583294854354857|
-0.757474954351718|
0.2493796417348019|
-0.26380270276155837|
0.8630004076033031|
-0.775659819566268|
-0.12722777282797545|
0.5142664877115871|
-0.8469548347641489|
0.4376427161377681|
0.47368712023193354|
-0.17079315739682457|
0.8967467368159592|
-0.7844450744893051|
-0.7929426193557256|
0.2617679379249721|
-0.8833942474745694|
-0.5955564629601267|
-0.3165353748346817|
0.9463007254950927|
0.7541191781836141|
0.4906480583256564|
0.2606642890982543|
-0.8450901299879051|
0.8848228866348248|
-0.7803391845281129|
-0.4216085345316111|
0.9328589396198183|
-0.5204019820063118|
0.3833074538751781|
-0.5059884842779075|
0.5601961761554314|
0.4175398551359181|
-0.34755981282233267|
0.1511650640705708|
0.24027460763719383|
0.9121388244303484|
-0.21877890730733204|
-0.4611260227953177|
0.9404008583504337|
-0.5847203875700353|
0.5565229339667669|
-0.7600841418711063|
0.07890723787588154|
0.1461843639396637|
0.9153585295714556|
0.9457384150830601|
-0.5055993512418515|
-0.1499816225546809|
-0.34353288761561646|
-0.40471218999609304|
0.46983594415212243|
-0.08354740006386092|
-0.21733782942903138|
-0.8866095560833294|
-0.7713364549341668|
-0.32142986392244105|
-0.10954632747900316|
-0.8708168361054994|
-0.09858992450921653|
0.23786377296033265|
0.8941061657699403|
0.7433039807515963|
-0.38016735321351375|
-0.5592237898962616|
-0.5177724028926445|
0.1853146929420165|
-0.8423662753010115|
-0.45604530324284204|
0.01750784077306801|
-0.327920637894379|
0.9384243516614771|
-0.011132397085848457|
-0.17487634135480404|
-1.0044621393296747|
0.8478292894535471|
0.7998770131633022|
0.4998805007505459|
0.5265006904932694|
0.6869816645005061|
-0.532844796749532|
-1.0150010091493837|
0.038762884777925416|
0.9432771678591908|
0.7700922112633364|
0.6609594987948534|
-0.24298814972291527|
0.8158290931579896|
-0.43754984874872965|
0.7742701931304737|
-0.4618579767674396|
-0.04864442127615779|
-0.9466057540392403|
0.5118808144406654|
-0.6749764195574712|
0.37389456261024007|
0.9574006420368036|
0.23471748429690428|
0.09838414422010557|
0.26401025179531834|
-0.24029921681831146|
-0.07414843709780841|
-0.9198144609445803|
0.4403854148060106|
0.5979182677990217|
-0.7158520908171274|
0.5559146275119707|
-0.6330584361552418|
0.6626670294444229|
0.4781422013357535|
0.6758222694477075|
1.0101250692230308|
-0.3651066464740031|
-0.5332597910047537|
-0.6030420046093201|
0.8317460552352546|
-0.46368800798048915|
-0.8970404966446451|
0.2140507771359601|
-0.06645179721875201|
0.09942264301442813|
-0.03781932867770379|
0.3788460018779528|
-0.9555765476126855|
-0.005420324708156108|
-0.6148634671145111|
0.8490197487690938|
0.8327416102248828|
-0.3839573173334285|
0.5954007635478707|
-0.6860677090315573|
0.7463759184446381|
-0.6424607848346036|
-0.7831753292639547|
-0.25879446394611944|
-0.058269547893660754|
-0.21835103179865442|
0.13296974126214164|
0.12646438521575715|
-0.8663191669497852|
-0.22340172717586063|
0.017497497451360252|
-0.1218580927944792|
-0.7372903170036265|
-0.021118988589934367|
-0.5588822913607435|
-0.18883291197402624|
-0.5852562233164615|
-0.27118867808160646|
-0.6702237565531646|
0.22611732523180594|
0.873829301383133|
-0.24594525749228563|
0.9674958884188752|
-0.3683640835482441|
0.5875482945978764|
-0.4147096797114708|
-0.11500846984410935|
0.9317987602225349|
0.3542703175033436|
-0.19372959886368354|
-0.1989411364939078|
-0.8510279410205548|
-0.5482429751129371|
-0.27640167834522|
-0.04250959532960697|
0.6765050816647958|
0.7413912265992385|
0.6986246551428802|
-0.027228940210968215|
-0.3712530151496687|
-0.4404496202221395|
-0.23372700763024012|
-0.7641700266940245|
0.4088349489175543|
0.3178748345223118|
-0.2951872489133397|
0.7771436954733143|
-0.5916012348101559|
-0.1587121827003209|
-0.9888312638177116|
0.795796435037605|
0.17040116060704932|
-0.8510161836536664|
-0.4490962329577751|
-0.5007090270983857|
0.17734030553888785|
-0.5969236052983511|
0.6673741232711065|
0.456283853700055|
-0.688067811675469|
-0.43254859384092814|
-0.29185625181727265|
0.7067306458975475|
-0.7315190368188246|
-0.3981520565778544|
-0.968567243881739|
-0.8587828630758642|
0.3530413949573191|
0.7346214444776971|
-0.46552763607682496|
0.9160307000074803|
-0.8857311499279021|
-0.509095544656651|
0.8083912021167756|
0.3831029412995464|
0.9725627407874525|
0.9086713275201953|
0.09872391268396341|
-0.06473981494306183|
0.9702732987228807|
-0.3759229095789854|
0.6015754430739514|
0.9594880699356758|
0.9270038890703595|
0.9745111859553454|
0.013183913661386647|
-0.7127086984259389|
0.6109595970943631|
-0.9045785334155626|
-0.7639075165841991|
-0.4840996114030657|
0.6612894972961807|
-0.5452867231978863|
0.04987674077673935|
-0.7092323610943037|
0.41698949735864776|
0.5001478726082046|
0.05506444085363425|
0.24789972855710704|
-0.18716221020157242|
0.2821697485201535|
0.40088724119107|
0.5508560456465875|
0.01858113132017963|
-0.11586797636783752|
-0.33989507097770005|
0.5902942089407596|
-0.026008481476532293|
-0.6066544946736323|
-0.33782321869003384|
0.6451310946741656|
-0.8239325133389599|
0.2992336770510252|
-0.8610766126827873|
-0.886315884388906|
0.05186401778930993|
-0.4145153661246612|
0.019143347371400044|
-0.03835327814388121|
0.5091308755521702|
-0.3423954040217494|
-0.6298092226997541|
0.1922632487042035|
-0.08897584494551168|
0.37407092777998563|
-0.5911674312710476|
-0.8991458549004482|
0.03576272112150977|
0.7647612572979279|
0.31048510126185014|
0.7065581822898614|
0.1321233582000824|
0.1464424684791519|
0.2366413137981502|
-0.7653936482620868|
0.43934197044345097|
0.7949049727323646|
0.06923085448956628|
-0.9876436655566659|
-0.8125379583270697|
0.5743217159335468|
-0.742310229354698|
-0.2367489678746612|
0.20750404638035225|
-0.32377473401480894|
-0.2586130953110683|
0.15436164447052478|
0.8009537972019073|
-0.12002041463450037|
0.29709297922132005|
0.21851370450583385|
0.22661358131298037|
-0.10945495963171428|
-0.895779740642038|
-0.19943531391842897|
0.5708433658001099|
-0.32749069933420527|
-0.47882683354726|
0.18807995836839206|
0.191839870647805|
0.7974253905777183|
0.7013344624744052|
0.6701088588223314|
0.6234239382041965|
0.7566680999554679|
-0.8560730264728883|
0.03661898808700716|
-0.3698764266331114|
0.34142827332363374|
-0.6981937175039035|
-0.18356824983431203|
-0.30125102492449757|
-0.006286190332779611|
0.4193807913399558|
0.5094379921467058|
0.13641985963428757|
0.30708830917377794|
0.16553872040161224|
-0.5670792631391031|
0.9645027483751584|
0.9714376821023354|
-0.34734897688881744|
0.1247074006543899|
-0.6479165166382328|
-0.46270844072281214|
0.1119623124470194|
-0.9386500332250083|
0.561478828213759|
0.1025918766588322|
-0.04252901766861227|
-0.05173445662833513|
0.1230656972434493|
-0.16602632269748385|
-0.9164149889387966|
-0.6739662483130211|
-0.9250258443943402|
-0.7054754433612238|
0.22787688184625673|
-0.8058121357824993|
0.2801301299720138|
-0.6928282601071486|
0.06829413131937243|
0.5756220870756589|
0.7054949426517171|
0.30856371362423973|
-0.8351199320133313|
-0.006998641877682297|
-0.4943473725543199|
0.20772425100509406|
0.9801637812606138|
-0.44416839940226593|
-0.8955844414489837|
0.6203600750158321|
-0.6901943990227029|
-0.26389919382623933|
-0.6107167784086387|
-0.8642926491777145|
0.8649103230365427|
0.7991627894973833|
-0.5407132256692259|
0.5556236514715251|
0.38569595937222084|
-0.7128337379543749|
0.9029608734216505|
0.89637954552504|
-0.2809816063449225|
0.6716457280060134|
0.8619963260693184|
-0.23838702995686012|
0.6905526542929522|
0.7348578030837338|
-0.4348668641739154|
0.7204976519937629|
-0.09969729862355277|
0.3722901787934973|
0.45101511253624693|
0.39456585714595355|
-0.47863143481888193|
-0.6548918140484352|
0.4618439691118601|
0.8016157834022735|
-0.7350183743584547|
0.21902804344530755|
0.3926622233937647|
0.5608229653786798|
0.09196331394654923|
-0.002457954172067055|
-0.6846515300849817|
0.8112294126281987|
-1.0214428159018487|
0.19284095199200882|
-0.04973277462636015|
-0.931112369662751|
-0.19937013175164772|
0.538933621333184|
-0.7775961150004319|
0.7052036996907084|
-0.5305358406185063|
0.9751612251984434|
0.6937149623246496|
-0.9792350438368578|
0.9199854989905212|
0.1958934952656653|
-0.9415114862339152|
-0.5032157264323526|
-0.3304950164668526|
0.8312026921561916|
0.2620226407630217|
0.44949676176857084|
0.6295747378705715|
0.02957951987780741|
0.7328248832331826|
0.7966060935257714|
-0.9222899529172323|
-0.03824637829188228|
-0.05795457889649413|
-0.40409396351048127|
0.11863698024215202|
0.9150856383947783|
-0.8455728825839548|
-0.6393745106167652|
0.02335498343600193|
0.330419164892175|
-0.6826779786143667|
0.900373366348127|
0.4188356237142977|
0.45196328248373596|
-0.7310960998044901|
-0.04658496619900509|
0.8578390032628799|
-0.6856759720934412|
0.17661981105851768|
-0.03159720614304048|
0.4652643681354513|
0.29152639775615025|
0.4140292564330412|
-0.514070176307715|
0.5945163353964509|
-0.3085041841623802|
0.36361896647429304|
0.5322791801043757|
0.7143800333508366|
0.6779488242496298|
-0.555659530036474|
0.4962761550405152|
0.43931579357234246|
-0.973677418061344|
-0.7975755158219808|
0.5286661610521426|
0.39931424778816643|
0.9452606856137017|
0.44711165841531353|
0.17830587643523324|
0.10620093223988783|
-0.5528516766515417|
0.389249632504228|
0.17281826254273058|
-0.322136223148506|
-0.8448054298288251|
-0.9106070341665156|
0.10027500526042286|
0.9688703076635802|
0.38667067645227543|
0.8720322230767582|
0.6875770979386227|
0.20285382690808448|
-0.8108976376946633|
0.22275544983173257|
-0.6773944961160115|
-0.6321780062048632|
0.6715211781468361|
0.6500637647310238|
0.5579619786435588|
-0.46991410807503453|
-0.9067230665551855|
0.11615748112045712|
-0.6858466664658648|
-0.9515799304711865|
0.25359137241313995|
0.8178004718397226|
-0.3084114273100181|
-0.19004912677472888|
0.3188812455939451|
0.9652965180274906|
1.0065319790245155|
-0.09514577742305072|
-0.3281744982552855|
-0.1338570444332198|
-0.6063838197282909|
-0.9571898479173248|
0.4172422031598349|
-0.5907915981479621|
0.6137057548398605|
-0.6958766371118027|
-0.41380446789890957|
0.7591791499694384|
0.3683985754762336|
-0.8462399323322489|
-0.30897186264244475|
0.9058655754375582|
-0.8477820040698753|
0.251850242801214|
-0.3236220052954386|
-0.333759058605812|
-0.6198535028719797|
-0.516145212347482|
-0.23701707572733977|
-0.013097055426364478|
0.7515765801538449|
-0.16175146492649925|
0.6336908748318005|
-0.21358870983225958|
-0.8488613068042064|
0.039757411030705334|
-0.32359695230180224|
0.27862302922286697|
0.7945868190104919|
0.7113686399349194|
-0.7703549812700499|
0.20141235407497893|
-0.17830933130400214|
0.8093118616492033|
-0.6729431372143119|
-0.5565450651134576|
0.7820090971679479|
0.12641915741944595|
-1.0123898418400887|
0.2685345831816273|
-0.5399259692562741|
0.07023752647420821|
0.3201844682178328|
0.4532934366988317|
-0.8271049088077965|
-0.961992536904202|
0.13593590095016442|
0.4821024060018006|
0.46100212704328|
0.5583243425709945|
0.7851766177314163|
-0.89847895270741|
-0.9805627782147781|
-0.09476549894141618|
-0.4118599155764743|
-0.770766741275697|
-0.8856329178251542|
0.9184583547916223|
-0.057992128132258534|
-0.6985771592116137|
0.8972414073947915|
0.9457377113634741|
-0.027318968555663934|
-0.9544108716329764|
-0.21893879603806446|
0.47275398300025345|
-0.6388659452111611|
0.7657816553612299|
0.0856532521905321|
0.932718618890259|
-0.1657590653000067|
-0.09215211087506746|
0.9132695941039239|
0.5614606330796419|
-0.5441180434485412|
0.48885289738169774|
-0.7366197489507765|
0.4342539936157624|
0.2442426866810921|
0.7751405770233395|
-0.46082078076570065|
0.7395962954049341|
0.47568535475827756|
-0.6714966599332877|
0.9191126041181942|
-0.7594610458651215|
-0.8355079974954451|
0.7498222399854775|
-0.5617541869887211|
0.8859060631126724|
0.4639089407637881|
0.8825217659565375|
0.8018046331618904|
-0.6971330161104385|
0.878254324963375|
0.1740286352384456|
0.7996146231957918|
0.002754039347781078|
-0.2794209567580512|
-0.6894197404810035|
0.6991810952548023|
0.11932783578938652|
-0.940053919363819|
0.9688989746250274|
-0.9099255231795952|
0.15413317541856486|
-0.6105379050457165|
0.6836092664190135|
0.8116563265301561|
-0.8239852412968283|
0.7397769307374842|
-0.7035168890209494|
-0.5992655508800356|
0.13456414117865048|
0.9605610532522956|
0.4017343261461472|
-0.4717087857380074|
0.3183508595212228|
-0.4311936242365666|
-0.8450798194924695|
0.682911988622745|
-0.8836459612492238|
-0.6907789890906786|
0.43339874579835136|
-0.08968982685114293|
0.26087758729726174|
0.28779693087206437|
-0.25348939461222797|
0.13983642913265318|
-0.5504260440829483|
0.7506167109761812|
-0.8723016446094317|
-0.7837495849666181|
0.20505159526621405|
0.670925244233863|
0.5716698819798349|
0.019991233839980426|
0.6982642742504697|
-0.42892014265872935|
-0.10098392132904449|
-0.7458875745713407|
-0.241402673007833|
-0.18432239654475677|
-0.7120592412179529|
0.5925358197895948|
0.19953289319193027|
0.5824906538155521|
-0.3599605617500025|
-0.8318392612565904|
-0.1418637447294978|
0.09410871113686534|
-0.27106528023820387|
0.5559498432469147|
0.7169936558725493|
-1.0167909639322061|
-0.6494331745782754|
0.7789713489328982|
0.5518930823063409|
0.5425544635114764|
0.3407927009061252|
-2.9102089574982682E-5|
-0.6751820976013859|
0.41179142171008465|
-0.9479437629968429|
-0.07243747371179132|
0.5166334332461301|
-0.3417989874101131|
-0.9449417142055538|
-0.5970404970574538|
-0.3455015992525863|
-0.39236663518616427|
0.06747938307743793|
0.6901881168389721|
0.8818483592739106|
-0.6705711232615865|
-0.22515155924143426|
-0.9261938170726594|
0.7733564979159181|
-0.2906762886299848|
-0.8719123209765485|
-0.15305098700434597|
-0.20962778619686204|
-0.05170012883102832|
-0.18406291533754088|
0.592118998461714|
0.4969948096641245|
-0.49249739508312274|
0.700256263902668|
-0.31620127343026544|
-0.684640449816818|
-0.588295564292212|
0.2376691246002702|
-0.43497117468362273|
0.8297223962311063|
-0.8498210798860422|
-0.8892273770087306|
-0.40095373697407166|
-0.465405737923041|
0.26635875370771495|
0.04094621043533128|
-0.5235982733803629|
-0.1649153743884658|
-0.410421665563344|
-0.2327001454731926|
-0.26191104752333755|
0.5923723269666296|
-0.881749529705656|
0.23090841428447842|
0.12389390730104721|
0.1998922163289976|
0.3853588658034115|
0.4380451984340311|
-0.3524326893620675|
-0.21172816755830876|
0.2129851180469244|
-0.5731194302626947|
0.8847354873470472|
0.7809882073405986|
0.7018735217623756|
-0.0012397082864271625|
0.6772230832600994|
-0.5102335579797945|
-0.6411894193355943|
0.3650885235009256|
0.7440304119906369|
-0.2553776491337494|
0.8233312996921164|
0.8933431074661422|
-0.11678881358512654|
0.3720378324791348|
0.7365324265241089|
-0.9279917768741215|
0.7666006657453434|
0.016027419436997446|
-0.04948805236878933|
-0.8257507389103608|
0.9018947742110166|
-0.8597085209180484|
0.13208161916860667|
0.5183759904257917|
0.8015289349902798|
-0.2032691164668974|
-0.5375636925726064|
0.9323475763238521|
-0.2831722086877915|
0.8117253423949485|
-0.8702894695552347|
-0.17547475678408064|
-0.014473790456344117|
-0.3006224190890288|
-0.8949226453119294|
-0.7154114667193671|
-0.3403176865388783|
-0.7320701694993794|
0.10729664015935891|
0.7554033063465938|
-0.5651742202238981|
-0.8790394436462571|
0.6933448436252366|
0.4770039475936316|
0.6998532470096702|
0.6632298336391949|
0.8669450487317842|
0.4110916559284787|
-0.6084904774088551|
-0.39035050178928904|
0.8089115251498351|
-0.9915848316226524|
-0.4891356767321176|
-0.6947946864872583|
-0.5771981762210221|
0.7924790844158592|
0.8102401402916934|
0.8602774887369181|
0.738986178075595|
-0.8420119843733281|
-0.321265191050203|
-0.5933767652519839|
-0.22953277545433126|
0.8236444449673014|
0.8781790188952192|
-0.9976115621305657|
0.6482992274939272|
-0.7595213646027021|
0.8723806728012177|
0.554098888817171|
-0.7626439842137483|
0.14944059633155712|
0.3233391696904607|
0.6298593554354541|
-0.3155848187313124|
-0.0638699331488738|
0.142915592050525|
0.3519300175830687|
-0.6015235973281446|
0.65449504217942|
-0.2979290091932832|
-0.4306702459379502|
0.9280658389910688|
0.17118965486677412|
0.21904558733299453|
0.37932269917703304|
0.8157301391717486|
0.5133449109285362|
0.16298816222981843|
-0.29517806313196954|
-0.7709625462251211|
0.677841664122478|
0.08108740822604311|
-0.14127868029513907|
-0.12928485523166083|
0.36665122027394764|
-0.4959013356868181|
0.8516026326771653|
0.5988973025439421|
0.5268503191923591|
0.2782532514627849|
-0.9984813099498437|
-0.781896286343385|
-0.029772402117830592|
0.5941463363331678|
-0.01666190067998494|
0.950574203493609|
-0.8035078262836911|
0.6299312293574487|
0.8372189859694066|
0.7117919140228328|
0.8889336275165782|
-0.7303540059698292|
0.8648405704290267|
0.08281203395323211|
-0.42059545237669876|
0.5375887971441989|
-0.5225624482162344|
0.42437796799824745|
0.9115367928185607|
-0.7721524340197429|
0.08268544160606443|
0.597326880425269|
-0.09028318426660269|
0.5785002619142883|
-0.6586060703839869|
0.6986495155017757|
-0.8698359824592048|
0.0657837083947656|
0.2511061312393431|
-0.5310284069572545|
0.2850147143536286|
-0.8898520879095758|
-0.3647477576510472|
-0.7218048773850723|
0.5547541350098184|
0.6685010960229495|
-0.6394549048992696|
-0.7419036569683952|
0.36904900876157204|
-0.2730386909817063|
-0.14663034242570253|
-0.4011842448586794|
-0.8978768130130592|
-0.18587504381723297|
0.2935482307451697|
0.9154007363752932|
-0.7141508771791986|
1.021981350309682|
0.37313451761912514|
0.657906384002524|
-0.41539104484904626|
0.79765216834517|
-0.7884417301161857|
0.2961349050819876|
-0.9069299267688278|
0.8846584643663694|
-0.689660299992813|
-0.3889752984085892|
-0.9062388120695171|
0.5632740059944785|
-0.5328427478046551|
0.010465152794680717|
0.8658905839292769|
0.007816453892336716|
0.10360598660354367|
-0.40769028252975076|
-0.06152972385597948|
0.30286559092283766|
-0.09759153075725678|
0.8867138408603233|
-0.7496795146050818|
-0.4943048722522451|
-0.40995038896210295|
0.24040943978349522|
1.014169464575778|
-0.6654949725636776|
-0.6634148091216175|
0.16755091422921747|
0.9670049890030538|
-0.8678342683873947|
-0.38290729666675355|
0.5404924571077758|
-0.334647569317651|
-0.6250391375627483|
0.959205957521107|
-0.25228813981966514|
-0.36010644761517074|
0.7528002869403826|
-0.4557950050592771|
0.3525464750498972|
0.8122639985808797|
0.6544086679926392|
-0.849121801845282|
-0.24399107557470046|
-0.7272530776750074|
-0.12438970853748979|
-0.9019903445304772|
-0.22825152677390537|
-0.3157894163752002|
-0.03000798734439888|
0.9420459399978003|
-0.532737597279779|
0.13817891716046585|
0.19661639623666513|
0.7360557532029499|
0.43671302732746736|
-0.17586499202705122|
0.4419716752445455|
-0.2674859692451673|
-0.026452815595617168|
-0.1905653096857334|
0.6381393548736136|
-0.8077675678802707|
0.6130933179416621|
-0.6582355014444081|
0.6394054872005694|
-0.9733946686225586|
0.6695340078614419|
-0.5492909905492879|
-0.3695359557745422|
0.7230346117628135|
0.345714478238694|
-0.7743139632416617|
0.478662973800432|
-0.10224339691699093|
-0.682647270341717|
0.9985777426299283|
0.517999738426767|
0.7377134469773531|
0.22358755128229196|
0.1451486908058476|
-1.0124940244575527|
-0.3187768903818864|
-0.8876043382411388|
0.03507065761530795|
0.5730970292167922|
-0.9994829565451264|
-0.16612395883127368|
0.4017266457170678|
-0.7429389039201114|
0.8221771799676241|
-0.4119262351680199|
0.5840527661273419|
0.8446187606997061|
0.6911128223831334|
0.6782425059836336|
0.04570469930823011|
-0.7124839312522802|
-0.8853006412527434|
0.429020453446785|
-0.7077545958533821|
-0.9051158217272076|
-0.7168640122368295|
-0.2055633151495467|
-0.18964491603771214|
-0.19346092841410778|
0.132457988329588|
-0.05859226179757817|
0.2190206135870265|
-0.9441491045897913|
-0.15265754312865754|
-0.08344602383117128|
-0.4164159746380295|
-0.7607599890117301|
-0.6948582503992485|
-0.41509430274082576|
-0.68623249199399|
0.5080122227418444|
0.8198541338886998|
0.38742327202859467|
-0.7124845950636655|
0.38870388421806606|
0.3980601027370029|
0.06969294894334449|
0.23119394009057617|
0.41745044580814133|
-0.6578817579087672|
-0.7238425013490642|
-0.7603050491029765|
-0.35564240410657433|
-0.7865535456391182|
0.9786490080243899|
-0.3666201998379168|
0.4631784243260309|
0.8284662535177435|
0.6364495481242581|
-0.30631057294082836|
-0.5119376519518208|
-0.9934343020839799|
0.3778160707215271|
0.7258778066123712|
-0.5527467796482496|
-0.6817890708593303|
0.2891646780092529|
0.45658544756720326|
3.0278476293947395E-5|
-0.14037883812351518|
-0.05279866208392475|
0.2808535100271526|
0.7428922280610564|
0.7536299096160886|
0.20689816624088295|
-0.007933993322258802|
-0.6204817747006818|
-0.9934661940762395|
0.8220575243456532|
0.7802062983346134|
-0.1741392092657911|
-0.423899968118294|
0.5869549597246547|
-0.642573441560392|
0.46733968504002565|
0.6112498067057522|
-0.4680994399473238|
-0.2723115202426568|
-0.37395267280358335|
0.3678259575101102|
-0.03827076833069836|
0.4345874780916554|
-0.5983940308649689|
0.981031835988427|
0.2049499383677913|
-0.6936733300218938|
-0.565934348088898|
0.573167503950693|
0.3434434711648423|
0.9591774525725574|
-0.524440397982611|
-0.821929209419972|
0.8273721765969388|
-0.9974927088390798|
0.11250939745209589|
-0.3029655006365464|
0.9000316638488827|
0.8163660486830457|
0.5309573341566374|
-0.47357413080449917|
-0.8980536292341471|
-0.9510832776552135|
0.32147000127980513|
-0.8271342201291244|
0.9351602681313964|
-0.42278886391366516|
0.5116350736421981|
-0.8389373206843742|
0.4723255318295246|
-0.7242815328770837|
-0.524758825710764|
0.6247122980395974|
0.11696877676993939|
0.16028688874381603|
-0.39928128948040925|
-0.3350239678762268|
0.9875745140740719|
-0.5388496942559667|
-0.31321519674623166|
-0.17442295096526536|
-0.6150219693532303|
-0.6656160815854976|
0.012731655752555028|
0.697276737102088|
-0.6590567289390628|
1.0124002537924999|
0.2827021205439031|
-0.051770170931611535|
0.2890825176156433|
0.3271291535944278|
-0.07007028152783186|
0.9717818822376829|
0.17095050228129763|
0.8492660692135916|
-0.5676584089321636|
0.6370887328089252|
0.6895122541998213|
-0.13330479548787916|
0.49090874698356163|
-0.7195714320368882|
0.6701835940521181|
0.7190672429383226|
0.6014594530757595|
0.9523310573820555|
-0.699471616241381|
-0.4145932462425703|
0.7221598448804403|
-0.001012033795480086|
0.8493008570728596|
-0.23886642494286398|
-0.6203788794743189|
-0.5714169396985633|
0.9226952272280219|
-0.4908526826374777|
0.8589675788581667|
-0.4801913394111832|
0.006011097057091975|
-0.26946315989829633|
0.22483222208050635|
0.028840374481420013|
0.8050911424599705|
0.12553533684709817|
0.9348170753652828|
0.5573446014174631|
-0.9839972913672155|
-0.7514793782874181|
0.6200639582984465|
0.19863171638093452|
-0.302832533227281|
-0.3142756403583619|
-0.24596168938494695|
0.5378793472535753|
-0.9405965139039215|
-0.03731712097344582|
-0.19417383556329904|
-0.897324264479206|
0.7884919815961545|
-0.9270135324611593|
0.10425284879930476|
0.35177248709947684|
0.7868490238393193|
0.6823280910329736|
0.4576542440172127|
-0.5573008524624412|
-0.9493208030754507|
0.78197985997199|
0.40576670828575684|
-0.8024571809420343|
0.939107771727564|
-0.21075715517240107|
-0.39274894760317186|
0.6740653202079321|
-0.6935281754568148|
-0.013068762907610238|
-0.29624610389645845|
0.81939608472607|
-0.02813455961692429|
-0.008173944693944689|
-0.15147757175746815|
-0.39601241030418305|
0.23177442330644582|
-0.8069289251733895|
0.6857506728163634|
0.3214789011858965|
0.3697088268565235|
-0.5675354199161999|
-0.01167039276677674|
-0.972033261927254|
0.24323952243176505|
-0.44516271981480393|
-0.5271340269266674|
-0.003925722463268873|
0.12489757837420648|
-0.028820453625592452|
0.1108674170248713|
-0.3246811275322445|
0.8351702847784984|
0.5514992384320253|
-0.16049698547185007|
0.9515936832863926|
-0.29491213186228077|
-0.03238248259004277|
0.66775838130403|
0.9953124638353046|
0.3647808065062569|
-0.9510662154238894|
-0.05602988654765229|
0.5884758298109775|
-0.3501313699405797|
0.8541483583870085|
0.4574706376377169|
0.8385455207946098|
-0.3783597410141496|
0.8127603642688198|
0.8975948912741284|
-0.5100774872162221|
-0.2440027887056204|
-0.06363103137382926|
0.10409844104066264|
-0.8427869722048152|
0.0023740392090657557|
0.6160215681406244|
0.1006701501748776|
0.4503320274646435|
-0.24182454308078263|
0.5649338404470956|
0.1983388630551587|
0.21482568266765892|
-0.36730517579204597|
0.6337820575507335|
0.39587596349752463|
-0.849948105487125|
0.2749492207600933|
-0.3644690397596913|
0.2843650584975457|
-0.6489915954223253|
-1.0202060359653273|
0.29566816722502653|
-0.5884399740003116|
-0.9268548318300587|
0.90802507200539|
-0.21498854673414494|
0.6167874123559874|
0.6903741533112531|
-0.44717585327128584|
-0.6808094206959899|
0.6298266802850417|
0.07695476641108659|
-0.21817476504487013|
0.7990470993318385|
-0.06360297814760502|
-0.1882192704680581|
-0.743249838054003|
0.5436985966848038|
-0.792141588682892|
-0.31562550890521346|
0.4363124548503205|
0.5281395886032755|
0.7173019736483275|
0.8823059535078932|
0.7018193089775567|
-0.44887304083026414|
-0.08021805590500992|
-0.28878538687801963|
0.3136373543882547|
0.7236160324060668|
0.9359447602164844|
0.3077083188661247|
-0.8127324648183797|
0.6236204858497282|
-0.476136874729954|
-0.007881062062717437|
-0.8365105662417583|
-0.5268959461046828|
-0.8243780851221797|
0.12652453303192973|
0.48477638121932587|
0.532326543893005|
-0.4858818726155117|
-0.15417905979755403|
0.07982371401354535|
0.6162429347773217|
0.5972333901376008|
0.47995323934680345|
-0.3989967906409908|
-0.9167383307173063|
0.013035979719117054|
0.36191742669040405|
-0.2986299941278025|
0.4817849158640482|
-0.053419385865159985|
0.47005057996460026|
-0.35846603868654814|
-0.7407461928956294|
-0.2852188118780329|
0.41925996276930466|
0.7673047271454135|
-0.802259550913974|
0.10595009488333065|
0.6357391636783836|
-0.5644347121333682|
0.02698137191177884|
0.7685804110948645|
0.435122330486355|
-0.6084371443639403|
0.4804121263139025|
0.11151525208957416|
0.3400710557054884|
-0.30235067514585456|
0.5143295486890554|
-0.528046829930955|
-0.8027067660656436|
-0.9127407106162008|
0.4484600031550067|
0.44623599436857253|
-0.3653321974418256|
0.4351178097194555|
-0.9298615043858162|
-0.1209260658968348|
-0.7628318456447316|
0.42042666431676623|
0.42619273991747664|
-0.7377235443107754|
-0.8851451320871879|
0.6635029335928794|
0.7925095151556093|
-0.837901017732912|
0.5943703490800664|
0.3259962721153063|
0.08195541516225262|
-0.41182278003376777|
-0.6944740656329823|
0.4115760972896876|
-0.676135260516702|
-0.2748756268524731|
0.11026099449154426|
-0.32901402970972027|
0.9341624994379728|
-0.724632602320728|
0.9859039809010296|
0.3642733478583794|
-0.7877845310211542|
0.198629540667767|
0.6250043003216103|
0.6892238331375595|
-0.7164331624931652|
-0.9328345954597146|
-0.3959632197611858|
0.8190558540132481|
-0.4490382722471591|
0.5160564625934213|
0.5552927047548966|
0.9068571535090854|
-0.16785869815725696|
0.07619028613834018|
0.5709241162392639|
0.22366893819992262|
0.03378726937071361|
0.11672825923412532|
0.41997132623183886|
-0.1793699771271685|
-0.26096855218800497|
0.26432352971557754|
0.5926472440781302|
-0.7313177346047215|
-0.22161956457017576|
-0.6397330009101947|
-0.8289547865080915|
0.47989405558232573|
0.11909405048195339|
0.2434221645559357|
0.9458291968208943|
0.8585568114462647|
0.49046751813802586|
-0.9539956637633713|
0.5655203213750529|
-0.6928964598161605|
0.7162439237149074|
-0.1878125534801804|
-0.7140780517234417|
0.2640404213067357|
0.723513513089728|
-0.6179756083086153|
-0.07076032008025009|
0.7492360027775615|
-0.2160949517458977|
-0.2877273983053266|
-0.2461051954175594|
0.2557768749315178|
-0.012800702653444419|
0.7889505057303513|
-0.7125301283254682|
0.011235743982846769|
-0.0864696880510568|
0.7094012569503957|
0.910284608324603|
0.6556653345194722|
-0.15016393185417656|
0.41150571333918545|
0.5781532828866011|
-0.3898871155717014|
-0.22571102698201606|
-0.34843951648017807|
-0.07874474147669888|
-0.9009290785752283|
0.7835347570847239|
-0.3687434152803754|
-0.1646919208606071|
-0.7643711223884518|
-0.7269810758506714|
0.7608699043554711|
-0.47002051108642656|
-0.34138547343694753|
0.33068975811184953|
-0.743981866898119|
-0.7202479706746509|
-0.350473115291724|
0.13120362519014736|
-0.6286095971997113|
0.14815459573683598|
0.9989034693897075|
-0.059281137042358364|
0.33045253821688175|
0.09813653828189464|
0.832568403161326|
-0.7766205429463122|
0.3884065297062981|
0.6847667788577027|
-0.3201115214029678|
0.4251298512193716|
-0.30917192759038026|
0.8153882939317558|
-0.9722779107724413|
0.5714477951616099|
0.01827026193556623|
0.2044446846035054|
0.3644927500220206|
0.47654134818560007|
0.7516487066838827|
0.6648555574032856|
0.7413253821954171|
-0.21938725291489333|
0.21835016606655622|
-0.5094621586978293|
-0.9462726825373196|
0.8401577588255165|
0.29910655277069165|
-0.475635751795136|
0.531329665287197|
0.4467987785115143|
-0.9522301309817045|
-0.15759221106667787|
0.8129020519171666|
0.5774797925980136|
0.49137357841492|
-0.8722868482381051|
-0.12862987710030088|
0.1649841353083265|
-0.4131936567120348|
0.7772897361971539|
0.12401641712700107|
-0.2888436265134007|
-0.09709073816952463|
-0.7834860522455211|
-0.09674304317102488|
-0.10258222913432154|
0.3833800212609104|
0.7542762128747046|
0.8121497196934356|
-0.7476107571424405|
-0.18217419334440835|
-0.14866275914986737|
0.4150834325052836|
-0.964450211604695|
0.9575875619928442|
0.8201727566210321|
-0.6090467903898844|
-0.48970744113709586|
0.5469228760037054|
0.2492288618398617|
0.8304722536657145|
0.10021957650827774|
0.3841198510455495|
0.12427445370255047|
0.30562667078975814|
0.1261062128505102|
0.8310361238473942|
-0.9423207636696208|
-0.8076566744488226|
-0.6728200623003665|
-0.45207670598886673|
1.0192885679035137|
0.5305968548964249|
-0.08573672304202666|
0.696500818854464|
-0.2957591072725094|
0.7007378349359189|
0.1675156869882784|
-0.021628332677595098|
0.6128315609579595|
0.5704148390868162|
0.2245470127517431|
0.8054856277131405|
-0.8375626643580522|
0.5617164287491371|
-0.0012316075178255956|
0.5090511644808762|
0.7761265459588979|
-0.5308356490021565|
0.4941520556527366|
-0.7980736013338118|
-0.10824731556921155|
-0.9018783996393259|
0.4497205686957687|
0.5257194875018351|
0.8785300085082588|
-0.8204971503601574|
0.5057594421692|
-0.5422052666820791|
-0.5500949723322867|
0.3756937731614699|
-0.2733474413764509|
-0.6013151809226592|
-0.7035043298720529|
0.9115979522689505|
-0.577405360322658|
0.04391713677478813|
-0.8327482893829731|
-0.44995818191808284|
-0.9249495501231962|
-0.07741253130194581|
-0.18111305171124834|
-0.22104493961907368|
-0.9487073655408228|
0.9512986498570178|
-0.8084435337714153|
0.039448027126716655|
0.40755899937452444|
0.313148014965136|
-0.353474481387606|
0.49486221320859547|
-0.2187932060650641|
-0.03129416021334026|
0.10423143960607746|
-0.6212172580029318|
-0.2877696206766462|
0.20248132290464413|
-0.1707271792871751|
-0.8676366596459886|
0.5128024955976456|
-0.7006568971781214|
-0.7307949812326575|
0.5412956777409943|
-0.20488016396438696|
-0.6315423530613072|
-0.125924272612034|
0.33222523479081106|
-0.12522994626027806|
0.10663997905233145|
0.37744455558582285|
-0.8492159574607598|
0.7178956389917638|
-0.3058766942268789|
-0.5554699557557466|
-0.9104473659150566|
0.3270814926259915|
-0.7782744981386887|
0.6161171600869877|
-0.9404293404568449|
0.18530714816112262|
-0.702818167458686|
0.771233055250838|
0.20634244093271642|
-0.09894617970405693|
-0.5984284099990276|
0.9207682213666882|
0.2738264512844928|
0.4925585807995965|
0.44562098586764304|
0.8903636565251126|
-0.032625857423301964|
0.7688863981306872|
-0.4031383888125764|
0.35722470283266045|
0.1875496737912834|
0.8075768914717346|
0.4612733322673978|
0.816358478718207|
0.5953117529273779|
-0.37636454403901975|
-0.5097094275622949|
0.9016372997971916|
0.11251206897775694|
-0.6321035808297134|
0.18383112447925518|
-0.1257531067328216|
0.554278458312633|
-0.12490181169551653|
0.44037638315792343|
-0.3397814079547723|
-1.0112045483568377|
-0.9108966654209218|
-0.1882210887587481|
-0.9324576226403769|
0.6022038925176316|
0.5544460980541291|
-0.58307043935662|
0.12040540904612852|
0.8779265569341753|
-0.7648262059388944|
-0.28363177420574|
0.8214703759446472|
-0.7674127527719964|
0.1744703927617919|
-0.5754799864515644|
0.8036111615349614|
0.5768362999620301|
0.878005296181593|
0.9558405987911868|
-0.5279470378923328|
0.4530291902778381|
-0.07881610236869263|
0.08007731347671146|
-0.603802317651663|
0.6957071988184584|
-0.5167027689675664|
0.7948238947189896|
-0.21382796000348614|
0.9125122110801366|
0.5918713129665977|
0.7391801715450569|
-0.1422488115498207|
-0.10212942061438388|
0.7325475670429731|
0.11773984369009975|
-0.06754185387159888|
0.5153950231341602|
0.20307380263466543|
0.29370163920178766|
-0.5244372669515948|
0.37969316566358835|
0.8627949027858387|
-0.5784822341176644|
0.046834057646675156|
-0.41520356675072323|
-0.149682842957007|
0.16783864138974025|
-0.898675901742772|
0.22277708369558338|
-0.5983979891745865|
-0.980504912693406|
-0.6475351059128074|
0.5921660635818877|
-0.8179083671088055|
0.5648625532407636|
-0.5638162216538194|
-0.3885110270739271|
0.021645302141981914|
-0.3555860557927611|
-0.664911166356645|
-0.1771923617103356|
-0.7891160226821925|
0.31255938096164754|
0.43632425747935555|
-0.45959297774714175|
-0.4438081811599042|
-0.3377168563149873|
0.6684990962843217|
0.6706373306685449|
-0.923710851152701|
0.4781797029160236|
-0.7243336271602419|
-0.6272219573233516|
-0.5795912314238154|
0.39706880899684077|
0.46289411819100446|
-0.7872945783805693|
0.2923441304892923|
-0.027743340325889595|
-0.986374043260284|
-0.625156434158594|
0.13376983275328416|
0.17351108087829487|
-0.31465274566267504|
0.9523371945963757|
0.26603625845219553|
0.06850088848727598|
0.691622214707261|
0.2417722284793931|
0.057407972874686256|
-0.24528025409844387|
0.32456521662287213|
0.12005902194081082|
-0.8821848396376378|
0.13575704637491684|
-0.45460572986075265|
-0.09502107947858478|
-0.2764496859418556|
0.4178817942413622|
0.810509356572858|
-0.38606827135564475|
0.4043691141918658|
0.4458556477005336|
-0.5736482943593936|
0.2499365728715844|
-0.35640281797478374|
-0.6834954770913562|
-0.3270912381199291|
0.39568484043359115|
0.5586757337915005|
-0.7462156420550943|
0.7918610911627805|
-0.2964475193683736|
0.2960842799032395|
0.7164033192827124|
0.05949527508552413|
0.2601719196599635|
-0.17812059514121562|
0.5021835487893268|
0.08015988249708073|
0.5863156272389104|
-0.2576786395905245|
0.21360788837829162|
0.2705774248765286|
0.7792718270631488|
0.5656012864582843|
-0.22488648219902563|
-0.6948929066989555|
-0.7423817104396471|
-0.7508931263308889|
0.7778436981132657|
0.1631681488824485|
-0.897107094022537|
0.4116164933887038|
-0.6584773614112143|
0.6258660362151969|
-0.5358156726176679|
0.3348644196215651|
-0.12462948153955898|
-0.736740798055765|
0.5423048728451036|
0.27647302663280415|
0.10953773446394352|
0.6022569057705596|
-0.6089810882430003|
0.8364034062117951|
0.5555427747464857|
0.9646168809912902|
0.8783816096658263|
0.5183773387949324|
-0.24667401427238708|
-0.6937926135941175|
-0.9734753298276538|
0.8797147567242204|
-0.6373032750983105|
-0.7211430068537076|
0.4186016530256058|
0.3259111484195028|
-0.865098151055362|
-0.006097040013604512|
-0.6101830397690887|
-0.3421895382877069|
0.4550152897142618|
0.15766446404543455|
-0.5873860743665161|
0.0681677401199216|
0.2623369356749072|
1.0001791733045422|
-0.7162774499392356|
-0.6947484979553659|
0.4184671688909328|
0.40733409055591213|
0.43129242630726783|
0.09329905353310364|
0.7110580627809455|
0.8222020839504166|
0.14258646870000982|
0.9029991604448312|
-0.5887219346183956|
0.9666592984081027|
0.9790893556268552|
-0.9158913173691285|
0.39087241127184|
-0.18419882512972605|
0.40556236977627563|
-0.6792213679407649|
0.6407792830851184|
-0.4961011651996797|
-0.8785492684400523|
0.580328005018182|
0.7785698462370384|
0.29045661091780767|
-0.9643501775785981|
-0.6951287848453751|
-0.665619746055391|
0.9604018235934512|
-0.2759716159623375|
0.36083961390169794|
-0.37701388320928686|
0.12840663962885943|
0.4070983886043565|
-0.32057938747442544|
0.31913876947788383|
0.7604945723479276|
-0.38036750179009143|
0.47080710916103036|
0.0822139353207903|
0.7211359690079174|
-0.7101813539210553|
0.6670149335943054|
0.4454590149914188|
0.620225887917166|
0.2310667739826953|
-0.039975482595764354|
0.22051951385603427|
0.8666923008630393|
-0.8129494425177629|
-0.1268232674522714|
-0.6256386912599731|
-0.8926324353852255|
0.8765145603380786|
-0.07067303499114938|
-0.544137014211323|
0.34391154131489127|
-0.12683457907106213|
0.06004425711204544|
0.8005257131228413|
-0.15169225281655274|
0.16967224826763228|
-0.5422829615009849|
-0.4952306983616191|
0.39885881421560354|
-0.5725870638481485|
-0.4921774416829293|
0.3153002683638226|
-0.596742716289123|
-0.18460936508863976|
-0.8826650855742827|
-0.8741533794512818|
-0.36650442043563364|
-0.4309632784206226|
0.6788976426790547|
0.08787864757678714|
0.47563885665352224|
-0.19165094461893661|
0.35107987964441717|
0.14632179024142625|
-0.7632314305006689|
0.8103061260284613|
0.2708265276170725|
-0.7858463579071809|
0.42576939085295057|
0.824014181126377|
-0.8531599103023024|
0.7941507998154521|
-0.849740269583252|
-0.8642138895682244|
-0.7998481335671334|
0.16802220583886512|
-0.4205823716293263|
-0.2201491535142452|
0.171677625600642|
-0.12776578054212087|
0.5648955843293539|
0.11849734325331263|
-0.46864818568435845|
0.024169741711095996|
0.748346985729248|
-0.1880114837010294|
0.9406588522576184|
0.5617016424921429|
0.7013778410103855|
0.3292752151559461|
0.0331917596167462|
0.0584019365838296|
-0.05956338225809473|
0.0460054427079516|
0.4271219960181578|
-0.832274301346755|
-1.0099836568789435|
-0.6077572226921615|
0.8159579685849088|
-0.07000162098977243|
0.9793920329991651|
0.17785517683325258|
-0.8154406028144904|
-0.04345875759425893|
0.4036962456869046|
0.4767465196962086|
-0.1448405570923997|
0.976521244182376|
-0.952017229838707|
0.7637877152693655|
0.552350534539531|
0.13210296978810862|
-0.5355382421659751|
-0.38115807340664626|
-0.5677936476281987|
-0.697078153803769|
0.1550872142995788|
0.9408915629490612|
0.19871512527004534|
-0.9845521527993067|
0.9426423876083704|
0.33874368995773785|
0.8608723683250905|
0.2953665616270877|
0.6594702286987435|
0.008507675810450997|
-0.1851788430197199|
-0.1921195958795838|
-0.2927317119565232|
0.351451757361005|
-0.6660125983038757|
0.9701024719692591|
0.6507695344836898|
0.5964335094465592|
0.050665018946648654|
-0.2941640102008223|
-0.8538158392715804|
-0.5254343415047821|
-0.7880659325282328|
-0.09651138923453319|
-0.6015550423323747|
0.051634072803712266|
0.534928411558353|
0.3437349395413646|
-0.9834655714671513|
-0.6908542934799269|
0.8664167943654391|
0.4216074484669167|
-0.8829830983633269|
-0.39540557538239485|
-0.2838958782134339|
-0.33198172080706484|
-0.12966757749167135|
0.135103546987917|
-0.9479202114429498|
0.36241422979835064|
-0.07320586128185408|
0.35850212575426643|
0.42847040026640526|
-0.20716053970061551|
-0.7744176526625418|
-0.8186105291021587|
-0.02707570630237229|
0.30651130163624934|
-0.20538724920747276|
0.39525367288968716|
-0.29278570599910714|
-0.39262424069826923|
0.2831350491567353|
-0.26788956359269794|
0.2378403498434643|
0.6386723475205445|
-0.684482258484418|
0.5422801469964739|
-0.7260374652691705|
-0.5068146238285242|
1.0039178454449396|
-0.519858286554884|
0.4660634086383544|
1.0043929727460512|
-0.24962242529064407|
-0.07886947808301688|
0.11303634211263398|
-0.2162457907905891|
0.803855920298125|
-0.4755174900488985|
-0.20962176872682345|
0.9995357142454818|
-0.7397798696251175|
-0.8851851851838737|
0.6034431907529754|
0.41878459771954063|
-0.9629849078874592|
0.6369915932764467|
-0.9442334365345325|
0.8876384813092886|
-0.7051076028895188|
-0.3024928273572281|
-0.1133021422232494|
-0.575491748883105|
0.4234167954351836|
-0.6342546111726312|
0.9366625016242204|
-0.3789325186388649|
0.09584371570890515|
-0.8111295195629253|
0.7462485077821476|
0.06345380009216718|
0.608023055004235|
-0.6151882340906631|
0.0340160988372439|
0.7831410012330725|
-0.837307572840782|
0.6647548817095039|
-0.4338425643178393|
-0.01640103016151019|
0.5454995429858491|
-0.9258108357730893|
-0.3603699545947488|
0.49671207256674527|
0.791736436620511|
0.3530658363118245|
0.1952758380228389|
-0.28042851955098475|
0.16256157326094905|
0.824519737704686|
0.8525878568106932|
0.29111814140423575|
-0.25397737973493867|
-0.4975913112243379|
-0.05621330884880413|
0.811987630198131|
-0.4102117812894297|
-0.10683406085587421|
0.8893332100066995|
0.7246375004482792|
0.30459610302447765|
-0.2967058121384277|
0.185198333561437|
-0.8963738388567032|
0.5034335788938211|
-0.7555978459156525|
0.6791321069944679|
-0.28168714073035034|
0.7635942269384415|
-0.7342071220654188|
0.6156732297737755|
0.8216341948875967|
-0.48359371467978335|
0.7249329593114493|
0.7783540596136103|
-0.39705483013906423|
0.9405581452370773|
0.6146114040692476|
-0.07620956789488309|
-0.7949385182114926|
-0.7454567877588651|
-0.3046020118338472|
0.3835116421393257|
0.6189960228059311|
0.6917667651876653|
0.04205190208998431|
-0.022258822885749794|
0.3792272553952862|
-0.3766085900853682|
-0.14275240501554726|
-0.11541319206262414|
0.31005838351295256|
-0.6701452414920142|
-0.6626835681553721|
0.8397832360802259|
-0.06954174561673739|
-0.36837430760513273|
0.7443365573210701|
-0.40729394232662464|
-0.2802015107717132|
-0.5428544131933668|
-0.19982620350925087|
0.4784395795348564|
-0.595008083908833|
0.28282713625985617|
0.07477591113486493|
0.2911195288663282|
0.46902479856665213|
-0.3776754755858966|
0.48963497877280315|
-0.1342528011470096|
0.36156837751632354|
-0.5109926645557104|
-0.35715245855314265|
0.45808835193388525|
0.9429719613579272|
0.2651651040068344|
0.9636222737575374|
-0.4774959422171403|
0.03763668801085108|
-0.6718095965011739|
0.8243441156523708|
0.9011354645790667|
0.5853596711348656|
-0.5391066297110706|
0.8369576963694396|
-0.8931080271048485|
0.06553959805522974|
-0.22173519717694293|
0.3620031785767029|
-0.5714094005830307|
-0.4177493515611255|
0.46872798659736364|
-0.3664046777411728|
-0.9214783957199703|
0.5649703325385093|
0.9901485353136635|
0.12697431382564323|
-0.7658943344306256|
-0.9550669781474885|
0.9485895298014022|
0.2114885020697973|
-0.8413744375732737|
0.5180180032742754|
-0.19787891055802348|
0.9232387889703476|
-0.7882611319546394|
0.007442510793874208|
0.003969276470942557|
0.34753200567851794|
-0.5344981738049134|
0.8593871926192994|
-0.4761485323888549|
-0.3466387190962723|
0.092146153963498|
-0.21973745053742788|
0.21725159073073164|
0.30068699576563207|
0.4779307636181457|
-0.09635529608893367|
-0.4071658740556066|
0.7479080638863566|
0.3886453702371324|
-0.031702049097205115|
-0.8910338211048152|
0.9786256515119564|
0.30481702094839835|
0.669351864145741|
0.8424483186659317|
0.682574739757415|
0.8438283203982557|
0.48265027429793195|
-0.28219558296935754|
0.3528951530319085|
0.1250425018589837|
-0.1076378612265044|
-0.9814141133804706|
-0.24982287275741255|
0.11453354648802228|
-0.07441293356608582|
-0.844436115600656|
0.1348752503844508|
0.18741874840524828|
-0.9273851837350527|
-0.6897217940530446|
-0.0026170426014866122|
0.9735096556826817|
0.7608804084803621|
-0.5419656448551856|
-0.39476728923323395|
-0.42376482898320766|
-0.1531747211451288|
0.34319811331691774|
-0.8084309460783848|
-0.01178318873010882|
-0.7846559963514568|
0.6890874321803937|
0.05735057615851592|
0.8643320188916583|
-0.2800243929543929|
0.34464202000202665|
0.8225187773066711|
0.8997145413577544|
0.9150525565242353|
0.683527201668268|
0.16442363293884135|
0.5986146845705664|
0.9200662813332897|
-0.49456036977773354|
0.40772182768555854|
0.7735728077168892|
-0.24630172942664963|
0.6811678727553564|
0.036669243448199065|
-0.13523843683017797|
0.22582213924915015|
0.3203237527634854|
-0.7669016475529481|
0.7473350886334261|
-0.21694237685598858|
0.8168420092312435|
-0.09718173367484947|
-0.8599309798976468|
-0.1463908723413819|
0.529731590376332|
-0.27746782340467313|
0.5793718718271927|
-0.519459268604365|
-0.47655672056441895|
-0.3243039540562755|
-0.995503140188873|
0.02527742397480711|
0.022871725302748152|
-0.6242940886619083|
0.6240958454594698|
-0.09657330168761004|
0.48795403498368484|
-0.93156421420222|
-0.9260734101547067|
0.17258357815608322|
0.6585897831438945|
0.3573588346610646|
-0.1199063751214748|
0.235593037218137|
0.45435728755492916|
0.11425324268874208|
0.06516081016686615|
0.34917858808488483|
-0.32243643159585017|
0.8387359763353234|
0.18224967987981952|
0.2256483555392837|
-0.21750336914552412|
0.5034623292122239|
-0.686521635161006|
-0.4626540046335922|
-0.9517234113356742|
0.909661896209509|
0.002269179955848599|
-0.7838173644824943|
-0.6724400026305779|
-0.24778090801641225|
0.009777168052734595|
-0.13721059369913166|
-0.4793921125330556|
0.5835641095400296|
0.4401712200321978|
0.5957957643488111|
-0.6191999587461895|
0.7344505344490672|
0.032313192284503016|
0.46891800157760205|
-0.21758621092895317|
-0.6019024962230891|
0.6183522844747859|
0.6019347446879769|
0.23879653954915495|
-0.4728639196395329|
-0.8248744807436283|
-0.4670734003661792|
-0.4335280995194516|
0.6841370913577475|
0.5952610003093884|
0.7773040105316757|
-0.06496278157788915|
-0.33762128576708655|
-0.7715341614212037|
0.7577786893049167|
0.6289680758923115|
1.00271949435007|
-0.005705084355149182|
0.6111202404867825|
-0.1840001341371463|
0.6181099005494197|
-0.20697800928862095|
0.592393104505692|
-0.658478471791318|
-0.7265081497229021|
-0.6146986997405148|
0.1016889286024674|
0.6298984498899616|
0.993452071081393|
0.34710638178711634|
-0.06243538795039332|
-0.029104594617463612|
-0.27694968876377546|
-0.9423454644882104|
-0.32370774428552596|
-0.15250081149002925|
0.012005518854270224|
0.462000165117928|
-0.3992965208616841|
0.7597927363768056|
0.35505099227188597|
0.592969282052417|
-0.4217074845484938|
0.2213614377414299|
0.7273164898959108|
-0.758837539115639|
0.8134477131409829|
-0.27401023636261057|
0.06299120670950356|
0.11046166022942952|
-0.940419829927962|
-0.28909327162110215|
0.5021871213452115|
-0.37949520308911494|
-0.8028602734678671|
0.8897488524885369|
-0.08805672842572419|
0.05683505470329451|
0.0083402053908464|
-0.7252965491540518|
0.8795880521612468|
-0.759579040924877|
-0.6015838529771143|
0.4040190384749064|
0.20416340533013674|
0.5987875753326598|
0.4593939108975576|
-0.5865329211240972|
0.06885355339065351|
0.9341247836964836|
0.9654068376185839|
-0.5062120860555341|
0.3328192494190972|
0.5112227551101158|
-0.48329114489303404|
0.3987960484669618|
-0.7449605409384757|
-0.08145160355996367|
-0.13970760680333683|
-0.39104004529311953|
-0.9691121527391307|
0.696044777060096|
-0.7872766864687568|
0.5329729800909896|
0.021199625139528087|
-0.929502409348125|
0.974540367991033|
-0.7076393300086152|
0.4731220535925269|
-0.5259841577206901|
-0.04893307693618804|
0.058606885389508936|
-0.04983590471979407|
-0.08972736045718693|
-0.10559347037869848|
-0.707895928277929|
-0.6656911943265775|
-0.9994368487988959|
-0.27426202417728773|
0.2400732965383768|
0.9083941388625378|
0.2235736279072245|
-0.8217696197744323|
0.220547433144275|
-0.12216187380041381|
-0.3110538555724332|
-0.25820710663601526|
0.698661119789523|
0.5949095375925276|
-0.6329875898572663|
-0.9283103724443246|
0.6585786695927004|
0.31267140344053446|
0.4001625075643385|
-0.04804052839334084|
0.47617395378564165|
0.5546477511881772|
0.8849981762958529|
0.8865902836959672|
0.556598135245788|
0.5207043044677655|
0.24991192951010918|
-0.8400412400727495|
-0.420220365226169|
-0.09078630079953749|
0.5928660939683469|
-0.5457058598977353|
0.9736974924846844|
0.4075802650595137|
0.027039605227846392|
-0.5588608069169702|
0.08086282197429219|
-0.05572143652480819|
0.5619726656127909|
0.7927053594340455|
0.7634740127711812|
-0.03206867784356264|
0.25394238396949714|
-0.3255174175346108|
0.7244827428886754|
0.07078158987211394|
0.4576594829382818|
-0.6135864849608946|
0.5952994007330875|
-0.3742540806865124|
-0.42463803350256324|
-0.5785873091698177|
-0.900886074581144|
-0.37347135994777697|
-0.5251211628744451|
0.9160408673919241|
-0.8158298862275111|
0.09071751476243585|
0.9650445946904248|
0.6985626922482583|
-0.8150419403987789|
-0.6864971432866428|
0.7483571171014377|
-0.41933024274726716|
-0.13736559319135191|
-0.22535318014836606|
-0.5276202252021674|
0.3140626022148697|
-0.6853722124069079|
-0.24433469389101184|
0.4648564760897225|
-0.9701578625031781|
0.7722673421569254|
0.16598333280613228|
-0.98883912648458|
-0.5399740753815518|
0.36157389552537567|
-0.5958437330067122|
-0.07245129295546132|
0.41001660378238763|
0.11913914639365268|
0.38549436468944914|
-0.8718936689577043|
0.4239898318015988|
0.6866877312720551|
0.534685691096669|
0.9270097389484088|
0.7112922560419582|
0.30818000537542883|
0.9276358766292017|
0.10737127204742486|
0.5581823877345711|
-0.010669154297786695|
-0.20940023215292788|
-0.4173567519039178|
0.9438683714272692|
0.5648172268694198|
0.7742812901987454|
-0.1963049782783128|
-0.9987941519480041|
0.7403346395711448|
0.386184665544725|
-0.20897627248998243|
0.39817488959976327|
-0.2195776111760391|
-0.09132646850571327|
0.705807570001327|
-0.9223718347698903|
0.9667310143873055|
-0.21536481093622106|
0.2345947636347494|
0.037372331280868525|
-0.458580381857717|
-0.291199951931949|
0.9291404236672042|
0.9190762025860377|
-0.47768126662213733|
0.6932835454575065|
0.1591685018369404|
-0.08541863184990194|
0.5158237597520503|
0.1582044927359435|
-0.4891331220114235|
0.7411121650277279|
0.7179218015141606|
0.04659801376744314|
-0.9835441102391598|
0.7848251676663514|
-0.9907835561479346|
0.8936556399921852|
-0.7917995003442334|
-0.5903217522020192|
-0.7686918596760838|
-0.3279555259785614|
0.8253647922598982|
-0.3314581773794807|
0.07802039430660972|
0.5265039967938315|
0.6763644745325558|
-0.07150705293453759|
