0.3047321680642952|
0.10582038334181222|
0.6607468667916071|
-0.7070217949368264|
-0.0284833447257943|
-0.09961635405242109|
0.13992567796958014|
0.060782734005287074|
0.22604925151341562|
0.7064219245829857|
0.18580395004121164|
0.5190910373931215|
-0.2322035345138153|
-0.5612371163694106|
0.15309285920939095|
0.6953102673410839|
0.6853153610635713|
0.6734290497190776|
0.5197514826661163|
-0.6237159082858547|
-0.20876327331825317|
-0.3723973828761638|
0.41553982958936686|
-0.7557487890620991|
0.4569710917594312|
-0.5201347242990723|
-0.6309794800197888|
0.12396870973727195|
0.6599673306734793|
-0.23891504941597738|
0.09827096527828105|
0.7221217061336282|
-0.30851417703185197|
-0.35067681197254996|
-0.21841368629046704|
-0.2588599965075804|
-0.14367380931691237|
-0.08031153350961634|
-0.3495938825059181|
0.6973036473000935|
0.43704167399061766|
-0.6127915814366288|
0.6722546191134222|
0.05535743292622442|
-0.5103807454060422|
0.16509838262532908|
0.08733882647370136|
-0.0782686734227746|
-0.4904241242374372|
-0.274912215674751|
-0.5882350505583374|
0.14682125266498344|
-0.7309488491708774|
0.04627724284244133|
0.5864565169666478|
0.046227541328021635|
0.26270502937040807|
0.03657054414472086|
0.4115009133123625|
0.26618358016221705|
-0.40147874083907487|
-0.515589303844493|
0.6697719047531597|
-0.06738705389800224|
0.19117591723126778|
-0.2982133224139821|
-0.22901297195512815|
0.6608764537621625|
-0.4136867651631805|
-0.4892842930083445|
0.14414552553265247|
0.0715453459665089|
0.13528141368475652|
0.3697961092753717|
-0.04934437056326809|
0.08317762655284311|
0.6726533316255843|
0.3622215680041215|
-0.7437403718135862|
0.5473435986673986|
0.167721471027372|
-0.03748646110508241|
-0.4384360425953096|
0.5812463658048167|
-0.32064819847273407|
0.4241627658623192|
0.41570576460397174|
-0.5331234293554767|
-0.1161280640803701|
-0.6979102540639647|
0.6262219323749584|
0.22766032469504127|
-0.5006954198409699|
0.6061871190619551|
-0.39702414938129316|
0.5891758509684623|
-0.5772742165025557|
-0.0875421728162605|
0.5814672980003399|
0.5939805947104035|
-0.5921857518130043|
0.17688060548869453|
4.641654834705281E-5|
0.06920208045410386|
-0.17319057002326535|
0.6579590066774089|
0.12564380843142553|
-0.6986729527222353|
-0.22453889905234062|
-0.28402222575979963|
0.1934233139213096|
-0.36057475721278487|
-0.1428908015508603|
0.030385421281006235|
0.5933371941444394|
-0.09315992833440143|
-0.752361857965075|
-0.13077397284427644|
-0.5700973290940156|
0.21043085124658234|
-0.6978495099754479|
0.40926655669336126|
0.3603277537828927|
-0.6879161339531663|
0.17623158507096212|
0.019337330793405667|
0.28738118665878626|
-0.16187356953878634|
0.5977788176288462|
0.3152945097129724|
-0.48183953250680656|
-0.3031125005253195|
-0.37888549236554053|
-0.04658569494554657|
0.40461084153905313|
0.5967762370595537|
-0.34609026871802695|
-0.49465005445761706|
0.09016000537641596|
-0.40531617357898725|
0.6340956460220388|
0.2688131292588649|
0.03440920407931065|
-0.6665421810528412|
-0.2746870487123252|
0.31416585628912774|
-0.01622267030446194|
-0.08327107907514812|
0.709111122675487|
-0.5997293375274355|
-0.5407660649107753|
0.727627863099221|
0.28475128524508986|
0.5610876082759437|
0.4238543202563579|
-0.18980689454429028|
0.40801411105269775|
0.43652644707836635|
0.1449253699566131|
-0.44458756336226635|
0.10061693416325077|
0.22190247067912203|
-0.10997025907385329|
-0.5450707995596822|
0.4586955302490092|
0.4364588981238052|
-0.22560298862357175|
0.4097541220004667|
-0.7649485688904569|
-0.30459218275791244|
-0.15942813053310045|
0.43228450069975455|
-0.7256952572314556|
0.5724770979229106|
0.12070264778260535|
-0.491093543508935|
0.24452212562442688|
0.4456117222185769|
0.4855990983226228|
0.29650385862214423|
0.7121479931385323|
-0.01736721563437127|
0.6563430648199251|
-0.7096535584831574|
0.3932879072149264|
0.2106044667871853|
0.4317473614950366|
0.15343455738185707|
-0.41001980954717265|
0.20053264938154786|
0.5292794930463816|
-0.68905718360297|
-0.04402025354510517|
0.6298926926332705|
0.5034082562204619|
-0.2304958001505392|
-0.7131984629889752|
0.42558547758771315|
0.6578603369815977|
-0.020536396309039164|
-0.4922863485965058|
0.17650711534368713|
0.6141253951370562|
-0.10913344706249407|
-0.6253623183913525|
-0.672312949447666|
-0.6081875298914604|
-0.04396921741463391|
0.13936881261868408|
0.379830279684392|
-0.2686130210895655|
0.5154577825566017|
-0.6199073333945052|
-0.588732164220485|
-0.434266228478236|
0.09808724435671934|
-0.42778045235408785|
0.3462375722019564|
0.6970213753800991|
0.6486885892833963|
-0.16276838648207118|
0.10130105494288652|
0.1654036227572396|
0.11771454611517264|
0.6904023480740628|
-0.7020658389649302|
0.6397527574813554|
-0.5867791219587621|
0.3428826879667069|
0.5852391287965846|
0.3562246133120662|
0.09158894903496831|
0.4076493528138703|
-0.4039354351899699|
-0.6569439955383147|
0.4717138681620428|
-0.577072253697896|
-0.6413033843322773|
0.1990267995801816|
-0.180030726225353|
0.14788075514356225|
0.25537489528187785|
-0.07126919320147981|
0.39080673298128543|
-0.35281809061241964|
0.22590131690387535|
-0.45151080106607633|
-0.09856147169777965|
-0.5181710927171651|
0.1421080734331237|
-0.08949171419924548|
0.3832463606147319|
-0.7168195270455245|
0.04858971183122304|
-0.19999438931317778|
-0.4018786401420317|
-0.6009333142020128|
-0.05432742384823594|
-0.744794921654412|
-0.049563868614849474|
0.5773021373930673|
-0.587208426211942|
0.08063013642421034|
-0.6767104932059345|
0.33397265993453157|
0.2584588391649274|
0.12877744732156965|
0.2689667391217084|
-0.19009616416964276|
-0.08188488139790795|
-0.5335997964653473|
0.5059087848040452|
-0.31832784792497787|
0.7017146053927028|
-0.2219410815739947|
-0.2980672287780999|
-0.7352327488783221|
-0.26285765592717636|
0.5499760688555122|
-0.6605975203235437|
0.2195499095035491|
-0.3003130747958783|
0.7011631075423151|
0.7242223983904029|
-0.5434098464335306|
0.5660593349135238|
-0.5282484684609549|
-0.40141146617837653|
0.06964634402709685|
0.6155902213569051|
-0.7389162109000561|
-0.6930750926442885|
0.13953214066331832|
0.16988876586591095|
-0.6227374596779878|
-0.4939910824648704|
0.6823338356327789|
0.37468225682266126|
0.3410488044382194|
-0.4718520041249169|
-0.1951132933487749|
-0.13140083738083447|
-0.20786554427299875|
-0.13929296093554264|
-0.2029340570888189|
0.385677773516201|
0.3375323482704413|
-0.4526245689824162|
0.07958159322891165|
0.2801998485613422|
-0.3499215645480589|
-0.5134328911156286|
0.37737650430875835|
-0.07734837482647187|
0.5421740121679764|
-0.045319034721422895|
-0.6591086345260235|
0.17839251880060347|
-0.7244281210608822|
0.5462875707178158|
0.17686536468482805|
0.4942347694244661|
-0.03948473876047579|
-0.4500150216995851|
-0.40943796681916966|
0.04244848234275963|
-0.009156065547899554|
-0.5410192048764879|
0.0506087492880189|
0.24781242042273202|
-0.10112718076183601|
0.14226765043991907|
-0.5853726920836261|
-0.12585246696049118|
-0.20730283119394075|
0.3484932721739454|
0.634352005489053|
0.08355316781905425|
0.7458936210110664|
-0.36706524756667824|
-0.7218662893385405|
-0.04654467291748141|
-0.23908732569242|
0.29528631915676606|
0.5904356046580542|
-0.10831883571266183|
-0.35626529570957216|
0.45646788186957826|
0.49862323314005225|
-0.7574503970907512|
0.48312136676681433|
0.7413350195346645|
0.40923723125563133|
-0.3370902511500843|
0.4788862745144004|
-0.28099426667478594|
0.5511799663805336|
-0.7220346355000629|
-0.4998516531115719|
-0.41364308151111245|
-0.5362521235072732|
-0.19115878691836397|
0.23575725358226676|
-0.653507340142958|
0.06991960656922411|
0.2569193257613532|
-0.00714456350481612|
-0.5657760471296153|
0.5897135845179823|
-0.4364536494885253|
0.3298177123982575|
0.43822522772463685|
-0.669261447256475|
0.5717657919154695|
0.3660267982288344|
-0.5872656385633058|
-0.09996381520333526|
0.613754099370103|
0.1153454971452425|
-0.31419521194482036|
0.3707168304477894|
-0.46198826381207003|
-0.5045523362696245|
0.6096480998587686|
-0.5126499051630226|
0.6604953407480398|
0.5594155856738111|
-0.2690417150779292|
0.6125507169639189|
0.2586143915764012|
0.48656742688920085|
-0.5152171640669668|
0.4097283130201367|
-0.4470275433640472|
0.6211197475886131|
0.5612042383613979|
-0.2927363915948468|
-0.6306187696640165|
-0.05151620818084288|
0.11331231430147023|
0.5820870937782873|
-0.6808869456379247|
-0.42435236755296707|
-0.27825509138535914|
0.14535612059200434|
0.736836810626503|
-0.6871970148693228|
0.47560251777872453|
-0.05276367689044653|
0.12644900745135187|
-0.5331223985021685|
-0.42150508827349314|
-0.34624932713721984|
-0.18338098495427818|
0.28758220747090196|
-0.33536897571021884|
0.12374303204979742|
-0.17650257676347286|
0.2730208990460853|
0.08129120244292465|
-0.7015529547746936|
-0.7638243567905462|
0.43128839016454396|
0.2728258676901367|
0.1811665944907973|
0.3010715685078408|
-0.5459480553853359|
0.29347088151178624|
0.31933821874816726|
-0.14479534247353568|
0.3182965775937248|
0.45541407221589264|
-0.5480013302331956|
-0.2694666944523163|
-0.00410897488134898|
0.013645660851121844|
0.571430671636961|
-0.051294781591305634|
-0.4089431795149866|
0.5310630774425719|
0.589412212294302|
-0.5794526412073836|
-0.31831843071756183|
-0.20382182264701812|
-0.5920058381416817|
0.7183042456786219|
0.053949905549955345|
0.005757801483714859|
0.04908951039200018|
0.31430314915447344|
-0.03217295531026366|
0.4679082496405867|
-0.1650684269556827|
-0.2773254016537377|
0.0875664938386983|
-0.12748590819111286|
-0.21960522844737404|
0.3330463409122382|
0.46261431087995|
-0.29586956755992644|
0.6524275119963251|
0.1514328000140964|
-0.742144369358261|
0.33216326428251186|
0.4687818390574061|
0.5576369219218588|
-0.21531236695364364|
-0.2186238372975996|
0.3628262757097426|
0.07880020133626416|
-0.3345543166465251|
0.6403592424589377|
0.336336349084826|
-0.09533024586933866|
-0.08935832530417569|
0.31109555544174067|
0.09835106087903711|
-0.5241597751449357|
-0.5944547816177977|
-0.4638400259561229|
0.2761389461537082|
-0.4281104252550701|
-0.7476295209614332|
0.1949412736689358|
0.6620673666559173|
0.47732579333082126|
0.18616488645509147|
0.672284725690538|
0.053701619243568456|
0.5332396586897491|
-0.44156259285553273|
-0.10471349323633809|
0.05956972727085906|
0.013305101454562422|
-0.1960374908480199|
-0.6295974023591897|
-0.09241399659340488|
-0.7329873710713519|
0.5164787338129945|
0.17692011353805062|
