0.3047321680642952|0.1850799700478403|0.9032616273153702|-0.9467777819716107|-0.04597289653291915|-0.1280365930322372|0.18001514861970344|0.0688719681978761|0.3094321222699808|0.9426724748651141|0.2290796064492831|0.6978873003833059|-0.2874994065396639|-0.7276149322065253|0.21496286920606544|0.9357227175449083|0.9155202030305005|0.9129309852279106|0.6978999469719491|-0.8063910194692945|-0.25806133542967125|-0.496097300442812|0.5607777056358917|-1.0055866458967138|0.5901374207005213|-0.6702354419470943|-0.8052977608535148|0.14482642255082986|0.903151804930159|-0.2774804940012674|0.10594120139860799|0.975106575568284|-0.3867614051417534|-0.4437184379986423|-0.2690674140331535|-0.32810615530021336|-0.17323902449022643|-0.09221847729601618|-0.45388143955720217|0.9446600359811137|0.5964794872043058|-0.8002149924218951|0.8973594935168547|0.1126574673883711|-0.654251328841776|0.23647469123078882|0.17787603551022188|-0.09952500662898237|-0.6173764117576104|-0.33237801078159757|-0.7177463839143274|0.2055709809859254|-0.9488128412675767|0.07338684978278609|0.7968643692136412|0.07576012821021783|0.35625015691520523|0.06294831714455151|0.5599640923034961|0.35867440290460384|-0.5199823465293354|
-0.713044548283507|0.911160347142495|-0.06721726227880219|0.25640027918852476|-0.3825280963568732|-0.29959735599347104|0.8817597350735914|-0.5423105266371264|-0.6210019113234361|0.20161311008971625|0.10348248702870712|0.18786441034717605|0.5055219662230839|-0.04524373070462362|0.11891872316176122|0.9069098420319777|0.49189194418627435|-0.9655404131465519|0.7461112874103033|0.2337494582987365|-0.03348554207672061|-0.5685367590188055|0.7818263061946218|-0.4200545789351515|0.5618572681497467|0.5595459728041491|-0.6816129327298112|-0.1530662326964825|-0.8937582020299099|0.8403573050483352|0.3010263461725798|-0.6436975813480024|0.818871154230379|-0.5071867885500334|0.8010245653234098|-0.7385922108576337|-0.09559309427323814|0.7879378967496491|0.8000009310923726|-0.7686306359582724|0.25249222972726404|0.011019374904169628|0.11206741503363606|-0.20411460728169076|0.8844814261116035|0.181032349594335|-0.8845700408951042|-0.27949009823308885|-0.3568361342481325|0.2774886804419857|-0.44213886656056384|-0.16974844709537806|0.06753778989996984|0.7966183698132514|-0.10365561824201519|-0.9771813932353159|-0.15614262821491143|-0.7307043329040679|0.3024535882183548|-0.8996197510630033|0.5483748571969123|
0.261268628801755|-0.8057274710087948|0.28002145565010783|-0.004323590920021732|0.35378220844042685|-0.24637077685902403|0.753279563772934|0.36182531453916494|-0.6360390664388086|-0.40251001024884336|-0.5528236136280235|-0.041606408464528455|0.5472453822430938|0.7980597656641701|-0.44173755976288676|-0.6408935521820589|0.1255305117848784|-0.5138918346393466|0.8575752178510132|0.37135956253563385|0.06644905302411086|-0.9085115683747036|-0.360257582721365|0.38400268752693095|-0.06418327226656496|-0.10382993445412152|0.9669539540831538|-0.8450208051526046|-0.6728685386187312|1.0138931486919693|0.3186999358143173|0.7512567090049358|0.5713043456834461|-0.23419840107420975|0.5522714393693846|0.601191617381849|0.216194422278847|-0.5717328960901404|0.1533316294054663|0.31468454411873004|-0.13353311456977646|-0.7298183209387145|0.6029310998682326|0.6473030208927196|-0.28288776354575373|0.5736058435888655|-0.9013138270160845|-0.4013557177361004|-0.19227542739184306|0.5986239524102182|-0.8663071364807895|0.7735131132819142|0.18111736799586398|-0.6317764214172212|0.34108765218218906|0.6023749544856745|0.6571008843001416|0.4042919698416303|0.9463113918368677|-3.8373232222599363E-4|0.88988242337337|
-0.7008087645056588|0.4409465907969751|0.26571938109201304|0.6370321366533134|0.25814910940274605|-0.4856769160385922|0.32253021778360746|0.780995230685882|-0.8828374233708611|-0.03789791927748932|0.9165670620981947|0.6889222967705548|-0.28874663297935776|-0.9239507423750872|0.5752755957924744|0.8838237472638653|-0.0118369016490949|-0.6303841342517376|0.25217065099480007|0.83310483631994|-0.13408062964294376|-0.769064203545535|-0.8643614138675574|-0.7387193065695296|0.02081128977602632|0.19133298668874907|0.47819899400927374|-0.2623985314761994|0.6595186816714534|-0.8471890953369301|-0.668653877696886|-0.5627929477301461|0.15398533047438723|-0.546325254730395|0.46237053175058174|0.9462321016714039|0.8619339009141043|-0.19860567448697042|0.15086834867198218|0.23599638269212564|0.175838450317785|0.9583800356643841|-0.9002977499466456|0.7934174642175594|-0.753049108908043|0.4400769716271294|0.6647160474894199|0.4996147305982955|0.12545008576069308|0.539352274204592|-0.6201134596858955|-0.8420204748201228|0.6380096554925299|-0.7479916183515614|-0.8287725186815496|0.2785054991703373|-0.21786120899711792|0.21736131982340878|0.3594045646294626|-0.07876052587733118|0.5336246507344493|
-0.4575857086175829|0.3026470241525533|-0.5799817805563046|-0.10772605355768733|-0.6578310878104099|0.20699224820584444|-0.09652163260368533|0.5256256114040335|-0.9263127561329587|0.0821352510293849|-0.2403263826153761|-0.507701652110488|-0.7727575216687617|-0.05158906596636248|-0.9652202804931009|-0.0499576230060188|0.7796280677765299|-0.7618099813112433|0.1263479317488474|-0.879475131470995|0.4510702474644521|0.3584710858363493|0.18229515583154643|0.3687750589853427|-0.23260009883643265|-0.09814409295267752|-0.6946036649202815|0.693569389203307|-0.40654292074211096|0.9445021807837731|-0.280686196419841|-0.37540150804716665|-0.948413648878415|-0.32491716716734453|0.7387740404998779|-0.8560550025266827|0.3057090151546691|-0.3787008583115954|0.9458150548268551|0.9796899789081472|-0.7020327786488989|0.7679900669916864|-0.6749227729057719|-0.519028850131299|0.10022458627920017|0.828422788359555|-0.9620810502373365|-0.894066815437986|0.20086412869572332|0.2464757387924195|-0.8039846405226952|-0.628389734874292|0.9128040817454461|0.5098944270004069|0.4664561679955479|-0.604412317137375|-0.23648417067508398|-0.14956058672631323|-0.26590589283796584|-0.16545797728305867|-0.24686174772517777|
0.5326643368708237|0.43604330362067045|-0.5861059111116242|0.12811447537748175|0.39204316680239554|-0.43451631288061526|-0.6605183433039868|0.515430114961888|-0.0870023313632374|0.7411002795217978|-0.03705846971580854|-0.8522036374431996|0.25984669298406815|-0.9359978611400026|0.7290291717781161|0.2526048810370045|0.6751334779193998|-0.03418937489067586|-0.5708533006530756|-0.5190008504681336|0.06730009223253153|0.012740234834771198|-0.7070551801663488|0.087912983989534|0.35072002991971934|-0.11589317764855231|0.19209428539593665|-0.7506481901424563|-0.1542443328361188|-0.26789508189772604|0.4845225528419727|0.8470552846484891|0.12737356678026002|0.9990136680550816|-0.4708067332600254|-0.9411017070467234|-0.04161612606963927|-0.29219200079791063|0.4050560694991221|0.8027048913283152|-0.12862381307268467|-0.442558743761663|0.6200487855114154|0.6571048736731214|-0.9919523942716036|0.6539184114930774|0.9653729163657173|0.5565094705828804|-0.4235955360151035|0.6408450274128316|-0.3699811306331182|0.743773907054585|-0.9380201168276734|-0.6488434162951964|-0.5313841794909171|-0.6904502906492112|-0.23033078505600635|0.32833213293200303|-0.8470846207895899|0.10291735522839929|0.35485045489263545|
-0.049560823778757014|-0.7113553492412688|0.7975257080366104|-0.5749636780936465|0.44429592440821|0.5820301071003433|-0.8696925311441418|0.7517692791027515|0.49401810996197004|-0.7592080921890936|-0.12393487637325608|0.8373452981285585|0.16908845355686308|-0.40525387641455013|0.5065813010567768|-0.5978028044223942|-0.6481372507529597|0.8134548831318988|-0.6511965334717693|0.8863685805055019|0.7585674484291871|-0.3496486831248118|0.8196827818032191|0.34836614194456456|0.6410114579032298|-0.6670551555939248|0.5514457972552155|-0.587885098251962|0.8361018447565881|0.7593641326610325|-0.3829940332269146|-0.8201171441180695|-0.04625357559680876|0.16648742884174594|0.7823699984787338|-0.8810803660296689|-0.5361965078207844|-0.3486825519116743|0.2147324553213028|0.978208617885149|-0.8830067498656717|0.6364842025440524|-0.053039299053393905|0.1841278081909897|-0.6848840357556977|-0.5382698466047628|-0.42341918560675007|-0.2333343136488188|0.40164181295709483|-0.4311177003268604|0.19261114179043737|-0.20768115560057532|0.3737684775062089|0.1274887377347096|-0.9029850191291424|-0.988108493433133|0.5774448740311735|0.38649867311136243|0.2455953403894151|0.4075056667165766|-0.7021758692064703|
0.35732419237148894|0.43087528946344683|-0.18040550417873003|0.43145892965406707|0.6091157772570637|-0.7090064636091037|-0.342087413907384|0.009069497825059138|0.031788975098246464|0.7630911926930253|-0.06074317879175652|-0.5229740036625508|0.7150278536761929|0.7870713760539501|-0.7478651206095277|-0.4036818838873226|-0.25799398196890744|-0.7563781456804155|0.9580229472517898|0.09327514277738436|0.022526612496589715|0.08445644677361888|0.42423152147640447|-0.028592500187554493|0.6229744735225522|-0.19780230729644524|-0.3512669667089059|0.11743442390955315|-0.14507200882175703|-0.27625773966879485|0.4534469529792849|0.6329472643447578|-0.37284529219696694|0.8770875377224194|0.21224639779145882|-0.9617397021658449|0.452671237480466|0.6280230378671479|0.7432233999196045|-0.26134054185287825|-0.2722618382879145|0.5012893285857619|0.12004915298572323|-0.4242808391471282|0.8569515426259069|0.47019080627310866|-0.11075845312900162|-0.10337233588575559|0.430476742794862|0.15470978651355474|-0.6745511753458987|-0.7764847629886518|-0.5929090486830859|0.37983805805516435|-0.5384346188237423|-0.9667850845353325|0.27887779073574315|0.8937419903831829|0.6514750170543486|0.25880069594643285|0.9060703410640225|
-0.006350483338782|0.7470182688817012|-0.549610429211902|-0.14269366614239537|0.08418382787005044|0.016494755626045705|-0.25417002442811265|-0.8276919700901038|-0.1086354165317986|-0.9578735949415149|0.6731808767012399|0.25271098889938015|-0.5619044466932723|-0.5362026413741172|-0.6350048002910771|0.18029374753041538|0.48504686299634714|-0.6532004253397896|0.33893776324153624|-0.031017385799373853|-0.7041711304874898|0.279201381344911|-0.9305917542935631|0.9581102276954795|-0.15183112530546763|0.1917624780671958|-0.9611469276434762|0.8253866727181349|-0.6594041512626234|0.7940985187073312|-0.021179429445789613|-0.6797429940680302|-0.3997602471445503|0.9495661484848168|-0.8020602753964621|0.728529217899196|-0.5983453345827812|0.46365420152350456|-0.70730747540053|-0.1445391095176336|0.5671792809727543|0.6271974529988202|0.6876858284346004|0.05952489274945469|-0.5374583313681999|0.3499005610574658|-0.8718489499473783|0.4268944914329322|-0.6349250142181|-0.19987548949173076|-0.3145386635002909|-0.23473093120299615|-0.22604656188193029|0.3914462405350756|-0.08740576266793965|0.07396368229071393|0.6695268487293895|-0.8481873014668455|-0.9546252666715314|0.41430578592697476|0.9620552742372193|
0.1258396615511002|-0.8481633156247054|0.7172199056771446|-0.4525325672802715|-0.8188898403476211|-0.1343035567483953|0.6159280160294827|0.1691388293948862|0.4825991307251312|-0.2922665442202877|-0.8223202075658319|0.46670945283933096|-0.22339580289712235|-0.9297442507393172|0.33081922393417895|0.43543039893864566|0.9574911763629668|0.20910084766910675|-0.5291594134099602|0.8330515966982726|0.28804950365980253|-0.865109745845856|-0.8263253668429194|-1.0483480726788663|-0.3010009517525709|-0.03542814735626385|0.7244883284035317|0.37250066480441274|-0.7888338789033766|-0.19916803750324286|-0.6345406867707963|0.7987050522406398|0.9522568044695823|0.934418597301643|0.10588153865282157|0.8838128194857291|0.16944160680070963|0.2969070136854166|0.313207160592466|0.6749055469611613|-0.305456510792105|-0.24074448891787584|0.8051352682834177|0.36017063189888354|0.3064052518758068|-0.9737993092993527|-0.390948577380573|0.7330296884520797|-0.7619894449872561|0.6655304406333235|-0.7417156719367844|0.4633541033399087|-0.7882678145276774|-0.8021349427644227|-0.9298996989458113|-0.5735094690286695|-0.7861858770675874|0.9062397761174195|0.5697467526704392|-0.7810196875499855|-0.9290151217891818|
-0.046304900683799624|-0.5092184258747952|-0.10639970124434231|-0.5695969478002005|0.5003981026488231|0.3333391261093634|0.5567709837886998|-0.3259025362186989|0.47152397896817394|0.20966580913065394|0.2938996559375293|-0.5060033725261173|0.59734644836743|-0.041372407204896655|0.6801047573306367|-0.550831829197028|0.29791032326937184|-0.0022101318910978662|0.43374059280265675|-0.7747461934539701|0.8010092212782773|-0.13511956974436892|0.7959475363923224|-0.7321044165121235|-0.08708797132435067|-0.2896539345800491|-0.3088018343401977|-0.2706501398362397|-0.13531761881852677|0.6954641037342617|0.5368950822596188|-0.41290999961449515|-0.056496412019084064|0.18368170153308805|0.6232516544201674|0.7930890522974867|0.20480288820250436|0.5655087980976392|-0.4639818610579678|0.18777824360741402|-0.8817179118076313|-0.9510152125348701|-0.22791920296603396|0.9873535010725629|-0.09853121559908795|-0.20504023801243987|-0.3562413110809353|0.19263613259638349|0.7033015021485378|-0.32401762338820295|0.7254978287592846|0.05598906537379422|-0.24812158866883682|-0.6440483185192609|-0.9853536741979463|-0.9955536760858434|0.9253286403569358|-0.6176873402772414|0.36981782059803536|0.6043516950203887|-0.13588576555226095|
-0.7838333673521767|-0.5135579069194456|0.15096262598988033|0.313013014577571|-0.9543465612945377|0.5467430609300936|-0.9091197170378342|0.49040172288423217|-0.5221841466872295|0.27537654841447096|0.20509595372412975|-0.8684274481493515|0.43408616461669913|0.6556339382674843|-0.8495925382749574|0.7898219201391445|-0.480404517850717|0.573867364385442|0.13163840473469812|-0.3135923762179944|-0.3114288153005196|0.03741549686633362|-0.721301916066086|0.1988953683013084|0.16679605828936936|-0.9581456243080579|0.6587275999534251|0.9341922022957314|-0.6629863016487899|0.2156820368914601|-0.2953473650988535|0.8713102793751402|0.9581377573556253|0.3948139360179759|-0.19510124129679451|0.9337772917007583|-0.43752705811064274|0.8360681558909808|-0.5769263304114083|-0.7041867531521502|-0.9097591489807231|-0.6730055824014667|0.9298835875066731|-0.12475733428384149|0.10899222203851369|-0.023438573412119447|-0.17444205656512946|0.9279445678494617|-0.7617597274412571|0.9529428552839093|0.8361908333935785|0.7583681733723027|0.871663202537416|0.8994964601063471|0.8552833813618212|-0.029970393631730374|-0.15552536389507998|0.22245627045791094|0.6854447331030706|0.6286740308374437|-0.7650468855052879|
0.7293817675074916|-1.0214097135483275|-0.7826287462176262|0.6286207303308047|0.467131654340805|-0.9772383915508874|0.7315503700930178|-0.3672438131522543|0.8233864280749971|-0.328201655043003|-0.9020536371749538|0.7985064401376831|0.1581637173450412|0.43660501079108305|-0.3773180780845753|-0.2590160246955844|-0.9297626557184477|0.491515788477465|0.3682609974807043|-0.7922117277140077|-0.8891137692687245|-0.5647041528025708|0.2536603688958374|0.6238294854589771|0.5242440350472668|-0.5481109477714523|-0.5239289918525741|0.90079965873897|0.44215000262522874|0.8174992456153343|0.9593681972669461|-0.685878588710682|-0.5699386075239157|-0.5321771998426665|-0.3312096364928325|0.13354834945436722|0.24891092384693114|-0.4483601528079473|-0.835548046503211|0.8626609853069329|-0.37103649237136027|-0.47934800690171153|-0.5447213489821061|0.1455830835182237|0.47647638559504946|-0.7062601105937171|-0.8871621001235516|-0.8313422275123844|-0.7962615278054995|0.8853003156157494|-0.39336497999810305|-0.2623823096463702|-0.07750099922184295|-0.46795734440788417|0.6295161915238543|0.2060085780905878|0.720453829184462|-0.5226239404755226|0.5502046866319747|0.09842484355095316|-0.17974296992813188|
-0.3731831469595557|-1.0469825263996924|0.6950201681380033|-0.1729845779616189|-0.37411479143100435|-0.1782951626955044|-0.05894320149140255|-0.09503969842640206|-0.7724674595968176|-0.3004671621850115|0.3258696965363921|-0.14660946595633262|-0.5771729331668605|-0.43933917922939525|0.09472570961924798|0.2689849142638159|0.2127125069556821|-0.9761200959031906|-0.8756113577451279|-0.6293468336599082|0.5101198147463946|0.6716442142222059|-0.5545226344873118|0.7850534425764321|-0.433897873099032|0.275523253436513|0.7601711532382973|0.04703976837820125|0.3634801470752543|0.9177964778863708|-0.020259109297772207|0.7460209306315801|-0.42875596296927365|0.013200523104041295|0.5890115007732475|-0.9777137892474963|-0.23643117191136187|-0.9503278459438154|-0.516382909557789|-0.9692645345430024|0.8984576145496368|-0.24655875246436137|0.22564929003283382|-0.13415204760361782|0.34233523830235757|-0.7955226056686093|0.3697892726022573|0.08268108382271072|0.130170609134878|-0.09283814860219966|0.44941263083898025|0.8049755383579495|-0.22660589567451606|-0.2323575842801422|0.06419572848325927|-0.04799008470085031|0.12383435602546378|-0.17589004675369102|-0.34878534257736304|-0.0821805887115592|0.6520799397621273|
-0.11819313497398079|0.2778084472840646|0.6363697732678578|-0.719164552094588|-0.6629472907674735|-0.465308313691778|-0.9271397100138608|-0.753292621407775|0.2408665991214416|0.6486348894768504|0.020945855883701858|0.1557319382521316|-0.7082752411316393|-0.8714063683930098|0.916352048474069|-0.12372606557404575|0.5647902882691147|0.38612125620277626|-0.07405434525156918|-0.9058140866080264|-0.7015592794149292|0.19964999642815176|-0.05455164053368678|-0.784787820291657|-0.3043108717479555|-0.17486898043775123|-0.026353004460923382|0.24762932197358178|0.9016474768936359|-0.8333816013880546|0.388160877439173|0.14557851196283766|0.029189414135479375|-0.9230369631273605|0.9984286704411498|0.8392119174232633|-0.2017857434103758|-0.31122492549003034|-0.22754381446025018|-0.15455812164871907|-0.4988062267554678|0.9931087549044609|0.8391370937388594|-0.650937882123435|-0.030468273545519044|0.6498862737984418|-0.06237398325778908|0.8854070827234041|0.08520669972231767|0.8530790636148325|0.7661811157364722|-0.6432045637733748|0.5980564381676639|-0.8331301726419151|-0.1044587026772903|-0.6650169515550826|-0.343204412218882|-0.7966731837094985|0.7742326917132896|-0.6260484743353758|-0.5331230280089965|
-0.1343766318828282|-0.7408893271948838|-0.9215614113353711|-0.6795579919668766|-0.8240764444039027|-0.9096668591565371|-0.07451991851522927|0.7899071659568223|-0.9057614370349886|0.4432378224143639|-0.3158506289208767|0.7600336638999698|-0.029291273037355126|0.9289741597961814|0.17371752102362015|0.5408152815924578|-0.7980821605217727|-0.17637145713329105|0.7288823012971997|-0.6862714221229083|-0.06028932033715262|0.18681219225939422|-0.8382841110509388|0.8069486102292388|-0.7391609739445174|0.3417695913384339|0.7799496770100891|-0.034439474597166723|-0.7213892011744582|-0.04473758522562499|0.16110036129502425|-0.38160171159071554|-0.39504672521539597|-0.12908369611954518|-0.7238949690360326|0.6592996966253688|-0.10013780065934186|0.22357902709923172|-0.01509037457581619|0.6815461652634855|0.8719839894621775|0.25187365957009883|0.24591280430008858|0.8186352975134562|-0.5500735347608505|-0.4335310847888802|0.9581150894830853|0.962841470470686|0.18243208934243368|-0.31061763647361734|0.9292558947394843|-0.09011021558711496|0.4995389088503519|-0.7754435842775702|-0.9986394165209722|0.9345022475049856|0.7744009507158875|0.043328732499976486|-0.8702830061936309|-0.2055275006967341|0.44249056040270385|
-1.2077993115733814|0.44920611233222063|-0.11278802481270851|-0.5984279308564995|0.6163301517988182|0.31299282425819375|0.3703000349595847|0.5826475213610393|8.104540740076575E-4|0.15335958612439046|0.406818485385336|0.544108937878685|0.8453510413652348|0.7016940853920708|0.5378722075438491|0.7960261077459656|0.4706659696353779|-0.35563098849754216|-0.9696705058952575|0.50731816795148|-0.47863763437563644|0.9076424735381724|-0.7496956754318732|0.2890176304270589|0.581066896074614|0.2049169789073179|0.16555250372662483|-0.5320170603185562|-0.1963162398354222|0.4044820849826726|-0.039589900063407145|-0.06581647481764197|0.8559195955265666|-0.20783754308834235|-0.07890373069457879|-0.9698026766277172|-0.7364906672023726|-0.14354753322698333|0.9167268295923574|-0.2559607606057559|-0.06923698009778678|0.7463171962543433|-0.5537297171156781|0.23112075062549312|-0.5299103038812051|0.014992735624210026|-0.5067383475735421|0.4258311540741454|-0.6885105184611086|0.9783703904263564|-0.6807614583682947|-0.16086176384656836|-0.3160276406496936|-0.29513800238860544|0.6140036594932277|0.9286064080479508|0.8431434739023573|0.2884588202033207|-0.5551236869880998|-0.15902046976999085|-0.2024160287419401|
0.15887802846511576|0.45277001350437296|-0.5470904189734204|0.7312734607266006|-0.5591045631221364|0.00652790279372889|0.5930413080621798|0.5262604626177277|0.2895449470590827|0.511483582963314|-0.9441662955861209|0.7421327612888478|0.488996937637332|0.2818263164476227|0.8029682076682738|0.8233548610655181|0.6789587090945499|-0.6247562273623606|-0.064030593692598|-0.7957298095049097|0.01767598366643619|0.43894736487641445|0.11348430522663241|0.598611810547274|-0.21687507208881646|-0.33898342842789536|0.5831588873844066|-0.5449332582375714|0.651245708771275|-0.8191064710948899|0.7152590658125649|-0.22953492226015793|-0.47656253197600185|-0.4324894689048837|-0.5393509245764394|0.8341702867795078|0.12169864750985959|0.8048769118943702|-0.5813468288308199|0.7981106099264677|0.5636383333487625|0.5309739740176254|-0.14717081930978193|0.7399518082776919|0.4301388342578377|0.9357323894736008|-0.434147802573243|-0.8265076293022575|-0.5171416392316909|0.31550480000421643|0.5885794594578305|-0.823024559853125|-0.17404066169916477|0.09047908816353534|-0.21973156104537317|-0.6241438745674159|-0.152173087985787|-0.3255531898312509|0.07175930099966066|0.1507399267107159|0.6790202329779504|
-1.170229441257543|-0.22450747075737112|-0.7255137374807782|-0.9130795269683609|0.8096653897313051|0.19469114067371487|0.1430170999445599|-0.5539029439297581|-0.6351944646997636|-0.3070997290158471|-0.2147267319356434|-0.22656475084817074|0.6314452908033064|0.11674007143173926|0.1282870680696402|0.5690344402885075|-0.8862532714499234|0.7005617393189587|-0.8517333696134581|0.2782581909764057|-0.772412809817751|0.10254086776628107|0.822338700902244|0.8450694710145819|0.2667694714862987|0.2770462247400924|0.13103057563416487|0.04591850772449428|-0.8753279172213353|-0.9565875807509849|0.7028750292703752|0.68982596136863|-0.9964149795478181|-0.1509545363650684|0.6427480456593051|-0.9955255756051775|-0.44240604501583825|0.8860923913586063|0.17698070172093527|0.33393783084579254|0.3529027453903837|-0.11841420934143375|0.5756691669983095|-0.22155532295745445|0.5657989735209619|-0.48071185557810797|0.7630150334076367|0.7288581524837667|-0.6657931655507471|0.5362103851709024|0.8322989105423385|-0.286102756614234|0.393573975964727|-0.8796379120390683|-0.34231486184530935|-0.7680972679562903|-0.5902164787717621|-0.7035089424279628|-0.2534516911973037|-0.43482156153918616|-0.2953067012818067|
0.520230875690216|-0.6309135570559408|0.9128258433449301|0.4697030970739229|0.6757802781613336|0.6544002630638505|-0.8427303990131663|-0.44627556794070083|-0.6038036582518651|-0.10426064401478959|0.6892233996596397|-0.9482972334532258|-0.13100522202610154|0.40687468724271136|-0.1664411523498288|0.6909455216648757|0.1022090949913872|0.8820527614616451|0.10197123812521203|0.12055379798007992|0.9866112987173765|-0.6356796000658642|-0.8258933612104501|-0.18160619658058685|0.19103837033987675|0.774092251402742|-0.9873680262725426|-0.7376305248862501|0.3266136316574236|-0.41851769894055596|0.9700789709343525|-0.8815166964357162|-0.3901105015217845|0.2279332149629283|-0.5501143129820396|-0.4231383762409582|0.464609375337552|0.11819491047820518|-0.09541438392570956|-0.45253630057748806|0.7762523157794006|0.09890015301897764|0.5203559115907054|-0.7661826702052918|0.7968647861367146|-0.8149779467813034|0.3285062538788118|0.7642629674064182|-0.1287287664535867|0.2850129385055229|-0.9974279731041068|0.09586491733462066|-0.8996656353422032|-0.468956676519068|-0.690735502186562|0.016999244573915773|0.8038344446553167|-0.7565804693308897|-0.26526485788153153|-0.9259428194422172|0.9084781244364053|
-0.06355199086115021|0.10955325987294351|0.005517246698486317|0.6872520754729847|-0.6030248483212349|0.2161773764266119|-0.018862541426925852|-0.10116159075204091|0.7733545775628645|-0.9595753555491617|-0.9749948137007929|0.00978286837574327|-0.24777546021869812|-0.43048060591970083|-0.28127613329522805|-0.3993568127315994|0.06868614252531291|0.8052733200987612|-0.7553513490420978|0.610198636768537|0.17916363944579117|-0.07117315431856777|0.3245640098995558|0.4214203820310231|0.20306345099963904|-0.8593969898085628|-0.0478420591396986|0.7695401952103826|0.7508977549386542|-0.461908582258485|0.6403558405074484|-0.9874393699825748|0.2924304204944719|0.8870234563935757|-0.3091444792078024|-0.15175737545778833|0.4350571991489647|-0.12223307027884389|0.9678193337976513|-0.6092140837095439|-0.12852101651172698|0.7349216670375324|-0.7457668660533661|-0.7503023131932504|-0.8449779516698374|0.7297775021252527|0.5291496534812906|-0.25894782515315173|0.26285602887303505|-0.49286677236290105|-0.74505648994867|0.3335467976488671|0.6332071565249466|-0.4781818426798321|-0.7390646086791461|0.9439719649903531|-0.5737707871537978|-0.4676259633358657|0.6155724281778907|-0.8341920103185712|0.9986606049674556|
-0.21759637161154183|0.5163995962728288|0.40477053775930294|-0.4195617467105546|0.9301072662686292|0.19802280669088373|0.6469841362130886|-0.49717077835625667|-0.9529088319774344|0.9806256908498282|-0.2619978974650293|-0.17839838681304077|-0.5077665310764585|0.013774967045426134|-0.20297764818348396|-0.6834152612001316|0.602030102089218|-0.9952315079300482|0.6578946815157107|0.8954606637053732|-0.6715742989206064|1.0054894383996453|0.289868035878431|0.25084003404143235|-0.9226713272169428|0.17356957187813218|-0.25815330255595864|0.45606518776997873|-0.7952688522987201|-0.4106107807028051|0.9409772173161783|-0.6685404199153411|0.8100769714699809|0.44456058053130887|0.2272044835572684|-0.837702295031401|-0.6569745650791976|0.8607563172741124|0.8470133918971201|-0.9433895512801516|-0.09691120704465694|-0.8765925713255589|0.46378353488146706|0.05459572734825946|0.440577859640089|0.09409991660514122|0.09630739350508062|0.03349799479649834|0.2415143578717051|0.8831510142608926|-0.41923826304791845|0.9352088800669336|0.6575356430082353|0.27799072554586735|0.3411048202813376|0.13247678817829267|-0.19336590700071432|-0.9161842956758472|-0.08373947416022776|-0.4537187468302899|-0.6139358246900395|
0.10094298860802212|1.0218399049287399|-0.8676645859874933|0.2341844359696232|0.5159998499428252|0.9608394124772767|-0.30321689993025025|0.2817361156187614|-0.42357245823846346|0.3960836462580295|0.6162491933138626|0.5095147949628522|-0.6243735156591035|-0.5042013430530616|-0.3207157228858972|0.0815336168687264|0.6722340115276237|-0.8743969583181861|0.3940430988744892|0.6222670993652553|-0.9079407180841068|0.1363294839200705|-0.18363791118595632|-0.6097569678506566|0.27996537269604654|0.9515135456556145|0.8184777267377431|-0.2800748390882886|-0.845717820363335|0.0014484418559164963|-0.8939761620574438|0.6602140706655648|0.9368381995419846|-0.30338353306108456|0.4604224150856271|-0.4056681554393329|0.5015399228667743|-0.6551680406128029|-0.20889702326847126|-0.8314573048689853|0.26845433158860743|-0.591708949580044|-0.5152403920869766|-0.4898422522800585|-0.6684967148313717|0.6308111343170406|0.109567954181041|-0.45719600230589347|0.8859717468881515|0.9309637746453685|-0.10926461797695709|0.3803212408825112|0.29443469404533085|0.8242884136880595|0.554330572234754|-0.5144038435583207|-0.6823783660281679|-0.41168162970659594|-0.909942163821301|0.5099301829483924|-0.39552921923311546|
0.2494843503046233|0.6019907126697102|0.6349503909577914|-0.7574223145155708|0.2436628270001484|-0.47465327003268803|0.6808807372817597|0.43914388615968053|-0.82407986093312|-0.8122311014809055|-0.9122073100513041|-0.9857351527851292|0.9481199323485359|-0.05210856599513969|-0.7786415018565049|-0.727840773845909|-0.18200959826431617|0.6133496568430985|0.4680063471742646|0.2126318213751317|-0.8948519241657467|-0.32592918715907737|0.22812208015524527|0.33560300740358046|0.7326872210174573|-0.7781662712827746|-0.4849299704032839|1.0065968132786582|-0.35538836773651145|-0.17751565926964444|0.7864281964852864|-0.7712157769020109|0.1556790351945314|0.528396094076192|0.05514690362845709|0.11200548499254559|0.5172775176834941|0.09006447277950302|0.14487581723467513|0.10474415610634957|-0.8453912551544309|0.8301294232339478|-0.0030500310659445223|0.6477439666878788|0.13752269547517698|-0.5816026439765459|-0.4779507309234607|-0.08273345343749199|0.034430342806168135|0.646570812890259|-0.9588271554888533|-0.8322178664308129|0.8158048646008071|0.8759716911993813|-0.27682653684781267|-0.27014969122499255|-0.9124028344841248|-0.8323308721579417|0.5764523134876935|-0.9378779598282523|0.034374227499955445|
0.07817579768877833|0.1050898559118017|0.2222688228330988|-0.550985387488536|-0.02991095944738509|-0.9981871711165174|-0.6159061347123272|0.07726373135656467|0.22811811922592873|0.877660777388525|-0.35216455973285826|0.9905742047755266|-0.9703709961307658|0.835385758758658|0.19170945805065953|-0.0197136489976113|0.8847329026670072|0.41125484713014404|0.5022268649502541|0.4510721574600831|-0.1854767437961682|-0.5942137501866689|0.5007469078371579|-0.3942796283149762|-0.9744091260715494|0.7261361897485887|0.5538988153223126|0.1499255386954371|-0.5180857492646188|-0.291388590057166|-0.7321690199267006|0.8231916546892479|0.08953888999302473|-0.18233195568300142|0.5774794223312902|-0.34929079460167367|0.24263531382196302|0.38601986488749596|0.8596068571469988|-0.9660900181701952|0.6974044229709975|-0.7987019462598806|-0.3691176305219241|-0.015512092520587765|0.46688987700455054|-0.8303320127524348|-0.18148991618318633|-0.6025561511598925|-0.5233562096850598|-0.39192620735000244|-0.33154070772233124|0.15259689025209822|-0.9798987963441557|-0.03444489038722609|-0.9959951211737152|0.907599629400277|-0.9212872323802634|-0.8629917146633186|0.5947217747317495|-0.2713718341015805|0.09346784243126605|
0.6970765224169629|0.713259367033|-0.04916299536823755|-0.6534998140537975|-0.21971720370072|-0.8005249289121953|0.8338755172468774|-0.5870666662526768|-0.9482758067352128|0.27192708397367127|-0.6058169190244244|0.3328223243404187|-0.8125983499079621|0.04580694509396488|0.029526343994275228|-0.6797484164126475|-0.034034387746741945|-0.6475562127611105|0.07631323476982277|0.16116104613994242|0.9931368759184362|0.22656554731069545|0.4773613553396475|-0.0027269495568943924|-0.0034603114471752315|-0.35995070161766546|-0.5282286067925351|0.7564366382051683|-0.7231179931374916|-0.9479300753347262|0.42021112740684835|-0.5450300395032583|0.34502618118768424|0.42682526231278994|0.13169510488234537|-0.6118134900965599|-0.42772950651292474|-0.9872741859823564|0.12005036769581667|0.11588174973681498|0.08334465469944319|0.010263678496924028|-0.6893014245244362|-0.19504653466842026|-0.8641856717555568|0.11378911334166404|-0.5056735064082921|-0.7650188949897089|0.9112935738686944|-0.8188040864485571|-0.5855342479580158|-0.4705716236711699|-0.25757131167327874|-0.6727720852231289|-0.3098673659572102|-0.978681387033342|-0.5321148280156749|0.4091338740143935|0.1687252338223606|0.6369687083749949|0.8289259247548788|
0.4931771891407403|-0.45559177690128033|0.4587668591522128|-0.8342168361503337|-0.023823299543466243|0.13242958955576145|-0.377444460927694|0.996534767475947|-0.7350851776932802|0.8148954090294706|0.20642030924795363|-0.7317428155076116|-0.06745151016017426|-0.1333774482365695|0.10631760030933157|0.8093005169094905|0.3366423386140345|-0.5538876374062551|-0.43723490715046043|-0.06421942233005073|0.8041559129863871|0.7602264623829575|0.17541936433701955|0.6719955262030171|0.4012986743845959|0.30021491202793493|-0.2655240327859754|0.30264359767815896|-0.5569625674086274|0.31663741618406344|-0.8771286836745951|-0.03472126033463829|-0.05188883575782244|0.32659401706797153|-0.774271080676765|-0.28925529593530297|-0.8717061083615374|0.7647147836144157|-0.4511356302532312|-0.0939672312942581|-0.3928578805165688|-0.3868995176857696|0.6733227732735375|0.027476193111140353|0.9778263115787933|-0.2319870717698693|0.6951248632825641|0.910440821968327|0.7916338965079295|-0.45900187056647596|0.2069514206055009|-0.6198137987193211|0.709908587629422|0.6034905293811088|-0.42434298093182155|0.7455044242463702|-0.4489705420048644|0.7876492441203073|-0.1333984636628187|0.8923428730284946|0.9514314490485887|
-0.5383760331406781|0.5517700559061895|-0.5827750031610661|-0.12745112896845862|-0.6851893962403202|-0.11028858007194196|0.15502053588745832|-0.2791774838540604|-0.4447270587121561|0.4741788918607763|-0.0740828373506421|-0.7562000243758544|0.7369747441636925|-0.34324913359584097|-0.702715403458515|-0.9458034399755038|-0.8218022278477104|-0.16669389272897495|-0.8032468960635375|0.4638559180519859|0.06361660957199766|-0.6997627355433119|0.6998592536073358|0.47928665404716453|0.37819821988462654|-0.44632917303625785|0.7683267002342913|-0.6561512092564541|-0.18849899790126695|0.5766022454507189|0.7920252407910074|-0.841899541769594|0.8986535411650933|-0.29342984924476423|0.6911107655453181|-0.5000527997113271|0.985475749925173|0.49278556805726303|0.6345859223521972|-0.1687334810562957|-0.6223345348113987|0.7479275996970934|-0.6669047877781011|0.24902276536821247|0.5287910680905259|-0.37152068080554446|0.9383790472580447|-0.4772333312288595|-0.4827150725794851|0.9985163234907704|-0.8248841406873507|0.6003358645058112|-0.9821643421373045|0.21836399144269247|-0.3866425415367516|-0.5870597604853738|0.9759943455843321|0.10396234826700623|0.6264940719823218|-0.011492026113651299|-0.9752669986056939|
0.41900702005454893|0.3986109967331518|-0.664780976390978|-0.1640648397750939|-0.9034247956539737|0.9343156373314416|-0.5769568271011982|-1.0302142679029984|0.8311789281638224|0.7777140144783969|0.5994246920676519|0.031161813576541686|0.08074670878644019|-0.7769380148541782|-0.49253437335856587|0.294722970282403|-0.2524608939584647|0.8368378897871944|0.26942344920615935|0.28649715759036276|0.2939680646113012|-1.012406976938692|0.8465859772444909|0.37564782412978875|0.6579946547705878|-0.2788205093001832|-0.4302116896097974|0.49716463210174067|-0.17624649157927022|-0.205158594499577|-0.4471651393545614|0.3037761897999338|0.8747090337993435|-0.4382363959459261|0.7833112478188109|0.8255861263487312|-0.07497841058154564|0.44414503978352027|0.05635030379371608|0.9436141921215371|-0.7884708522520096|-0.29260977258826576|0.014407465823061263|0.2309292416534634|0.1446475871969141|0.03847533585249856|-0.7239299851956655|-0.12948446250151788|0.6040609807844718|-0.24637973906740784|-0.8199898867807749|0.0060358960791482286|0.6788559251266679|-0.6133158735032123|-0.17260333110977855|0.9201567733226415|-0.5986199344099434|0.7094842180734133|-0.6282279619265538|0.9025995916201772|0.7139367895454622|
-0.14470577204155108|-0.9267898862532563|-0.5193006357525346|0.948306123734723|-0.26344665321986166|0.8525712696268773|0.30864931264038686|0.7275463131291402|0.13150972110762263|-0.07461495536680679|0.8015518959205723|-0.6392855574483822|0.38214551961746435|0.11640066789244496|-0.22536364612894322|-0.26791487226924016|0.4011644136785131|-0.42350667215457616|-0.2921267967151129|-0.6451540534220559|0.760727189650636|-0.20635469550045515|-0.20459752420721536|-0.6474140585459403|-0.6924296518215306|0.05559489517621948|0.8505623717995076|-0.873122768457437|0.9740116513369708|-0.13793491264815705|-0.08853039446828191|-0.22858970863727301|-0.15330273710260678|-0.9136877963068595|0.6590402189370568|0.9172048651506768|0.8392480691187327|0.8719097634036974|0.9651528743757576|-0.8475298354844352|0.2556393192966171|-0.5727672620647186|0.6166182709019137|0.11373240847551336|0.4194642985549442|-0.13714280467121015|0.9494819043379286|0.39784742743267976|0.7909124957495047|0.6031823947722783|-0.8547214271384049|-0.48703766001396653|-0.5914950421181007|0.5180391620105111|-0.5611649702358679|-0.5602947225763739|0.8409446754789625|-0.3503545598327973|0.0012085100960526063|0.7092511300094582|0.8438443265428601|
-0.8390591121124767|0.8211524741020211|0.6764607095509407|0.13079933777954023|-0.30000962795486785|0.8462703391655477|-0.7378954570655883|0.052485871120236435|-0.8717197854923564|-0.11673908530892528|0.0014242881422375858|-0.9108705467677751|0.38391040688957623|0.3781023599552873|-0.4279521595130784|-0.3219693688719212|-0.10996364047148255|-0.3036829127726921|0.5793789379207106|-0.6811072472667024|-0.3032192933359166|-0.21388680313568822|-0.9287407845714132|0.16645805837096828|0.9138581376211716|-0.04137891623423367|0.4339068209835049|0.2955956497328998|0.2610629906335311|-0.4382199229323651|-0.5000904061396513|0.11590422578793458|-0.29188895022963|0.07463202120074675|0.27463155424921104|0.3000179256072053|0.7816386941865108|-0.6504130613529997|-0.7668991836501899|0.4653594452973342|-0.03182842128027952|-0.6916387844306522|-0.3929511741983972|0.28820723995704317|0.44384902144380856|0.26302529423835774|-0.576330206989689|0.024954294427286153|-0.27516387772952755|-0.6663550749127938|0.2811767302283958|0.2756963139665014|0.21479372080765646|0.5511756876386176|-0.7384199625516343|-0.4681269703493205|-0.48285363229393563|0.6736479836967564|0.7812087861461174|-0.3054244835921387|-0.3204889664215109|
0.6310341055650948|0.10100909909922666|0.3644446337809478|-0.43550803278707767|-0.7220652150990723|-0.5637050902181857|-5.988232417191964E-4|0.39140226660852245|-0.606512736096773|-0.20314304563623634|0.23414960573265595|-0.4291887602129798|0.013419921289726133|0.8738274651879039|0.7226654476229353|-0.18319660883664035|-0.4359673727851918|0.2500519626755773|-0.1738246689947387|-0.21003384268424075|-0.5865280841513498|0.09557696856008728|-0.9036556264868918|0.33746185587890115|-0.04461821453919633|-0.27855675549358017|-0.49859081005455846|-0.37107335162330785|0.7824534113700059|-0.7025551724748347|0.7705068944740947|0.8757201057585255|0.5840656184684359|-0.7235904369150514|-0.5983966543036916|-0.8613988138726147|0.14990005411999507|0.6368691273909295|0.42543130968743625|0.4272601026498477|0.516465003955183|-0.8064203127480274|0.8103059448738544|0.2538978613084982|-0.9052241197703076|0.8744408011367143|0.9789516528653806|0.5821731801282305|0.09893619671299327|-0.9131057027207187|0.8868395046158732|-0.2900934440650127|0.4337300224572169|-0.8136797789010735|-0.10950768747869932|0.7552534146073064|0.8065850537708643|0.22719360690175838|-0.4385717144771626|0.29702329552101503|-0.6810922556516186|
0.7555805240409014|0.024241279975741343|-0.4789741694157892|0.15413430291599667|0.7641904340261718|0.7350140817091717|-0.9614413567431528|-0.658849271024832|-0.5707497839021319|-0.4843478969037456|-0.4469596718613316|-0.8467866296996345|0.8392462187390646|0.5267301951616798|0.9111436429957014|0.2967801268294681|0.7205328510040754|-0.38129359040062627|0.586241215463436|0.019856781104621524|-0.6221129808106101|-0.5352162903540236|-0.8226292262640498|-0.661191621985767|0.8970057646480174|-0.7395273119428334|0.01597877906875766|0.6022600089082533|0.8752976528917824|-0.5981744091556057|0.46228141424983976|-0.05199666422583937|0.21794611458604685|-0.8314690903418576|0.11814559114535128|0.00598854319783193|0.5874802763484781|0.8750802575184466|-0.27366132971263535|0.3859960678884915|-0.7430291436956429|0.6623797968659314|-0.02236550787474132|-0.004023735887791419|-0.3193178274126959|-0.07391982450618047|0.7663397932290297|0.8368943965282687|0.3169102353058028|-0.38445458287221024|-0.5082047559523701|0.2847155801606416|-0.3080068836024825|0.9841462088050525|-0.6925826512114468|-0.6507866580594657|-0.22913119693178663|0.9509198811269228|-0.397856790898625|-0.48639416333619034|0.8573949967536509|
-0.07705423642429028|-0.9582429513822779|-0.22130254370353855|0.16277431248682558|-0.8790769091949686|0.42277462424551177|0.33266919505367676|0.5284205909635242|-0.20754922068458118|-0.9868076389657182|0.01551437093465886|0.15805353792888277|-0.8305651749840715|0.024974905542248793|-0.1503243248316133|-0.6544707268398544|0.9402576129924294|0.8261727813782167|0.6810791252206265|-0.8420291252900027|-0.8517070185705424|0.03420936909903645|-0.5488088224436216|0.7384661452942843|-0.2662038584244437|0.5168254445142565|0.60872990191339|0.7544962187753804|0.6705099569118785|0.36465982162889987|0.44427267992214936|-0.47817287723133495|0.19320359716710023|-0.8579464318995658|-0.8733154070268625|-0.9343301401009876|0.05166210784105263|0.5433977550207953|-0.0861270411428543|-0.9564316311386805|-0.6302450556248698|0.047119304278716446|0.4225539319646351|0.13308328712156373|-0.4141429155697482|-0.8650606047758426|-0.510158895824731|-0.5536435498982801|0.4941925779494281|-0.18116241471597205|0.3596116279835035|-0.072773035514627|0.43732658113708167|0.6469682990950114|-0.9213928597004168|0.8558452531148966|-0.08309978666698048|0.8898281880898748|0.9951097512903688|0.43269161038563775|-0.28408669158780664|
0.36591814693412306|-0.9899921577204345|0.21443371047155318|0.6352505243019316|-0.2567294249722927|-0.5937976025354741|-0.2199924023340823|0.03499464392308412|0.6056512818786763|0.058264861413758584|-0.46333874805328623|0.6787238432750873|-0.006612147725335804|0.9082174363049844|-0.7590609290502675|-0.6320156549181655|-0.30101769932580513|-0.9211278590283989|-0.4166138773219821|0.9851428479690418|-0.5231876194793035|-0.48795395599622116|0.5315309220073868|0.5434013649616218|-0.03258154414372567|-0.373939363073951|0.3317214617080954|-0.6279654040523455|0.9818917559714097|-0.5427914896266923|-0.28628080409890744|0.7528605551301217|0.20064005629484627|-0.6884696089689524|0.4625334654524822|0.4382819422252364|-0.6665058564498623|-0.20043698981488967|-0.5872569587775456|-0.09278025682859847|0.6207780716498994|0.5031719664883103|0.2270042915632473|-0.44259742643846384|-0.8006761869706625|-0.7341817577349492|-0.4303326069789467|-0.9025937502923173|-0.9307040734254473|0.6015493622305234|-0.20607134491643103|0.9435053019526514|-0.5651306926674189|-0.8624464810157191|0.5934960918407504|0.6109413198999654|0.6148217705239511|0.8195305343080497|-0.20777906138515645|-0.9504520496472453|-0.7063337412404176|
0.28541133439630306|-0.11747045823693902|0.4415759357339689|0.221460209505303|0.6481441419224596|0.6037664661866755|-0.7562553682656303|-0.7667201308453498|0.3543019303317262|0.34017538774157513|-0.813063090532657|-0.8544297874227227|0.12522027559079363|-0.660434944642726|0.917966214365876|0.7322210168144883|0.11848550918630085|0.7204556026517122|-0.7681895050866252|0.40856589363915274|0.3089387887021171|-0.3505854418090124|0.37907811271798014|-0.9077221651618738|-0.43294381624336514|0.47913954757517335|-0.1354897311381073|0.34419631180762233|0.48492592460938605|-0.7486594562356772|-0.16575968796845164|-0.009775783131840576|0.9350941821715169|0.4061670297539197|0.38584995250087495|0.7328515843094014|0.0020677667571582514|-0.9728144984215135|0.3609716374532226|-0.5988710236953549|-0.5607315727237732|-0.6740394583563258|-0.17976350917108538|0.2667207136072323|0.09656377022571462|0.2263374573753207|-0.9063506199760641|0.5057351215422403|-0.5058126742808785|0.5769658584430116|-0.7156842735086673|-0.24953046060333595|0.6172628243051153|-0.6893432048976524|0.5287581288420264|-0.27191265253436203|-0.20675506218535444|0.826369586391404|-0.13386539747461068|-0.9997482210153676|0.029775306882749097|
-0.06775846892363033|-0.9934166325112366|-0.6265798497910013|-0.14182434603304753|-0.11192491722586738|0.5090665017122321|-0.10982247212329475|0.47748660201598786|-0.035980581376614744|-0.9731448141940515|-0.7591591943064602|-0.10683218772100567|-0.6653808082454817|-0.8921739405107758|-0.7031959487639934|-0.5309435555431901|-0.6864694706442129|-0.5071628635810415|-0.09912707292440515|0.14248114563229142|-0.3146686003882244|-0.2715614753736336|-0.2804005119173288|0.9668035193571111|-0.012985793184902077|0.16621899027731463|-0.5747372690291893|0.12881447420983755|0.5175732333179507|-0.7154289804081575|0.7106238167886755|0.177946076970932|-0.06217285952596607|0.2052168150274163|0.7246215206054281|-0.88345761679259|0.6918075762347307|-0.8910542185450572|-0.6529942426536246|0.1352318654883089|-0.43775998297065244|0.7732455483338749|0.25440236452841364|-0.46916997164038887|-0.16109533897280395|0.5772590519034624|0.515695411831151|-0.7023989882451523|0.3102350206978725|-0.3464591895937373|0.8743820532317913|-0.868815507230541|-0.6050955605740436|-0.19583775223330946|-0.3112188997236338|-0.9944734444917243|0.013157152359597246|0.37938730340146787|0.16632596238268826|0.7128684646376959|-0.7228481282373147|
-0.5587383200716732|-0.22534069283850844|-0.5352616007621959|-0.6643638694130143|0.7624210278154715|-0.39468596690179913|0.7854345762968356|-0.5585920854680487|-0.6635913823372258|0.8475422192011791|-0.2947905174265284|0.6676919768607013|0.5212891123133783|-0.21845916756095218|0.31224953358273444|-0.46440760508019396|-0.3154653406226524|0.1433384419024586|-0.708093583431042|-0.8329381539514022|-0.08947612616796174|-0.3440031349251023|0.0801969285861979|0.8355445702370118|0.7038366099031107|0.45708492120190547|0.4416449332070713|0.03692541791224111|-0.17929571289991064|-0.44624208566975454|-0.9010782763766938|0.590772834095092|-0.09489127472960823|-0.13932446063695036|-0.9233233786117698|0.8243059287855292|0.48714190815655023|-0.22364944077763194|-0.7911851259079716|0.10062266705373468|0.11070879152406077|-0.9400315177541745|0.4025161161151145|-0.003961489656203105|0.13496056693032582|0.8471489077358277|-0.2946781647192075|-0.3836793437892189|-0.16691379838417614|0.9533075832732671|0.9219700605578072|-0.6754383016945846|-0.20537155554687914|0.6238706942997907|-0.16236594871298893|0.2639729541635809|0.49530183464419286|-0.5658186068822004|-0.7741869197328914|0.30143146036580903|0.5550244608070827|
-0.727950445790843|-0.20969351790088372|-0.7105800551163126|-0.8826906192859021|0.9718099659242567|0.21651320243142547|-0.45227996975212115|0.49358399271560505|-0.43838917197812377|0.02762657817416895|-0.24486441885256646|-0.37537965828702236|-0.9754965688660202|0.5637534060629941|-0.09851458747148545|0.42397698729372735|0.7117411214293132|-0.975568210492209|-0.4366676567294059|-0.9493472009889412|0.15197251255674682|-0.8666306739356666|-0.41959356398396264|-0.7121297903292834|-0.7861221422521726|-0.33756834967771093|-1.0002120854985108|0.02040251409482759|0.2725751618175714|0.2619659315079319|0.7814525038301816|0.26916043216744323|-0.8204941338541991|0.9845346460349409|-0.39717929458320933|0.9252340201418343|-0.6206837529706128|-0.07408681931514849|0.9918281946769392|0.42477983710595213|0.6571704401548046|-0.4388483996349665|0.5088420842258523|-0.7262475887296611|0.09171765552154991|0.5630063627651511|0.40212858649151584|-0.31742475068123444|-0.19957324121371436|-0.2879107168619848|-0.6518645160726229|-0.9673684591917455|-0.7342898494606316|0.2246633711688053|0.38470197676346807|0.33738866663869405|0.7286006714169995|0.9388530578106575|-0.15485026038593142|0.848594673425566|-0.8587100070173734|
0.591614448314963|-0.5780915006084273|-0.8618204084470974|-0.3887219991658766|0.7393241473817573|-0.5068965570347462|0.2186105773827874|-0.04860575296691942|-0.37787662723144194|-0.20930118722755683|0.6564469970511527|-0.44072301108233103|0.7560492639487773|0.47115915792872576|0.29584652611628814|0.3392149274877727|0.40831570837757547|0.3004822197452379|0.7061507932420934|-0.7360186441888661|0.632166093802673|0.40681375436357475|0.7426311339126466|0.6786112185332526|0.7681870825882595|0.7218238476578338|-0.6961820971261522|0.21014917945498215|-0.6519249226214878|-0.119148892164364|0.34167926533279513|-0.7564873029302255|0.1058778511772771|-0.8729454593041162|0.9535044268684016|0.32265998582879374|-0.9730193254714967|0.03530312122596624|0.7344697208393676|-0.8621933399140078|-0.14762365554735957|0.6282953757516737|0.6885402904608612|-0.5723362439843249|-0.3113862368671104|0.6515177894449841|0.5075160218261892|-0.5477896007139672|-0.3955041475671353|-0.2549893783881081|0.4711641469373736|0.8935839640616252|-0.5047018534762135|0.6350886103356648|0.5761533462158919|0.9463535374661465|0.7677088481168104|-0.6092622859930557|-0.7586555192602424|0.6490326513621514|-0.5174401036693259|
-0.35176944784397113|0.9240551222919504|0.1505664071381903|-0.46338379656815865|-0.386686695842301|-0.8588574637423894|0.6536197185985325|0.8416018559144575|0.4234432239916036|-0.9479719994967313|-0.4025163399070723|-0.36780502700293205|-0.09024467875863329|-0.39159660668019547|0.19860196765129|0.40824290618049774|0.5732925819459223|-0.400122054915107|0.2780138252909967|-0.23898653260815572|0.5006290602858268|-0.3633137200695669|-0.3538833332335887|0.9527898790095113|0.16644483785268369|0.8093367708470752|-0.18431690792570612|0.7302537728641546|0.8732105974691415|-0.559448878609951|0.8911800898288444|0.24282483239972597|0.1811693521233133|0.9482288006626816|-0.6739376766173664|-0.2574143812749359|0.8532796987565676|0.9238707720049064|0.8823608860782499|-0.7992716613531361|0.4754987033914275|-0.08397634930850355|0.9115362535865845|0.4715883170616962|-0.2762608971516511|0.008092287791374945|0.04905418337396801|0.42916054415999805|0.6629404634676624|-0.031840626733552445|0.591176053438086|-0.39907981037720197|-0.06635942993568689|0.12330917547484077|0.658452952106237|-0.6900720869022048|0.0326975534897862|0.8457498711119367|0.7517941630663105|0.6483296155754905|-0.40753874974972515|
0.8805937375931309|-0.31600340182160985|0.27788647879128203|-0.5585282547778961|0.22200696983023924|0.5053991924142623|-0.5772684700728447|-0.2860653732526057|-0.03072586821912984|0.8816589926747608|-0.6387605296011067|0.8483249298341242|-0.6700781631089257|-0.869025707354026|0.5208258745732917|0.5822881918681597|-0.3511918294329641|-0.0982165392177412|0.7095639209322424|0.6262695304279058|0.17052672267326785|-0.5147504969733423|0.40462975235369775|-0.2531685216635038|1.039584542958507|0.6314245820735713|-0.7783026020408276|0.4357546282868399|0.705463729898028|-0.6976747838469644|-0.11872525877924747|0.8762325220428742|-0.12478308847151132|0.8231040815994732|0.42165499188131417|0.7869428264115326|-0.3518967404225435|0.04377981162939615|-0.7078705687158051|0.7826931823893888|-0.12149811678682365|0.19463858305566134|0.3349387241608764|0.12596536188492613|0.3850241076980524|-0.04566139317492344|-0.31843284278259376|0.4163029478349273|-0.02074365201077813|0.17260495119968003|-0.11869867180058984|0.7573287492710048|0.45628677765203673|0.5531349528760263|0.012197343014736628|0.9905814053086159|0.6694416647062407|-0.04695229145092106|-0.24703095320612167|0.11039989840453379|-0.7296465011076338|
0.05401938200652784|0.5663046089609535|0.17936753749801604|0.16641536720922498|0.9422198861911298|0.051274269723117896|-0.05738475566231322|-0.9595542202347235|0.49221533721587635|0.5137110681928457|0.2347102507533396|-0.08548226938191794|0.10102508779315689|-0.9824541080217952|0.5960847373242137|-0.25654720351632476|0.05080849823142586|-0.8140228516179542|0.11423930445758823|0.9636170475610333|0.49643736159000773|-0.28586148993310656|-0.5059966180631545|0.035714621982128575|-0.9081917570053457|-0.6013636408440098|0.24706486021577492|0.7282821848539894|-0.9179056623949978|0.0074796162672601165|0.5006302019990216|0.62129181063642|0.977835827515066|-0.6856619483460862|0.8528107324285745|0.7118353123606067|0.9256102602846115|0.74739745425492|0.8153519162235623|0.8153877125630256|-0.017624049228385008|-0.8482128440093103|-0.47187182589089804|-0.7142251259385533|0.5045376488055758|0.10864503335940004|-0.22926175897783396|0.327807790103707|0.5872811803759502|0.5875293937291526|-0.19022677620109288|0.4811824818358206|0.8182331243413781|-0.17734109327221814|-0.3463197130080231|-0.664563809765204|0.23954134956718387|-0.40998221664191736|-0.7445212186761558|0.7820726618098293|-0.4918632873947302|
-0.21354881467394243|-0.22968057292035302|-0.6100976545828553|-0.4372878818624045|-0.5216929623954397|0.7106551367811486|-0.34756922609883484|0.24600125735433495|-0.5586934405579792|-0.33672806244672904|-0.3247337985756123|0.443233754345322|-0.40121734418830113|-0.4342302579747299|-0.30109815397987694|0.9981084868084673|0.9635961129501032|-0.9927000451437584|0.8467717083877417|-0.23380552337516525|-0.875574385523666|0.9104248524099954|0.29447481239515677|0.7683329580948987|0.06918400332468941|0.931771237699843|-0.06111118811427554|0.9169563434359669|-0.7841109648860558|0.08288030959909619|0.7671558638725148|-0.5764215629875189|-0.899751702333345|-0.8671978598303067|0.22421782115440148|-0.4916961798692996|-0.6622200109195684|0.6295837967600006|0.8676197548549736|-0.9147990477288301|-0.950063971035213|0.404948075902291|0.018307462975451428|0.36533407145861585|0.19005736764784908|0.09985302161127828|-0.8228598277370539|0.7124289813687084|-0.8442322879702301|-0.7712482380027966|-0.5759186649477901|-0.4301807376213498|0.14359536281200214|0.11488050630820235|0.4355318321824668|-0.4924130409962295|-0.984890486982857|-0.8046174132030424|0.09300091359417584|-0.6490007615339233|0.4956633428266388|
0.18757022770192985|-0.8070345585576111|-0.5284755766064748|1.021623360103507|0.8705317492436802|-0.05706051712075388|0.6203242797092396|-0.42718218043444556|-0.036135387940965|0.31021693557955615|0.23454318493357884|0.9364111712985421|-0.22973857756396754|0.7602340463861048|-0.08278661584020353|-0.37447730580613037|-0.9765389305544652|-0.7053765118557587|0.5266547442822029|0.0423812370273553|-0.5041517006015017|0.15227999678549045|-0.9871540445731816|0.546227753857766|0.12099851966251102|0.08166732407781525|0.021312565578717482|0.7370477421449179|0.005521770583661078|-0.14497959905905008|0.1867642086479699|-0.26082831967107456|-0.4640814292088602|-0.8936550726034123|-0.5434585719868825|0.1301092919039366|-0.4423996104301531|-0.012977047179575818|0.5022759342345446|0.6025551346419056|0.3669275872549118|-0.7392571129862414|-0.4312705777853897|0.11396280124651241|-0.7618226338038171|-0.8545806395062484|0.5313500353838946|-0.38932965080501|0.2909687717202794|-0.2622575821293534|-0.2954496604911134|-0.8013154391664035|-0.4718992566441169|-0.27615894810022135|-0.04934476972480817|0.5106882843909415|-0.03462907640141344|-0.9678628132167146|0.1636025281419362|0.08256991748929443|0.9145537650206517|
-0.7387156777720437|0.25288131682914794|0.360671061005922|0.19026702871890022|0.016407129142501187|-0.9268921731881918|-0.7783354805041937|0.6674686782317552|-0.20773598597472248|0.87481719071684|-0.8240016605216397|0.16104002735177025|-0.062374458047971926|-0.42815764192682426|-0.8168885028890029|-0.5325785608732387|-0.9298219792912015|-0.46095916525797764|0.10712425346694432|0.4321566975720734|-0.9458391066335299|-0.4702575233400835|-0.799434121459489|0.1072897304154236|-0.9543535174948411|-0.5701939649014053|0.24998699167100413|-0.08918471607150556|-0.466770778100107|-0.2644573836987175|-0.872249628378086|-0.1285791337647597|0.7324291608108342|-0.5238305594554169|0.3460246422024966|-0.33971468833626406|-0.32690067874825046|-0.33196998777951814|0.08978739650828227|-0.8410843096585778|0.12373477379813536|-0.16205508845842032|0.5820638314326583|-0.8807773968857945|-0.23604216833547084|0.5752167764520997|0.024188261207575834|-0.8875707998310383|-0.42992009005820003|-0.060749808998574455|-0.816195141458223|-0.5618272713605843|-0.12499405502177074|0.3296011547169111|0.9631442671762702|0.160157339705|0.884542298000117|0.4293249061979245|0.4825437398394665|0.19069655650907702|0.7393978332941924|
0.5215565630057594|-0.8480610933632895|0.5907353798612212|-0.22139903863012844|-0.6223493605480415|0.3107946375658202|0.6700095499139008|-0.8630880238981465|0.009228759780584588|-0.8424259411496982|0.6927078753724769|-0.7234349887244773|-0.9361882575564708|-0.12406130277035698|-0.2279524649578888|-0.10978573932819824|0.9759859915170228|0.8984775728197443|0.30998188869786825|0.26585634699052973|0.4661432181510148|-0.9206048513067884|0.27809858779279323|0.7571759172539777|0.34311121989976257|-0.4925596266005264|0.14408747332032007|0.19350546722555595|-0.8151030246705472|0.04891233216147846|0.6051788513024328|-0.3715414293312109|0.8600411060347679|-0.34507235222353505|0.07817246534986166|0.9552373368593405|0.6445684010863886|-0.024420981804518016|0.9040445900810381|-0.9668098014503477|0.9132633110386958|-0.36455345703136194|-0.410080158892016|-0.32107975277604556|-0.7062845610338981|-0.41515463928138285|-0.6521520305153801|0.4270752472829873|-0.09549405503786337|-0.40318014401088764|0.4897248792779527|0.9867247234081822|0.8300503766703999|-0.7783560326242434|0.841396356695334|0.470080695660678|0.2392059639263291|0.33598066897593726|0.20506841143789445|-0.8664577545365066|0.9848648683208412|
-0.29646955850117135|0.7785239266705788|0.3703676579236006|-0.051772467046429134|-0.02299888216202156|0.8108050322140243|-0.5251828953452792|-0.9700323447158469|-0.8726974691405232|-0.9385555366879933|-0.056684688091643544|0.14643571778779552|0.009629472641467851|0.933988618920504|0.9642678121721604|0.436989555588011|-0.20623851756907596|-0.03712716361254631|0.1070306025294856|0.27628335588569897|0.9601836475256647|0.8030524967627968|-0.005311941380682406|-0.030992266046061326|-0.7815369482681694|0.3573418419359146|0.7037973767215151|0.2931395817177139|0.18563478130459823|0.6022581846359644|0.24357475280567467|0.47026151201392996|0.4816643406691905|0.628916849277523|0.27712940107524875|-0.280758887578648|-0.9242162219907466|-0.6496488995598506|-0.1903301374671309|-0.21000976437716634|-0.813483453854001|-0.34349899480480134|-0.48713491653394814|-0.05577665828077516|-0.8810999436444846|-0.5826967729132682|-0.43463879088692825|0.06918593234200503|0.7665843734054335|-0.43615955061384587|0.3837275950595316|0.4321771306162976|-0.8182420318264771|-0.9696524695355735|0.7174497449795063|0.7039892808523864|0.7438564943524557|0.4036851724792154|-0.5388351702587091|0.18076720674209712|0.4067364489629124|
0.9243210624375402|0.2872938101069888|0.408287664952362|0.6994381693197066|-0.5587062684939501|0.19183917712161896|0.5223654378605577|0.092834888347303|-0.4681447263475929|0.6589557146296411|0.6925231992601285|-0.8257429598286772|0.17198035970248848|-0.0010671491277929324|-0.9618456495317511|-0.257153444306774|0.6138533748871293|0.888018584775589|0.5137760117919341|0.08155940698813513|-0.8048997004798635|0.23644872148010554|0.2427078721529042|0.5082473914764664|0.9935785903304969|0.9539138280348601|0.9385340699980205|-0.14837059502083513|0.2907774687166583|0.6999077164530231|-0.6882585275086766|0.7087553541944529|0.8762941309359586|-0.9940073770302957|-0.8963456014707123|-0.9518124024267336|-0.5870995456041543|-0.6925249672832432|-0.6536239875905148|-0.9852010348162374|0.04276775639797736|0.382798526679585|-0.8539357283026054|0.167491518005677|0.7898558341704559|0.23361219651223192|-1.0599067883531004|0.640890335893255|0.6832154885770515|-0.2758023462307662|0.30152035539547534|0.24831697685710097|0.8447365745502635|-0.9755501097885093|-0.3001534340477463|0.24756456503690583|0.23789145228158337|0.64039394369937|-0.5847557415433631|-0.5961443307017291|-0.837616665038609|
0.9310709943695206|-0.8546643926243195|-0.4841908464871617|-0.3098896449850223|-0.8253238590396929|-0.011020783831686988|0.8967710355281799|-0.04769554526074353|0.8172646991676094|0.9897091593176116|0.6372463326567028|0.6383425910103953|0.9642967940383558|0.5854221572308314|0.5653795019183063|0.6074259182333686|0.29623489000515746|-0.5064430000678528|-0.8969309652330009|0.7269431724839852|-0.4374347808456256|0.6107169378232264|0.8466970498596749|-0.19797727976312782|0.5846640336966396|0.06705135220780871|0.8052946205868989|0.8821133485706187|-0.026166544785986554|-0.3805645291265797|0.9253519901364429|0.21021930726088311|-0.6932329617466144|-0.7039250453541577|0.8249329063081599|-0.7899595834812361|0.6409044621326181|0.07869344098205233|0.22963086299898006|-0.10863398943019353|-0.4430255729251884|-0.8683977418163583|-0.11031139576349262|0.6918812748507345|0.5760190219946494|0.5065596069325777|-0.9916714432418691|0.28572956388074705|0.30562897741654405|-0.6007736285937434|0.03535350351416073|-0.5342118347227083|0.025529483329858493|0.9999682078034389|-0.8579170329018888|-0.6192186171434728|0.9382991853167577|-0.5208730731580424|-0.3969116632842231|-0.056974294736027886|0.28515196368046825|
0.9987290700928942|-0.44751895789756013|-0.16758522352589758|-0.08249000321147502|0.24929033663090788|-0.5813421537484653|-0.20740669252609317|-0.005524932852439318|0.797168977838114|0.8541015021652651|1.0121319080300224|0.5618995224687902|0.31122623577089703|0.7554725945180722|0.5316830929638405|0.4489547767164648|-0.41012943836394755|-0.8167075854085273|-0.6904297355220588|0.20822433838976862|-0.8670616025908429|-0.29164989344955133|0.582321362961738|-0.905162693212886|-0.6092503046079352|-0.7821860449853685|0.42015998530348264|-0.6105401734726595|-1.0189728928951691|-0.28112543385804145|-0.6979668877052824|-0.923458340863168|0.952381027401678|-0.6777567384528456|-0.8961614425877296|0.5742907521734155|0.17904863343057142|0.6579761466145384|-0.6703940756626421|0.565146621332328|-0.8702747538851816|-0.421170158482085|-0.9399215204523279|-0.12970468173530328|0.32263013252577866|0.9301725255776201|0.6407424274061434|0.36708988951917637|0.9760178938468359|-0.49724371262458383|-0.4011110650977625|-0.34478550291839505|0.9399076986687664|-0.7555182038786421|0.42320474101566385|-0.5474832224125497|0.8538673448176926|-0.37002555677549087|-0.9312220529264545|-0.8967837583233835|-0.6664955133800827|
-0.6193306229413281|0.9170550420291954|-0.10161742775828109|0.39212732924394783|0.6822341131218131|-0.5124182852900223|-0.1472738955065487|-0.299018599821831|-0.954938905936532|-0.29206468727344415|-0.10180206183572439|-0.43731555129785127|0.14047504206381656|0.46923636678725833|0.24234663318831529|-0.967537823701577|-0.5345738570731238|0.6532331961898941|0.6307324720872558|0.36650775429298754|0.7497024135441823|0.11626439004862227|0.592519947041196|-0.05799703564872962|-0.06071665108349577|0.3397575853262313|0.028462752439344666|0.2897864318677441|-0.5364220072229737|0.9144777946905572|-0.48835071925884516|-0.16858260208503317|-0.5638247935711618|0.004895181379498403|0.47324176548749675|0.21880200402619643|0.7881266730262595|-0.4055975954142048|-0.5634601959812113|0.9222371453487852|0.7475619155445348|0.9691282947268175|0.578973910459918|0.30300753533591446|-0.3157633169675304|0.4781587818975008|0.4818976990538537|-0.2926322520210647|0.4456946801668782|0.7904536410069342|0.6168961763842638|0.2977719249994377|-0.7738933734510665|0.7685360468233375|0.2959868006634665|-0.33896686543344123|-0.15847207184559609|-0.6065069164331327|-0.8612270644401208|0.5450648768378838|-0.9789454728431854|
0.280007968046897|-0.2214002023099049|0.14918174990062977|-0.5525127102185453|-0.6160337655563127|-0.47782422287129916|0.7597235844831078|0.7903998184570931|-0.07545307610032556|-0.480927682192272|-0.7514883230450454|-0.9607265440305341|0.4926221880937687|0.23497573991871135|0.06934991583872363|-0.5112901695009626|0.34103731461795883|0.35519727362021825|0.9635617560988368|-0.31635772936745243|0.07112169569710702|-0.3853215046782522|-0.8359320554039228|0.9432991480839803|0.4389545235893386|0.8595567165787217|-0.14210963776597133|-0.5265371624178479|-0.3840781503169882|0.782691378295214|-0.3727152861595985|0.9444550600673782|0.3911778612068957|0.12366676608626448|0.4776812240297168|0.4819767847712719|0.8662924002787213|-0.2698808242151387|0.6809831549141101|-0.10469103267157087|0.3915574242730222|0.6250402029584093|-0.6026256280139175|0.046122434926046785|0.4567385024020953|-0.09382268402389467|-0.6502141852873627|0.44050220486806496|0.9475385184743441|-0.6265352864050537|-1.0628282861470963|-0.45939505187055674|-0.5526629378211354|0.29724080367850303|0.5541856395460438|-0.19244018617954461|0.043243902836074266|-0.692083154258818|-0.690452869568924|-0.4117623522807956|-0.0688136153139538|
-0.6117185390010477|-0.06083661171672636|-0.18479506380238514|-0.6697173754567208|0.07454736452678741|-0.1519711951290885|0.5993941054138402|-0.4507677336261154|-0.10026119880714637|-0.953440507095751|0.797567307483547|0.334301895445021|-0.17842193403632245|0.6987510804797825|-0.602766803456056|-0.07558475515533591|-0.9891794414210031|0.7308404621351201|0.8236248344471278|0.8983841440119102|0.12263486603153972|0.7197122918115331|0.3745710223185162|0.033170581200830454|0.9369821117521651|-0.7190955270166841|-0.8167253895665106|-0.6013416319493627|0.03270501533189009|0.3900451932243381|0.47899768451637026|0.11747650007511545|0.5552444546658459|-0.8886020165122352|0.29748346478693044|0.2506408365199808|-0.9413487814091626|-0.4271081656492628|0.06753259478078077|-0.17591761107263149|0.7673325731592107|-0.9397764679696338|0.23085353685669593|0.8775116805733016|-0.3532162715074488|-0.2039424126652495|0.33809440113709766|-0.7363195383805927|0.3729959708672189|1.1830208630461168E-4|0.8443561466184928|-0.9875041025685358|0.17125745983703733|0.6736877663327436|0.49819528262183543|-0.22558829529731717|-0.43919872535628457|-0.28484415420615905|0.8475108699419378|-0.6649852558089633|-0.09491433191481091|
0.7010373215210102|0.3346617228778373|-0.10189794543700459|0.8312892609578594|-0.3247444201360356|-0.2715106905997828|-0.7971208517131454|-0.01841016707685329|0.6502551074325398|-0.22537596853942654|0.3525166242351821|-0.09201987717679816|0.9559419127419067|-0.9533516952511083|-0.06364220992416092|-0.784176997966118|0.5658526204653493|-0.261951267949748|-0.7442545064790296|0.38423549500013965|0.17743769798965525|-0.6923927696693715|-0.5189747909879098|0.5072903587629275|-0.7518881144098907|0.5957934946481726|0.5680676381572168|-1.000513387503423|0.7565848981177992|-0.7096489881209519|-0.9084574402740774|-0.22643100817123019|-0.05371996101999099|0.8089463157583643|-0.051117937346781384|0.0715652867290204|0.7018125610104913|-0.5782588333015588|0.4938878517296217|0.328009641426789|0.004204934855864151|-0.0562323826953353|-0.24005118051803714|0.9802547193416586|-0.8699839694317104|0.44595395394145987|-0.24907294551597897|0.07623010244383205|0.38072165553365195|-0.41340255115264063|0.6235580816349168|-0.8040191725869359|0.19318841806518527|-0.7101715456739881|-0.532083900952034|0.628879454082033|-0.8808219425105088|0.6843877006030659|-0.14762772052645134|0.7039507157869669|-0.8211372033169315|
-0.03321620764464016|0.34634455740607434|0.5022009871164212|0.33351658077854646|-0.23724295134419557|-0.08834996621357841|-0.5444120729456848|0.9223426004583798|-0.06481526361721257|0.08818753996864179|0.6857625957123602|0.9615331452356743|-0.7168598706786908|-0.02678059574102143|-0.7855082035672012|-0.1859825035940561|0.6260653845645199|0.414576873173901|0.5722410736947838|0.7913796936256048|-0.6828437612645901|-0.28030856107519403|-0.40952055873478826|0.806976264580648|-0.4172061453832226|-0.935089592786309|-0.4983331446864749|-0.392072366431858|-0.45952244829469213|0.9157688770997179|0.006825530412873696|-0.27736390396468824|0.7990699178156766|0.7295982576883437|-0.4962803763619321|-0.30489058795953805|-0.8934512771072152|0.4625871226333922|-0.8778845808924114|-0.8510120117295137|-0.43333993466820453|0.35529904094082315|-0.9591048283995445|0.48060740258694556|0.5996788925122863|-0.9323712035298493|0.08132424420784341|-0.7457532301404846|0.21753891696425645|-0.8259785694224993|0.44898084779272246|0.8322341952017538|0.7005863907369265|-0.2341278385328882|0.3412845065436223|0.9268591542782774|-0.5077249947188729|0.015803171582195574|-0.06436907118514412|0.5993037590179842|0.6455882123558048|
-0.7402546453569833|-0.6701234436651826|-0.6486118362888854|-0.997009145539621|-0.8075690013671154|-0.24057690324472883|-0.14697899073709741|0.16228027898981842|0.14305769707273708|-0.5307414502244271|0.5689690913242217|0.7803368709377285|0.6853698405344015|0.5885559721317739|0.7085112921545091|-0.8666156452441305|0.016567575886180297|-0.4393559100333564|0.3874606683201154|-0.1494317343807281|0.5415328175411929|0.28297318303262686|0.6836236404429091|-0.9282636669573259|-0.9057755329733068|0.03251054537412581|0.3759507240956234|-0.5566696371264654|0.7140266822399571|0.7591836094428551|0.04972850109437065|0.6205988887534315|0.31119010212383635|0.6181360549371067|0.21652680274557068|-0.3268111624463801|0.9414388441329018|-0.5700810408174377|0.9557655584981473|-0.6683696130154277|0.6725365708291451|-0.6385814255498207|0.009722937068908359|-0.5885798300953781|0.8650234794408374|0.4969437053539021|-0.8634515858649416|-0.8648044004496569|0.06313282823196202|-0.39778282223027606|0.025124455598791205|0.5027022371368319|0.17141487289653012|-0.718227028629741|-0.029805192177587925|-0.7212437126792293|-0.8188103599243037|-0.5691271169943304|-0.809912263713755|0.5944523688222827|-0.22109513663267522|
-0.3123527719169459|0.6131175297383462|0.16986625310624398|0.09708852072371663|-0.7687356808885503|-0.8428701702718522|-0.11849506755266896|-0.9397629256983656|-0.27334110710859527|-0.24214736099890585|-0.13572172852120076|0.6439157029790983|0.6951715962885243|-0.7737467540453453|0.18011970892991425|0.9095608033597027|-0.9894592068671821|-0.9746037128969909|-0.8679070241549796|0.6189110151220341|-0.2272155098191686|0.3885665710625894|0.22627282029176618|0.7272473411579702|-0.6054717581215212|0.4322326950936377|-0.2164522106035441|0.3328739131275306|0.31677633924279963|-0.5197576045252748|0.3845965813342557|0.20734860323495719|-0.9866546686127391|0.16649565366593633|-0.48304633924648455|0.3502567909474077|-0.4070802817236039|-0.4564372854666887|-0.05518098413015471|0.8909519868512064|-0.3842035960166452|0.7993417566965596|0.718840440031592|-0.15506286110857403|-0.5381655267195984|-0.845714771915169|-0.9751436138670488|-0.6094363228226924|-0.806509608704476|0.8971107534083339|-0.4669632556691928|-0.31561658252645297|-0.4872675543242564|-0.38695627448925385|-0.5846147279210632|0.35361966050820803|0.290931809565252|-0.7702491677045524|-0.30703921345867125|0.46770286565042984|0.838166961454281|
-0.4987471873423019|-0.7204805171332073|-0.11267220859809633|-0.9424219690387342|-0.5339413508500663|0.3223520829646987|0.6087309948604731|-0.25152549014842945|-0.2925223226015461|0.770082688139289|0.5730645965800015|0.751378340712741|-0.21083047367274887|-0.5460630447309913|0.008873865247469803|-0.5871772602746408|0.39941618460872585|-0.47344273703551254|0.2762542474227805|-0.9986407105857513|-0.23636165935299291|0.8674951177906475|0.7022920641680155|0.7946510481312207|0.022844836502072606|0.5304142540075948|-0.3891117042379666|0.47321205603840966|0.6398497328977585|-0.027539901502981624|-0.08256888329944147|-0.6539367016008086|-0.760746585871168|-0.7735747355330149|0.6447848009939356|-0.907109248466692|-0.033856322229956826|0.24688228399255818|-0.36003295745317687|0.5514229248836056|-0.06854703144572083|-0.05479623201926859|0.5102022886818098|-0.9246699361647738|-0.3831344247812499|-0.13591639750001852|0.12879976695686057|0.08783476853773972|0.27112596098935193|0.1386068358237709|0.2852179860962117|-0.014667310274656176|-0.5703327034060162|0.5709691315786936|0.011029419955363329|-0.48098051902461325|-0.3087474990457697|0.3787695358804011|0.899732821125447|-0.6468692775932805|0.2580831348542052|
-0.9124704229791903|-0.7148315650998431|0.7603824759039327|0.19115806270373684|-0.43455957012348895|-0.05019480373427253|-0.2546585911332123|-0.054473062627385556|-0.36662362790043423|0.7716172505928612|0.6625453175051719|-0.22692394063477717|0.20808759768250806|0.684529105752361|0.6845652929974668|0.8393020199685253|-0.031016718385326936|-0.053218810828993046|-0.5039094811977434|0.32676266253044406|-0.2249249320788258|0.4774414080808747|0.43343739779194596|-0.954869990694865|-0.10752598379804126|0.643606688521005|0.9197291054297212|-0.33595137245922574|0.8579159183423487|0.5434710080912254|-0.9924664451133374|-0.14814724883664288|0.01719736932585425|0.8094482787303334|-0.6402704327227626|0.7593352430566467|0.4747092807346973|0.9261278038382397|0.8589765034726087|-0.24977059274112667|-0.7751062407166374|0.33827296598608875|-0.9190289631180676|0.09607931990611729|0.39924403196795777|-0.8106376801014377|0.718485763983261|0.6599663102229342|0.7112174444905137|0.8077332541299349|-0.8817238174141622|0.4620064321452335|-0.02035407166869585|-0.8434845017775117|-0.9423778023739249|0.31989887495546543|-0.03243110012550354|0.8092108024134135|0.060602958234912796|0.6577871163438276|0.17098862967392248|
-0.845616111822731|-0.46052297025836286|0.453078153447381|-0.07202619298105949|-0.2984065026404989|0.25253614856386086|-0.3855347133085131|-0.5159601211201262|0.8522952523515335|-0.9403245804562722|0.7973220279627387|-0.07225284981498814|0.17677729840455259|-0.8371968954981579|-0.6534164831383953|-0.947612640343273|0.7862159705204925|-0.11835761347560658|0.4486206319184647|0.8741696141225959|-0.17838080872007|-0.5216233019167217|-0.5814411558638217|-0.46048184946046133|0.06573741958677354|-0.907633033742592|0.9087225150687644|-0.3160506543328156|0.7274685100103097|0.4589189856865968|-0.7077696838229343|0.663111220863096|0.226847206132746|0.09516462657087099|0.2440286627321211|0.3862751738136039|0.4930445027147974|-0.9916333331732705|0.7374492535563391|0.2567523968584544|0.3581463146881818|0.363082965366795|-0.45507660118742044|-0.7137318815135795|0.7550285764828415|-0.17999416911553695|0.6289960757777333|0.35641802309830417|0.18261258417129447|0.5236908957940746|-0.4008235497053557|0.7438919000662452|-0.5428335280654728|0.39959733072669446|-0.16995761398502562|-0.5175900375132481|-0.03517028345387474|-0.9701305684366457|0.8268092327402532|0.40970381015186996|0.10997749878775465|
-0.46075260410426205|-0.7075500206346341|0.9649908428273826|0.6373335443343789|0.4766184408857578|0.6393845794665092|1.0195974394349352|1.0322682397135947|0.2866147210616841|0.8630502285891556|0.34193850100388|0.9817454526502625|0.9819588913739774|0.06768737608671271|0.5942338741602728|0.8973628044607407|-0.9871952422569026|-0.7390429165096484|0.6202051536156952|-0.31638220855736|0.2714123176356986|0.4063993636859986|0.13653233065266063|-0.740731458955042|-0.4489351640434327|-0.1860694489473956|-1.0220775618063203|0.7308375670377358|-0.31406964916029984|0.7270999306156936|-0.42639599527372035|-0.11269170366445658|-0.6455557673702006|-0.14811142481989115|0.8996104852602882|-0.7002592905759122|-0.3172435337044306|-0.9504101014138284|-0.5385572340221101|-0.0053767552083288095|0.41142826772754604|-0.9655283517029936|0.4173711508113914|-0.8406607351528577|0.8227647211857014|0.6219288908419821|-0.14084091464210222|-0.14121623771256872|-0.4694223183648994|0.10942467314048826|-0.7136384861977002|-0.6082840256759914|0.7085334324508734|0.29032052141361553|0.9408120577379413|-0.06399806308163014|-0.7410706966391958|0.9952817054019545|-0.7147367968934608|-0.9315617158145719|0.011251175130625901|
-0.8234294092855111|-0.29374916440845883|0.7942660320692634|0.5564111827913174|0.6016980767038355|0.46227855178361993|0.5479072833126692|0.6568241677227863|0.3057667236378014|0.6248880870983248|-0.04233070993454674|0.9012713595180228|-0.9859640074056693|-0.6749622259196293|-0.9195301504988722|-0.681067480923371|-0.7832623112636257|0.5696580858438651|-0.03738160314257133|-0.3229945272502386|0.7140595321924181|0.6739933689628174|-0.06060767865259606|0.36856816152080185|0.10593521964687398|0.2560479028352954|0.5381189968786763|0.5527926942557961|-0.9520314264180779|0.3252492111914302|0.014928528571078003|-0.979287814804334|0.9615006554776873|-0.9485103713337675|0.0509758230540156|-0.28699606632656205|-0.5693285537966017|-0.0031276693140405154|0.800001833899443|-0.3076379724139089|0.1886054400230872|-0.29528699922096197|0.2030450033997694|0.2753085628553115|0.1555628197257491|0.5398308436971367|-0.6300001253254921|-0.17533542247610318|-0.7239355255444934|-0.9236852285162678|-0.08352368516096871|0.08893855210441215|-0.1995988736720038|-0.4951366509531627|-0.2639130065623909|0.5021006327227566|-0.16168630108851012|-0.12574313984228525|-0.783154341901716|-0.823620142556772|0.682275020400221|
-0.18183464671527083|0.02740116625555851|0.6587171094947846|-0.7210984720757163|0.433720930279768|-0.9699019313467235|0.7848052662545547|0.87359676380741|-0.06676695562925669|-0.23745738011829803|-0.32816907497393744|-0.31520260736817307|0.1414369178013184|-0.10308129482763673|0.16186033734237726|0.5582642351077267|-0.4411835350527997|0.6568958146710333|0.6552295510119266|0.16724599438213517|0.4022568205837169|-0.07417681017014244|-0.7127142448023879|0.8439303275934836|-0.2925291412334155|0.5409753554827109|0.5881039881715535|0.7096890708676957|0.3905741427128098|-0.5825031034420586|-0.3520014653122727|-0.6091067958637211|-0.8072297696376993|0.40106181553513065|0.8745169497693508|0.4556004694576534|-0.09227067418164081|0.8818133921520057|-0.7766038313157835|0.21627668173468617|-0.033632249217808496|0.8000166378419981|0.9830234392210666|-0.19492940669646286|-0.19760467420340952|0.5589186760439985|0.6639501232122484|0.9670170676270986|0.024611632425203627|0.41551066174277534|0.27380725727416316|0.03290228760927194|-0.6766448404196781|0.7356107051519609|-0.37657007780585294|-0.06213818386470238|-0.5490546765204007|-0.1796669941182707|-0.5749626806257948|0.697961021751053|-0.22496519843589957|
-0.16994244608118372|-0.9522721377569641|-0.7156989781509157|-0.6702202996792918|0.16703260117068314|-0.7522118031509247|-0.040521369633172495|0.8061030024481823|-0.9258577042897674|-0.0617444910416628|-0.48863584960843043|0.10238542994093724|-0.8517703667642946|0.009966463813469328|0.8217296227722222|-0.031703271748102724|0.4429809984703006|-0.7462480055663963|-0.9650720379842863|-0.13895207931800502|0.5924378503693919|-0.5521899991977864|-0.9098376382414961|0.3039688037943978|-0.5928473677952468|-0.26048277037094525|0.2731411651642502|0.5386798125282648|-0.64664432948827|-0.16190775263080626|-0.2323507721043726|0.386141918420023|-0.4203512960905007|0.23005428360128843|-0.2800730965226088|-0.5476167219704797|0.7261360660565046|-0.7509083074143601|0.2811501367939955|-0.07537700137564007|0.25700144850267925|0.06496433652305657|0.32889977663695896|0.46821499503023595|0.9417411890498636|0.44330441302292195|-0.08273834692339249|0.5168655447932327|-0.5236153616580976|0.7038253668660102|0.14390346594472236|0.2563190733664742|-0.8220665324368857|-0.5222016112518817|-0.44393509004793263|0.04982229412469397|0.9586670853001815|-0.4392751299556774|0.9952289512500103|0.5132330180646147|0.46295680796625893|
0.3643334413484867|-0.0873515239452512|0.5779841436045268|0.8162299152434083|0.11909564770041405|0.4089440807306227|0.07849286588430054|-0.8971129873821656|0.7583129960418067|0.9251338603026896|0.05079126201619819|-0.3756743823707207|0.18613649750674144|0.7858669253600843|-0.5027176631444477|0.6463353736653825|-0.9437566859903059|-0.5802730298777921|-0.18213494151649479|0.8461282489929034|-0.44194222516869|0.6217889257836557|-0.9701644601086823|-0.2795669171386466|-0.8261479606405034|-0.0537161176773828|0.2710032161951759|-0.21041652273598566|-0.267560818591616|0.6722188394712691|0.9960164451885812|-0.2475944759237294|0.9695836283096353|-0.3135979340424253|0.8050467112325455|-0.916396459754572|0.06617782457991028|0.8223220618755427|0.7232164687752529|-0.23944247188742684|-0.6663696067011151|-0.8502270188862144|-0.789439136296481|0.814466555585459|0.02449179527567033|-0.6538325888135207|0.7546567814674694|-0.9735864119275568|0.03443410499241692|-0.27537242766089826|0.9254883359096568|-0.9932203343712642|0.9016952623023236|-0.3293338382418307|0.48968164288022886|-0.7105557227350143|0.18986744075156636|0.01275955178386523|-0.6393302075385685|-0.16812373615230225|-0.3262652650504916|
-0.6555442290003728|0.69001221938344|-0.7460982616403634|0.2706258461312471|0.9635216710926974|0.0662532552654862|-0.5485076833221859|-0.7838628797679658|0.43059296227214494|0.11813469310833183|-0.8129888963814538|-0.16004304498068|0.9930487575823748|0.5187119931084208|0.44319717523539603|0.7284060693575689|-0.9797167801713149|0.33671532781717173|-0.42183036314612776|-0.2736983717861228|0.31237161788942736|0.6989913964809672|0.18532421591709858|-0.2757788102512566|-0.36948772577883826|-0.16399422076570486|-0.7340384440426152|-0.8393754793223005|0.016144096901014947|0.06654831110182607|-0.5399678067655387|-0.09661452905677637|0.4319291616430774|-0.6959643447274764|-0.7915266389732256|-0.23403283131957564|0.6994281561267435|-0.9541824780281705|-0.925777375572221|-0.18127617237204086|-0.9236232673624845|0.6769631107507428|0.33684239843566943|0.5639378769855572|0.959920032881375|0.15302795140059158|0.6359708733219203|-0.47693411780303446|-0.11602734984667468|0.13287499778693157|-0.5049131363467174|-0.08679396178610799|-0.4311528290886477|0.5671350503421428|-0.6024377306932465|0.6883866145077375|0.6277619235045993|0.025550190950049734|0.2619935020658144|-0.25589710140479993|0.6973379355058149|
-0.025268652465179096|0.2653118362089858|-0.8243892869521613|0.4549794376714283|0.8447008865470212|-0.8731545173911783|-0.13304709592432257|0.7701202543078756|-0.27935144928614536|0.6891479716194463|-0.443024761321757|0.12939764744593263|-0.302026005791336|0.30574656104451203|0.007960432729344324|0.06736332607962314|0.17315368090203687|0.9496111122669351|0.9646117944284689|0.4177443498083202|0.6311178404328333|-0.7929243802651834|-0.38720200384746645|-1.0129572360399184|0.8708742824129684|-0.011647681228249523|0.6693254134446152|0.05357922395864745|-0.8475542488532247|-0.2685103637364369|-0.1678377044115097|-0.4907991016696187|-0.6592058840023891|0.7343857903335254|-0.24400620111434668|-0.017467629158603337|0.8164937943757258|-0.20685276859677493|-0.09047500022950894|0.7238725024212678|-0.6246654695996967|0.2658822076941049|0.22316184446293347|0.04470637452530924|-0.9763156070211132|-0.016421975543433154|-0.09603466449577439|0.45356157128793845|-0.38320453104199215|-0.300734233114672|0.759427801126523|-0.9209963118884306|-0.636144809048675|0.2235812898106706|-0.590285408902409|0.1394257890699404|-0.8812667977549555|-0.380132820442155|-0.6869542721247075|0.5298128374178073|0.24491787655888642|
0.0596948425366288|-1.0001018944951194|-0.43236565254573933|0.4544854848850762|0.9196656095340571|-0.3207076775301759|-0.6172839423651955|0.6840995654731207|-0.9730822051308077|0.3312993578831556|0.18796356819267554|-0.8935095352919877|-0.6703115746040746|0.33774345790005844|0.1590183986510092|-0.9051489263573822|0.3286155033332463|0.6171372139436095|0.5980857162120883|0.2511038299776578|0.7575030876710986|-0.4432721453939676|0.5242675937067097|0.2767981955053509|-0.4538824025289242|0.10344230487410183|-0.6170601726236667|0.36833582672920606|0.7947550758418398|0.6684474317652384|-0.40398559250879595|-0.1543231389412536|0.9098957469810196|0.07839059148878236|-0.9470083766264841|-0.37052292196775594|0.2924464653561094|0.857144043451501|-0.40441045827661326|-0.41578621235738744|0.7706694055421079|0.11978071489084673|0.8253386305055699|0.9554966757351238|-0.38586721260717577|-0.7927636162071271|-0.3022874109109325|-0.356008362395686|-0.5756054967175318|0.16787122181256095|0.6804347460299146|0.7856477830730857|0.3155432456268459|0.4076273585888581|0.24285430031686372|-0.6906668376725431|0.6905628356771287|0.15306739841467176|0.21682670379100055|0.8859099188743178|-0.05213736410535308|
1.0630217515831573|0.9274610851524029|0.6505439407352952|-0.8895530366699412|-0.26589695663027296|0.9248845193402818|0.8539827889384112|-0.46719736097184816|0.40405786065411875|-0.9569465197309032|0.5960580084645475|0.14780505227647178|0.1086587547713942|0.34580467023594097|-0.38009572279457693|0.51107826826291|0.9469356620354292|0.6520563793935572|0.7514633218030797|-0.3966670680902977|-0.047676619453374425|-0.8008928721732534|-0.5005267716508607|0.27914560902675106|-0.578911151116391|-0.22290135829269145|0.9344013166396997|-0.6222575527330081|-0.6850565943588793|-0.9888429928852779|0.18722733538391376|0.7938153885462211|0.6226014162684324|0.10654434048710071|-0.8952119430778633|-0.9069266329060104|-0.5432088908503776|-0.6637737916966722|0.5077502480812139|-0.36521353738525053|-0.1687510028451653|0.8469651843079531|0.6401369018656798|-0.8978130643325798|-0.8696006477601325|0.7239340507058418|0.023525861915268613|0.6966518197082334|0.8670267777473999|0.8644830201158978|0.48753951398474554|-0.6617305170504424|0.3398495898054599|0.7624589098115186|-0.5524985315409652|0.015867172332003188|-0.5396099546140205|0.38523824769517545|0.7365203281956092|0.907722870215826|-0.8905488364152525|
0.12884937359634607|0.6586206324118546|0.5233815204944927|-0.3328114282658073|-0.7128980085733737|-0.9707795264640203|-0.1427055101702114|-1.0142356971618847|0.6596869290618533|-0.7649888722960827|0.6203477358438414|-0.8157104543961755|0.8502835246217464|0.10934981753671291|0.895379949646175|0.47679313619029795|-0.5906932213944969|0.7488078006321452|0.4365728337670347|0.8013437958290279|0.7811821306871825|-0.675125594902457|-0.40219114823788127|0.2760890669577843|0.0652490736807107|0.1842053006124327|-0.8925611865895801|0.7976831233895102|-0.8369418791517643|0.5502076245981415|-0.6903381676430296|-0.6523984294862064|0.995573019776758|-0.8567071166749338|0.211915493955521|0.6816004665152227|0.48887054611481284|0.2651857422130057|-0.8626439956553633|0.10494828403032264|0.6253634226005558|-0.41650704556025514|-0.24819440230272766|-0.554779708877286|0.12130746590926007|-0.03102135413348156|0.2921158773305433|0.9175794067640112|0.5843381602891385|-0.00891483644996158|0.41655787559923246|0.548465900467286|-0.4279980795180638|0.10256964179395922|0.670645238827158|-0.5283367148742406|-0.9932771696397995|-0.08210885546068347|-0.1339692292917749|-0.5205523531962959|-0.22319723602391517|
0.37791408079382033|-0.18950901144294482|-0.35038195446720527|-0.3908848475756522|-0.2626373955837555|-0.10877249592792511|0.7036761023594434|-0.10446785037860927|-0.6588315151194518|0.5468091458653627|-0.9864203343658726|0.2757201177863817|0.5741727814326891|0.7855283904686188|-0.5123165593208661|-0.24927222877383404|-0.13532309745671012|-0.7913379517960897|0.3169195340355597|-0.6265251415269264|0.06177816779690959|0.8573038519065628|0.04436277480689834|0.31258065663385337|-0.21023349334792443|-0.5428184619407073|0.9471602171135555|0.8494132354787511|0.20448498126754125|0.9341582404228831|0.5785031210931036|-0.3693048062722686|0.7910905474160648|0.37935667022077757|-0.8918104722038893|-0.7653066659531136|-0.20942557798817374|0.05398506048770213|-0.2997467994293912|-0.6410243674420493|0.9841691839065434|-0.7570539178045214|-0.5993209401295907|0.33723907297932293|0.5975463122560672|-0.3245550595012914|-0.3686753374698408|0.3338984933909815|0.6703088920223252|0.32983057020760503|-0.41598409382148643|0.2241745042974923|-0.9864367742559514|-0.4929355974644294|-0.05404403133198987|-0.4693246373176754|0.8725792527150835|-0.6441024340373793|0.319332226388924|0.9847267697425373|-0.8479331649155479|
-0.9452328731052592|0.08783194904868946|-0.48083973903389826|-0.802178974833436|-0.1779791937393281|0.5970681973922591|0.7896261579175607|0.162704023971564|-0.3693430205133938|-0.7209809320449895|0.05306247990389596|-0.0815713418478261|-0.06360158849589914|-0.29198933062603993|0.06418899856750326|0.8936003925403888|0.6828644465845908|-0.4898560836085806|-0.08813199305973352|-0.5596221963598105|-0.8117415116423163|-0.7620908233306157|-0.1013137012027276|-0.7279335446243229|-0.3319514373253061|0.694250296419819|-0.7972885794906948|-0.5807811027213974|0.545246965730667|-0.6143271468197187|-0.13202560551006318|-0.9030405044120768|-0.24050543254162737|0.9229540396680429|-0.20549164343088422|-0.38415888045005575|0.1531738506316962|-0.413445452511803|0.2666579867958032|0.1522432615571392|0.5770414828251893|0.12544928998280602|0.9325784420488692|-0.7095380793151291|-0.5134813289543355|-0.8854692492888787|0.6201198799767365|-0.5544697307331885|-0.9902205057127007|0.6204134857803808|0.3610595403277602|0.9354234692972796|0.9608625514917455|0.4943908354308826|0.9854372868913701|0.7601083435799698|-0.83056518150135|0.1520666442961629|-0.6510930755515039|-0.13208938892780187|0.8311356638796246|
0.14323370653580225|0.8560276065957371|0.8132299379448543|-0.3192878853224811|-0.1518474246192248|-0.9389494593051053|0.062025186993319915|-0.5317784772780246|-0.6622635286883072|0.32590001219968356|0.6006992663535956|0.8317312512438901|-0.19314588011859501|-0.6323620339841225|-0.5136247215739098|-0.007338358916016086|-0.09104637493710976|0.8511692043627659|-0.5327176348845806|-0.05556233537411859|-0.7567897784989541|0.2614225410035015|-0.39420293698678266|-0.37537191425510974|0.6464132889356308|-0.15183555179400016|0.3646750460444093|-0.5795421625026687|-0.3162884949554703|-0.8950759266429725|-0.08287064012658972|0.9976621231956264|0.19067886490719066|-0.09819318050537418|0.13224979269852|0.6357412227894441|0.6247453968035943|-0.5828748666794961|-0.9074388201662751|-0.32910386027688054|0.809369217545076|0.6618637667894101|0.03707083776201331|-0.10266819873469485|-0.8894802914969898|0.5665052482051294|-0.3462609151394483|0.35062759243462327|0.43555835369582296|-0.17061511073015903|0.33223269504864883|0.5157906561344681|-0.05513914934109776|0.5726898688173014|0.13982980081331653|-0.1919647925678447|-0.6288847433745046|-0.8492144378231636|0.05373696584895926|-0.47667761814841203|0.7073635688636661|
0.13026411874097005|0.5133728689979846|0.6001831902593343|0.4563551762243397|0.7685320364160693|-0.7313020060022684|0.9450614104662286|-0.40313341770202993|-0.07851016382964653|0.2372327105434113|0.004165178133691856|0.8220146294703088|0.6771345765441086|0.5877546144873502|0.7073194559696367|0.9177983345741205|-0.7161440254565972|-0.7715083230271176|0.3940137976023763|0.4466782385414143|-0.4841486147414127|0.8388305994829388|-0.3804440461123375|-0.4659122605220295|0.16999376419521417|0.3748599989760605|0.6983264687023273|0.8869028743730218|0.8139865176714594|-0.5090493678482352|0.05578641702455128|-0.10287742197557637|0.9150756050847626|-0.4559103262894735|0.332217954703683|0.2442486825931114|-0.38320100193381323|0.3694237251463848|0.1832374056196251|0.10013303799818862|0.99715908872518|-0.47197855795448723|-0.12014232597349472|0.9143967274667854|0.6787665444187022|-0.9163021572825539|0.401199587588636|-0.469003389278958|0.22771081671527732|0.8758263569367759|-0.65138329066918|-0.9281552159652235|0.2505578271100264|-0.43299054188110797|0.6777414045735921|-0.47567946590177157|0.5698390440355068|0.9053236145028449|-0.9264258267370284|-0.6936501965140649|-0.4622812310304185|
-1.0053930977152883|0.2476042516563835|0.6714529918771505|-0.9441442008591925|0.7746641477799803|0.8089422383365806|0.7153294196945233|0.8542476590184644|-0.22052785082629534|-0.07681359026012549|-0.8997044029856828|0.9806007007679975|-0.8959271363625887|-0.3215074633323771|0.6443380967391883|-0.28664666260918104|0.30955948442095615|-0.8474225669182192|0.5297903357035127|0.7531678725012902|0.8440082951167158|-0.9164506372170486|-0.8228462137703297|0.5499907691840057|0.8775190683040409|0.7599726520790318|-0.8657868168299812|0.7422525010408983|-0.9962229883347008|0.29323812095322765|0.03619529664525934|0.7329133469911229|-0.7227883300073272|-0.9214444962452684|-0.6675050062353269|0.49279994554044304|0.9074600927649155|-0.03684735177736154|-0.3026782990526964|-0.7625748054181543|0.7177718574071748|-0.8414163438292039|0.4386889726159488|-0.667240776418467|-0.4859806837729452|0.21070699355618402|-0.7217982232304827|-0.28259225414034955|0.753095313426984|-0.3397287590565764|-0.890068989141635|0.2091708455597474|0.5893827171430577|-0.4659625043581239|0.30760393519022355|-0.4784662807157365|0.10591010775649656|0.2505178204466456|0.7228453277347859|0.573808405513238|-0.8379533453856018|
-0.1491801913395449|-0.0710886810667787|-0.9153774816019938|-0.8544425840199463|-0.954427907850697|-0.36703219422924727|0.8972308780395207|-0.9291391242817558|0.7866596727250433|0.775419258150156|0.33051382723870415|0.4501608704773099|0.19368545155270867|0.4977946401264861|0.2855656341093946|0.4522019565605564|0.6765576704105329|0.13660315925443345|0.3108909067378962|0.980186609889736|-0.7020032813044732|0.860321124947423|-0.27898872520787005|0.5609491755693116|0.8046902627073476|0.0661668790141632|-0.3231577729140961|0.8059825527497233|0.9922625394754354|-0.17194178451822986|0.6320354261142089|0.09137922309360214|0.7549534648391532|-0.6651639312391762|-0.6124759760304541|0.6655147150888572|0.5868381320913119|0.053352677877524624|0.024496036559277456|-0.6415022045507153|-0.2149660258377819|-0.9489872570512261|0.028755118518520653|0.05396831806335839|-0.9694974273153655|0.5048841543723628|-0.8377845447341985|-0.008038922345620179|-0.8538281770355464|-0.5734547156739548|0.07330428830198|0.43025049021851913|0.5573490717244922|-0.6026624030060386|0.552778794648978|0.8332207394917903|0.0424999168477298|0.043681472804196764|0.24543134600256034|-0.8471288687452077|0.830508057861318|
-0.7149443769754731|-0.8867219005592629|0.22361939545959128|-0.17197083505290006|0.02659584409568227|0.26561502527838593|-0.5154945889633201|0.4518121637513057|0.9927300488949282|-0.23387425620362906|0.6993138993670317|-0.3481593042394282|-0.7438383730824185|-0.4711063517115166|0.3255474251284043|0.2687035104152449|-0.8846912084784082|0.50326775182297|0.43533556048840083|-0.5432813723183458|-0.5984067596207887|-0.1356076106707657|0.7199387314983436|0.04672414367068341|-0.32863221849559465|0.7710086479674745|-0.52809832626211|-0.13959639207987098|0.2337271789455242|-0.7461023066281006|-0.4715036982736101|0.9745605367862273|-0.732041923158675|-0.2697268124555996|-0.344050061704537|-0.5767484921892334|-0.033699448734722415|0.019672048062262304|-0.8998474481297778|-0.45879028044822023|-0.6927684169303909|-0.3183190395254654|0.857604478803513|0.7595831900498388|0.321374729330787|-0.02849791567402186|-0.9337144266766229|0.49543925871550015|-0.1323220545089288|0.2724339869164141|0.4251141106215951|0.7549913495264637|0.2678099506942131|0.013076980789566983|-0.49912057986699665|0.15346644478383897|0.9397025780617296|0.6805041952707525|0.37790211566393106|0.7311398860467357|-0.12231190380058576|
-0.22340167856766985|0.34714942795012865|-0.6145030015312211|-0.8983043516219529|0.39183468299959184|0.8252961070279229|-0.2972386820394557|-0.3785676270534026|-0.9739482939416139|0.4144120727571584|0.17747872227302086|0.6295560363247594|0.31117276508547476|-0.608541658023035|0.786356230324474|0.6891739709569991|0.8240936334017337|-0.5326616768765315|0.21268103516303616|0.653350789551689|0.5009119396539938|-0.30307455140667483|-0.6176832335529715|0.43951492065411374|0.03742720825022775|0.6874821292943504|0.7430161801384256|-0.8475818789952831|0.5222144466518825|-1.035173520801131|0.4384661402964918|0.9924370899240187|0.022107772879678356|-0.7990962353386322|-0.8134482362216713|0.457781765762584|0.10381289174939612|-0.8313803687651407|-0.8546796936434324|0.259181322988693|0.8681825801348779|0.5740795773119609|0.4336036327899543|0.5048889809048717|-0.7871858347650367|0.09236849565019692|-0.7882338622788881|-0.10477485795697246|-0.9161273031922124|0.5864878646826128|0.03126756320784385|0.09528710603229906|0.0027766248155816076|0.47536688302309527|-0.6815452834868612|-0.922804676251201|0.21626871888495613|-0.6121512712968895|0.1353946293365691|0.2489052654295456|0.9413176188427128|
0.5314457197371588|0.7529591162832223|0.18254052560707423|0.6243825312198347|0.24968234076963483|0.9387743190711938|-0.34278612363778704|0.032764107055289066|-0.9013869448120362|-0.4501673240335865|-0.4421066502217532|-0.1823294496091621|-0.10781485033367955|-0.6365129136271401|0.3120975532580186|-0.36786497052390255|-0.318316215913897|0.5001389492791841|0.6689911758098968|0.83357080185768|-0.9955103459563563|0.1576976316681144|0.19094267715743224|0.8667592375340265|-0.8270912360638206|-0.7710344897288415|-0.055161153645842724|-0.2940710298515261|-0.8808932582462784|-0.3381968653393156|0.6096061482917583|-0.5217070537421324|-0.3216279052502671|0.8702858475806186|-0.9952920787814541|0.6248543484547442|-0.3778882925174225|0.2629837418329277|0.40083053018646586|0.2703664799361345|-0.3711951787933512|0.8484876853698526|0.6879142540250269|0.77713168942733|-0.42261863286805634|-0.2341383936177497|0.7217113773718734|-0.5912383088718866|0.6131769122960774|0.3106836773171188|-0.1915023512082294|-0.6794676501479948|-0.31650245459920234|0.8551411539240399|-0.38310981931115173|-0.1368615061099352|0.6853011741935913|-0.177211054765829|0.5446060268127366|0.473893669544734|-0.37661106621759255|
-0.6683037874846773|0.9279628877976587|0.18016316083697423|0.18241666702134643|0.7882445060400203|-0.9434115924922295|0.450530848702383|-0.44996515757506633|0.9857819938152996|-0.8641269012628486|0.8700982301978498|0.9749386702441243|-0.9780724012084401|0.2223966643165256|-0.3835988663721559|-0.3952167677508436|0.05415594431178272|0.6259160481760995|0.6919428888058736|0.9983686761476411|0.5358400386224351|0.8496210588968567|-0.35666928077537857|-0.815487424564851|-0.9677936763881331|-0.6817420881319952|-0.31010110263002955|0.8024341216703788|-0.1445231922260312|0.8593196262379015|-0.29944449924676997|-0.6901878717887613|0.33523280013441203|0.7693776831081462|-0.7820407139590777|0.6780328154389637|-0.777088046037476|-0.763700298998951|-0.9275363697978662|0.3240152961959346|-0.3301874749529803|-0.6357008314476337|0.3833724842063523|-0.36405998094248915|0.18763012388309197|-0.9786805644382549|0.5769076692995112|-0.6080618331534253|0.7132672372277804|0.6510882915653113|-0.1910114417544165|0.6367231191726828|-0.942660226583927|0.5133645386046475|-0.16095719469191616|-0.6231448749348008|0.5403138261596621|0.861386061168417|-0.44397806591227806|0.005737095590619745|0.5590613373221303|
-0.13943961969596744|-0.329331747436499|-0.09259905901929572|0.6062868738210719|0.6304115280553972|-0.7271419137887893|-0.052300970242099114|0.33022060728106784|-0.35751894759975333|-0.98431110684297|-0.10435711596686263|0.04917290636936933|-0.08648927791736494|-0.152645431174238|-0.2141929096966375|-0.5685281910160978|-0.8945315393782955|-0.7584578523283552|0.8603123105671149|0.8698324269115678|0.04114265389668992|-0.1091838782395692|-0.39018654284376664|0.6463346956899726|0.07932876188814073|0.4570064433093034|-0.5030726615858253|0.844006141930084|-0.924196821640283|-0.32744298088719886|0.783657607867376|0.637270753225244|0.9899560833817009|-0.9428721704695511|-0.12078664021041652|0.6579471350615065|-0.7111163474766615|0.27641854329909643|0.13868826093841768|0.8090964335447013|0.07577777238467509|0.3927233058564938|0.508883829391871|0.23597128825080363|-0.0753929933223416|-0.10992820384148384|-0.6153941458226865|-0.0703602202154002|-0.7835986947954063|0.9427096476134941|-0.062235586023124595|-0.33669827304008093|-0.842244733618996|0.023328624883973914|-0.553836163114324|0.311429973717565|0.47465284330276236|0.7302868688195279|-0.9980015861431342|0.5856434147935154|-0.6823410497178986|
