0.34962998400367784|0.12831934661041852|0.7512026402731528|-1.0068607820537387|-0.07100591529642522|-0.251767910064838|0.11419889873969591|0.006314964875703799|0.23330677422382198|0.8301551122534008|0.22037608226695876|0.6345568004667658|-0.3277015256324457|-0.7970623356457793|0.1577252934004383|0.7941380034998904|0.836075633314265|0.7594190901703225|0.6341680126151173|-0.8544698796239423|-0.34254617779489527|-0.5508492498974755|0.4213929833770616|-1.0176319750856855|0.4973642869630326|-0.739345167083719|-0.9011550979782227|0.059500820756451675|0.7712074188241173|-0.43649079687989495|0.09033442050380178|0.8585409192140611|-0.4789532491206774|-0.5371569932822774|-0.3742793967478376|-0.3918042051072712|-0.23390099710465348|-0.17298767482032634|-0.48089163677148977|0.8355627278702886|0.4913473047754393|-0.8378444542822132|0.8001012810698165|0.0025661869313513097|-0.7522766185821818|0.13393125018743604|0.0670563911089779|-0.18037259776948156|-0.7594077331319037|-0.4522939222511332|-0.8940230668642163|0.1285441207755901|-1.0305036019173448|0.0576900734859251|0.6312852050786449|0.019349222125549372|0.30040821014118985|-0.02375334701170504|0.4755797189118218|0.29286267595424725|-0.5848063795732217|-0.6888329741763569|0.8090214338307874|-0.2028919553607791|0.18736816773380632|-0.46421712980912666|-0.3580313637844826|0.7850217837979241|-0.5843303015674328|-0.7813784973649707|0.1553665214714087|9.43421359770453E-4|0.13645674401951657|0.4061298100941014|-0.1653401300764442|0.09645950617472304|0.8296009805769432|0.4255638946400829|-1.0687845781230698|0.5983152372453392|0.15380341490560587|-0.085215633803207|-0.6216996718467567|0.6916603324888422|-0.4856801274067059|0.4809363033566923|0.4954929467271753|-0.7644647260012802|-0.18034075911869218|-1.0339759275124758|0.8042124166623187|0.2560046489365351|-0.7445500669372843|0.6929473123630867|-0.6374405049000845|0.6731121469490159|-0.8524959228714214|-0.19999175856287288|0.6911806766414889|0.727391900706939|-0.8251099540931113|0.16557989334681567|-0.05041887081787479|-0.008613675812679406|-0.275146858164451|0.7739824129921609|0.1064578481171709|-1.0011961548178931|-0.39525668187193747|-0.4381136268776512|0.12689517172743972|-0.5708827176687848|-0.25970908660885844|-0.07521920261599002|0.7030473689620412|-0.186999438824285|-1.0404398049009034|-0.22058890686317603|-0.8591012983554033|0.16183404193435252|-1.0388962312276349|0.5224747569264212|0.4119251465866278|-0.9558237578243343|0.12603082528991233|-0.06878052367813407|0.30893521854400774|-0.2071255128792046|0.7424360060070069|0.33961387781606595|-0.6154521955563002|-0.4293975159280829|-0.5601448369130297|-0.10954277763877905|0.4802371644586832|0.7736014690939518|-0.5091580383428311|-0.6874773738651931|0.09981722533754499|-0.6062165870667928|0.7241314540546587|0.3218128060884305|-0.05811994848737823|-0.927277511040961|-0.4113707221129825|0.31268663607033065|-0.0626612756331696|-0.08295226437503325|0.9034721994322192|-0.9084142312964435|-0.817489462932932|0.9035804941791925|0.3388735132443751|0.6847330559857006|0.5094664899636746|-0.3510862326587942|0.45337678234220913|0.4734550818368534|0.08148623080648945|-0.6491905775409923|0.04381571089241368|0.17602181693644944|-0.1722129733745377|-0.7666042657744648|0.5030923072555393|0.5020114724653068|-0.36510851214862367|0.5132785742292374|-1.0450679128584623|-0.5149444770358839|-0.2868131249421858|0.4536069820861718|-0.9808299886038448|0.7010674516460005|0.08396802428422125|-0.6971618836549515|0.22248693684722487|0.5531218961898109|0.5890987691106934|0.3130070381269028|0.9121019217988561|-0.1164750299139849|0.761863413987142|-1.0150731389607697|0.47080113423444586|0.19824160853876877|0.48845161816017235|0.1127645410171451|-0.5683358622585587|0.23154612793532406|0.6467091076840141|-0.9276445605944782|-0.0890744863513023|0.7818949432202401|0.5623231868432175|-0.34726758969813887|-1.0187777003943612|0.5046273087846671|0.8093026958452382|-0.10501968268683257|-0.7300775286224941|0.13506829261924558|0.6853855489398255|-0.1696460476381438|-0.8906734981183314|-0.9418432125598318|-0.8489838146958263|-0.0850772380060042|0.14482487896849588|0.44418832997759067|-0.38925807545898417|0.6893440266251853|-0.8884064270797969|-0.8909037794606924|-0.5888579124007821|0.011047923566841531|-0.6291588755723336|0.45221521559628614|0.7636106272937108|0.8590734900866481|-0.3031270317651826|0.11428746809178812|0.1173711801332656|0.08144843705545123|0.7994011993128205|-0.9584111664906902|0.7708074362056759|-0.8999253944501444|0.39369570425121514|0.7526260566156102|0.39460351920207487|0.06959030223989703|0.4965999790528888|-0.5529080456662163|-0.9743444749735483|0.5421950482333265|-0.7964285915722729|-0.9235112402065985|0.20013562321879763|-0.3563649626462242|0.10617436350588741|0.2198190580857194|-0.18897796740156828|0.4099445581718149|-0.49546380007255164|0.25352234592401374|-0.6473738202423045|-0.20122193062860042|-0.8087919741596576|0.13148986852744524|-0.24069869545793104|0.39150580413895036|-1.0204743506218639|-0.017254078316130565|-0.35394520386162487|-0.6349540592906476|-0.923052545296325|-0.16711203032291447|-1.0419825263473483|-0.11921129836661974|0.6728750340244429|-0.8113985735778827|-0.002855218803498174|-0.9252231911446025|0.41435517160430424|0.25849624809350563|0.1376055333541719|0.3226223123444845|-0.2934371593341361|-0.1329383936217874|-0.7670463531764558|0.5579512629822506|-0.44734613006746604|0.828726455597616|-0.30620641264430126|-0.4815628723619579|-1.0364513474602097|-0.42100369119715003|0.7037949522334316|-0.9170795177765081|0.24144225617445916|-0.5086531039969947|0.8006355029240797|0.8539885398135434|-0.7348061949149424|0.6700248990921968|-0.8243582113840185|-0.6187052367267069|0.0448443271750556|0.701061247654207|-1.0153603284723067|-0.9841051780798827|0.09557431778412277|0.12348861587299374|-0.90659444989769|-0.7207009921636742|0.8437987072588866|0.4038065839632906|0.37198307442223366|-0.6944424216281819|-0.358169975807407|-0.3022304645116021|-0.28732708835903187|-0.29981405361406066|-0.37200073135979506|0.44393998279132535|0.43537698174442|-0.6728770017676432|0.05943645690337876|0.28781837445630754|-0.5897870984493052|-0.7053665685668806|0.4855254027914945|-0.13199340783885738|0.5803019985287735|-0.14769929461038345|-0.9304780171257434|0.12697842476343768|-1.0220671220754491|0.6895795116874419|0.15998648318687894|0.549627619213737|-0.15499059986880284|-0.6686856504964795|-0.6200172508841538|0.019738857844382753|-0.0807563531670727|-0.6970072234824942|-0.006870277655442384|0.24752034904814096|-0.23436387530680516|0.12183904362036686|-0.8153255533353129|-0.28313590733661337|-0.31074895629447546|0.4154163253880675|0.7697320981286772|0.044391757906330445|0.8610067951220544|-0.5011147723261987|-0.9382468053990916|-0.14023732759314453|-0.3593027318136499|0.32351854346597725|0.6658955922288416|-0.22436829680432652|-0.5610696057152418|0.5072928966233616|0.6108583462556129|-1.0688738141485368|0.5331868662725405|0.949530876253494|0.44677716083498414|-0.5317222621512842|0.583592484850064|-0.47833291873975653|0.6736691376454651|-0.9971579150109403|-0.6745843418633458|-0.61535034169256|-0.7405213812578383|-0.3662903164927299|0.2455788932682968|-0.8814552314221642|0.041363133596890395|0.267808386064142|-0.08609508075092637|-0.7988465387080057|0.7227773040687655|-0.6074826957926179|0.3639048717784575|0.5458964190171431|-1.0080013059982047|0.708968401638915|0.44349089113538603|-0.8476039165321526|-0.23280592001397032|0.6675965888152597|0.052322184415970745|-0.4409218527707964|0.38124574140019835|-0.6118547128300433|-0.7571424679937646|0.7448472757131903|-0.821402905654932|0.8238621204856872|0.6203897652175373|-0.40350897850908746|0.7187478817640575|0.31551655593369715|0.5935982965531463|-0.7403010151211383|0.5299749970424602|-0.6359233289095453|0.7745809961683764|0.6818349557620031|-0.4899217700580643|-0.8458769074952818|-0.18816703997369652|0.0863310708015126|0.6886763345783976|-0.939620670638959|-0.6577325235726331|-0.45624778246614206|0.11832132252552233|0.9674671067713982|-0.9737087255015456|0.5896666256193963|-0.1455966629835592|0.16545363050881381|-0.8087168993626485|-0.6431856226249355|-0.5285259103838271|-0.31354891246313155|0.2513273069015521|-0.47814452744554914|0.11235450303707639|-0.31696438422896067|0.26191645532569924|0.031834859284833844|-0.9904503063556802|-1.044475783252209|0.4962331629186589|0.23758497679491805|0.19640442617470036|0.3184706320950605|-0.7641658141146274|0.3288471341318527|0.3887237670769953|-0.23661919158209943|0.31769275050197743|0.5025591695331683|-0.7946523731058924|-0.4094962208677211|-0.08089216145759803|-0.06581631259989107|0.6634409843350051|-0.1197265023501178|-0.5802944564843135|0.603912557141602|0.7413105964037705|-0.8444616635174882|-0.50845978326476|-0.32583189777307264|-0.8975017530875399|0.9059220587475724|-0.07915397420220166|-0.0895818283367|-0.04053965481825546|0.337873358342309|-0.14020599302573733|0.5469820965346354|-0.3110119752456996|-0.4309016160143912|0.06852731562112359|-0.2644867485839717|-0.3351752199866687|0.32764195644673755|0.524368892092816|-0.4283819785084143|0.7586867792505979|0.10991593766879154|-1.0382172161577878|0.36562239104207167|0.5762616900548817|0.7066252181971269|-0.38656212963150016|-0.3325417768444774|0.36716516906871083|0.04752915590775559|-0.5089152955313069|0.7955561568180247|0.3098636776431745|-0.17784636910559465|-0.23181327908594018|0.31813177408512366|0.03353436056592687|-0.7725664955580613|-0.8047887041637714|-0.6930680500236183|0.28302391212889794|-0.6917500980414855|-1.0435583177511605|0.16251937248527526|0.7731251833227402|0.510974655188372|0.16700950929336217|0.7913431338391258|0.03211533676768473|0.6207047606450893|-0.7003846018831543|-0.18069412016727693|0.0014714557511138417|-0.014363045295781968|-0.3071105166410886|-0.934163908571766|-0.15580221268442243|-1.0383655347576917|0.5891692537446152|0.11029472521088794|
