-0.62186043197732|
-0.32568865503958877|
0.8581312803153647|
0.054734399670568784|
0.04444706890452214|
0.7995585545724652|
0.49962030844860417|
0.04478862316597033|
-0.11083140583983525|
-0.37238951150993016|
0.053400661271114154|
0.6500878717004156|
-0.18721341091994512|
0.25998866601029863|
0.18001469124981356|
0.28508062072872564|
0.680698544481422|
1.005355487932047|
-0.9409837048313499|
-0.1734169332898895|
0.8546961248843578|
-0.14387000445064582|
0.15789239280952186|
-0.807123823534596|
0.4966046592461301|
-0.1398664433911713|
0.7533424952451079|
0.454526219172204|
0.6947954806885317|
-0.7829198634247941|
0.9442675307854429|
0.9709858026885458|
-0.7283018068707421|
-1.0027456670577064|
-0.38356433495432357|
-0.632724817154797|
0.220404311072387|
-0.9540703417661225|
0.7959996125131248|
-0.37602233393798373|
0.43361862174112287|
0.989585805218383|
0.6797018427274581|
0.9049028976137096|
-0.5122778122092048|
-0.07244739265587637|
0.6887929946161693|
-0.8196644544334941|
0.4229147815539952|
0.010486828158035356|
-0.6345949390204589|
0.11124202685798035|
-0.872958382373838|
0.38354845901431084|
-0.8585614558440907|
0.6263008857495098|
0.7458125901740006|
-0.008957262442191017|
0.15601553052164355|
-0.505593648338151|
0.43682890102802335|
-0.8286358615854311|
0.9819262865978197|
-0.6411375970559465|
-0.6998446967755063|
0.40603121435160716|
0.7028377063381647|
-0.8304223903737582|
-0.1635046759712983|
-0.40380226822052107|
-0.9391757739257149|
-0.4822718427063675|
0.8075175934644143|
-0.949656317274356|
-0.5149810046279152|
0.44658222677557047|
-0.7735120788053751|
0.044906531503674414|
0.0601744040531857|
0.3439228648932932|
-0.32080106912203254|
0.12382195302666812|
-0.3911434452723306|
-0.6494469489462622|
0.038055462154926605|
0.9233462675920264|
-0.29805122486402874|
0.08366523133796758|
0.9517621815914832|
0.17204420735845455|
0.7056631303447073|
-0.9606986331582573|
0.9916025799312518|
0.061841011860632095|
0.9224281494784414|
0.6641079392398215|
-0.03855933430752729|
0.8224512675955078|
0.3526415943708487|
0.7315067268829304|
-0.690021139299161|
0.9230041607078823|
0.1814433920404803|
0.5784725583444118|
-0.6179815415354747|
-0.774501349071848|
-0.8580512604732504|
0.8291265295524824|
-0.4472196573415286|
0.9130030433934413|
0.2866447619308846|
0.3348162064549848|
-0.6324297469515231|
0.35050438416336466|
-0.6135635633002001|
-0.4866470647356891|
0.8841203532084217|
-0.18423094978150298|
-0.665881354284005|
-0.500199561150067|
0.2734441909605972|
0.2690545352269191|
-0.8462266357335094|
0.2612005231623747|
-0.18555612604538432|
0.02388386319409687|
-0.3840023646725572|
0.2713542501343453|
-0.9853595552194225|
-0.7677814230094588|
0.8511437792824181|
0.40863281891293096|
-0.34453106100670755|
0.8863082597028308|
-0.1478754302757299|
-0.6502180709808955|
-0.7630333341513313|
-0.5728933433207262|
0.5856590600810585|
-0.5778555658190289|
-0.2120332467383943|
-0.8932918045880379|
-0.7934710766887619|
0.7621410647894462|
0.8679936587269496|
0.012849202559876633|
-0.18449540474952006|
0.5567324559186259|
-0.8439202691797247|
0.6153970862341133|
0.2875225625542773|
-0.3713214706474076|
-0.4246072811739177|
0.878027951620742|
0.6410662736887947|
0.5833777329308303|
-0.9290804518238946|
-0.4262045169284977|
-0.6742810065614013|
-0.8077782469098985|
0.0157991170583056|
0.1083241416624623|
-0.6985697706440803|
0.6651293866936231|
-0.4921234162787954|
-0.6679085816309711|
0.8226852274529801|
-0.15806473321375503|
-0.9906511426504658|
0.43229822189794515|
0.15286373246778331|
-0.9003139680574854|
-0.37317681547338605|
-0.8650435167252102|
-0.5501853233765245|
0.8200727675727337|
0.43726835135134073|
0.11850960978395704|
0.16274946556846182|
-0.3554530118034534|
-0.20572951023198524|
0.9166973133889855|
0.7144727233097903|
-0.1145985209623755|
0.5730551086145669|
0.7418855426807507|
0.12409416356845776|
-0.49691142245654973|
0.8798335476687902|
-0.11437462205267548|
0.2631528123851021|
0.9411633416852528|
0.743153285474458|
-0.8532229840925866|
0.21084861478899913|
-0.9529213246164931|
-0.7887395812944163|
-0.1747224388836133|
0.22268067727521726|
0.737293015569497|
-0.6926364257624507|
0.8854531579699675|
0.21480135113364918|
0.6693465839055074|
0.7371474539406495|
0.1869503432207274|
-0.6219023267316401|
-0.025376476247395172|
0.3484540712954191|
-0.5359923124657131|
0.9147192429188594|
0.3350276302290324|
-0.5188628576823052|
0.3752201057918837|
-0.44908312008488416|
0.10905446834318831|
0.6877714789851286|
-0.6479322864859842|
-0.6482901651836093|
-0.4350597722617278|
-0.47102323978317007|
-0.4553062361029143|
0.37687425637129707|
0.46414544379308603|
0.5849855924831054|
-0.7676929808507172|
-0.5028966099141903|
0.26939306653225953|
-0.8931257994485515|
0.8602619038964974|
0.770506698568629|
0.34126351501615315|
0.003262806530314962|
0.7191194727890631|
0.8252211324744273|
0.08327838652235892|
-0.6945455956869447|
0.5801922518844429|
0.8951866735370712|
-0.1150183716636142|
0.022931353177640026|
-0.9646119772346795|
-0.49509179232882755|
0.9261809376928588|
-0.8021187569347629|
0.152782857036049|
0.43742550744837433|
-0.34367193705738375|
0.3979904442067101|
0.8054906880445024|
0.9468952869568544|
-0.7441350371878013|
0.2779170882522936|
-0.29463240247037176|
0.8742643734158355|
0.23920889459740838|
0.060505106054803644|
-0.33482742133415105|
-0.23400402452250335|
0.2746753827969486|
-0.253838465122082|
0.7404558135596631|
-1.0132836834188172|
-0.8153765410272987|
0.21481425204185126|
0.8126690884057477|
0.1525272602080932|
-0.4452221646485779|
0.7794987310015641|
-0.35134054129900955|
-0.6726878758297296|
-0.24786977143315014|
0.045828155352460105|
-0.861997877398497|
0.5275819970653371|
0.8156751157190684|
0.7709913014313021|
0.24055210275319602|
-0.1544629240642434|
-0.03521521855016087|
-0.47590983052066943|
-0.13194318595621504|
0.45938910801812755|
0.8966273650909197|
0.14357072339328403|
-0.05341459109190417|
0.9965249446919751|
0.17828204130185246|
-0.9063529365913245|
-1.0059235336916632|
-0.6159583425240279|
-0.8534451513892423|
-0.1871190441792035|
0.019365230534252667|
-0.1820255308781843|
-0.7195585076961855|
0.723173690096273|
-0.6693959375772038|
0.6213344958226487|
-0.656320730520636|
-0.7031563524541508|
-0.4267817621537936|
0.30368116305265497|
-0.6375758311166262|
0.666637102564948|
0.5675172924483454|
0.7503168256752992|
-0.4877448286836424|
0.7610717501456431|
-0.21632832301503804|
0.10121323662759528|
0.7388026457382124|
-0.3143990672352655|
0.5618718927460621|
-0.45738901941332283|
0.666128324143945|
-0.07028434592717042|
-0.003204039436618975|
0.6517901817122352|
0.6779870966271742|
-0.43535576675912796|
-0.9242681137395483|
-0.9260807615282108|
0.3058281795837114|
-0.8486951712225446|
-0.9452109047405977|
-0.8060220555572309|
0.1500483816736129|
0.29614360858158484|
0.9584611942762153|
0.07255444317377206|
0.7692109434552443|
-0.40661047550048557|
-0.2965161895917288|
0.9070696154566523|
-0.13257094340757708|
0.867097823343363|
-0.9821809817091515|
-0.28150339908443134|
0.43524486632924236|
0.24408772406094292|
-0.8450229723383472|
0.6184660309710405|
-0.6803432256788307|
-0.6651566447763905|
-0.5305143279309015|
0.8710244404967943|
-0.6701725600710687|
-0.2326700501351547|
-0.9514138102833256|
-0.2202985289972731|
-0.6292814775058413|
0.6365739806444722|
-0.9647329456765863|
-0.6361997670447591|
0.394057259552504|
-0.3463629574444479|
-0.33327455739089096|
0.10016692719379498|
0.9824768650221332|
-0.6186070716062916|
0.07469256638424107|
-0.27619037653671075|
0.33382894587940676|
-0.8278881646885886|
-0.5117681383801219|
-0.9150560930367309|
-0.8869112825825514|
-0.6061278615357875|
-0.5005938946918529|
0.014392864318036854|
0.39001949662179425|
-0.64345335303928|
-0.2189031913281189|
-0.6732463868519922|
-0.067909731720753|
-0.5316090378129981|
-0.8421896265428972|
0.34686218586358725|
-0.6744275189736837|
0.29954142750549534|
0.33513956470490475|
0.5425013444068918|
-0.6404421975963506|
0.21191812344966668|
0.29860516389201597|
0.812736457934817|
-0.4347974029226751|
-0.33240676148331977|
-0.43138794939912334|
0.2954497140437126|
-0.371019643243521|
-0.08922749520952959|
0.47527782443561456|
-0.26015434356247197|
-0.3478451069125112|
-0.538340915228643|
0.10414321469488225|
0.12456127086746083|
-0.2303490198676522|
0.9517464853046486|
-0.9559306151045303|
-0.8133664723537383|
0.8943211156055083|
0.4097468865917308|
0.6933648929841159|
-0.791169359931452|
0.48745709512352103|
-0.6174781565389321|
0.37309322501081055|
-0.8222512125939563|
0.33246687519263035|
-0.5796790756867887|
-0.5901771027247027|
-0.5966883443685893|
0.9771967548088987|
-0.7013697136030801|
-0.3448575717324888|
0.11463323328580563|
-0.055440114767870634|
-0.9992569000644893|
0.9650761940260982|
0.737554740643341|
-0.011829046800493997|
-0.5632502897906185|
0.08917304647225116|
0.1805686735203693|
-0.6079715459685818|
0.7550862671144087|
0.23849343944641518|
0.8594850652826665|
-0.23754809901991966|
0.535184082786616|
0.6561150479177542|
0.4928245526718321|
0.3981797330283345|
-0.9784699277003884|
-0.18458108536714268|
-0.7909572908691682|
0.12871363649389383|
-0.5532284978998979|
0.6830730952060312|
0.994570607218433|
-0.2857783020112665|
0.1507734435477309|
-0.27818395487483405|
0.02245217832667984|
0.9268236263838364|
0.8144439105088875|
-0.9793704365338602|
-0.6167511954062007|
-0.5343652557280988|
-0.6594877685634432|
0.22155121273980455|
0.9019464495443219|
-0.542545554136992|
-0.2397543894162189|
-0.6106138711097169|
-0.2798534587563996|
-0.9090757931237201|
0.5778345506040794|
0.6182738514094654|
-0.7028792525147547|
-0.765704798610205|
0.49238467943600844|
0.8844171301691931|
0.06562106788197704|
0.43996005765515206|
0.5778945502368271|
-0.7016540100655028|
-0.7976478201366212|
-0.5000616558955846|
0.11058412868362472|
-0.31006463905980186|
0.7197879056600892|
-0.9659918202033015|
0.44515625288126404|
-0.20592061723977112|
-0.9493795441502703|
-0.7536403908546585|
0.3505059459776708|
-0.14142388844433276|
-0.6558971436218102|
-0.8279941780967431|
-0.22644595416715008|
-0.5675746408397011|
0.20295454552707712|
0.07726012545432512|
0.7996329741195165|
-0.7260959871064535|
-0.3253170505017812|
0.9198460797506407|
-0.2619622971785475|
0.8158567110432358|
-0.007841462475246915|
-0.06823797118552763|
-0.2657745542732079|
0.6111200482198598|
0.8111493180088045|
-0.6643005242719685|
0.32449085572776637|
-0.3306352338993028|
-0.1164041899845634|
-0.7593693942508729|
-0.6626341533679261|
0.32442445266907444|
0.8037026357950177|
-0.9555044352155903|
0.01901085112027862|
0.34538757790024177|
-0.5838159259921871|
0.922169171985819|
0.0859450811971354|
-0.2550313096573753|
-0.5480277717631663|
-0.25144600361414615|
-0.02063867075061412|
0.5892716250755774|
-0.3797720370880765|
0.32613880681182983|
-0.19881777195616884|
0.6962843935729879|
-0.1677731095507614|
0.4374471088093527|
-0.8369407442934947|
0.9143054283498133|
0.08065294621897809|
-0.6068068681658436|
-0.16880424443075104|
-0.017707183512994492|
0.3654959565542337|
0.7528000673737378|
0.5382417385834909|
0.4061484945236913|
-0.9953016806299319|
-0.8955360405079855|
0.9540265270387|
-0.4173114291565507|
-0.5364438887007719|
-0.39638561230678404|
-0.48326604620242736|
-0.4192543862563027|
-0.8316806167296346|
0.5264691836335438|
-0.9313480831884768|
-0.33819102283734537|
0.3435735989408991|
0.28294369440992895|
-0.7435916533483441|
0.8762413721751233|
0.93921418011865|
-0.4632198805996852|
-0.06736370063667675|
0.9100545346439234|
0.8699552642341633|
0.6397320568984101|
-0.601830912025956|
-0.8787628410072552|
0.2005478630782054|
-0.8685547617165009|
-0.6399605606608213|
-0.22236020694662842|
-0.04629224215401714|
0.9644204217013955|
0.0016017188639595972|
0.9424888406998277|
0.37439164544987186|
-0.657818051738711|
0.6730907012192132|
0.43432413209830856|
-0.6976003425945156|
-0.30246883784373885|
-0.10385429840579516|
0.02757634964525302|
0.34786580201023276|
0.49419115713487954|
-0.35608321476639193|
-0.14694099626094237|
0.587181178691682|
-0.5765751953229129|
0.2858676819389401|
-0.46766348663298724|
-0.8829419186009142|
0.8567690689442319|
-0.9193680996549792|
0.6181856585052392|
-0.1439940581622453|
0.6887024435693159|
0.4405680237908616|
0.5017609840590604|
-0.5561861073780822|
0.009560547145468886|
0.857798821203405|
-0.33277668536113164|
-0.4707927710922899|
0.08373905287213665|
-0.03563457003143134|
0.2736035493573387|
0.6387751585626497|
-0.5851665785837757|
-0.22179599257860436|
-0.44801384025933627|
-0.9447765260883526|
0.018582658102190647|
0.6275074675817536|
0.5587079535241689|
0.06594971248126986|
0.5937312671227116|
0.8619258793842144|
-0.08936609203146685|
0.4404553273355245|
-0.6584275878076905|
-0.4656443653292353|
-0.20704993235103772|
0.14151151985015822|
0.09657940319285792|
-0.925991989544017|
-0.7586886387042345|
-0.5691492360120713|
0.3075805075088448|
-9.367133656692676E-4|
-0.23588471297043978|
-0.8915054497978647|
-0.8685447184579511|
0.15190941281572162|
0.5334323087950427|
-0.4506186840912745|
0.2806026033995635|
0.5524648748228492|
-0.7994440531430318|
-0.5032276268612303|
-0.3114070040829451|
0.0965903016944069|
0.4808816495884058|
0.9977460494316704|
0.5060005170356853|
0.3836962739935583|
0.044159888815836594|
0.7377657283360769|
-0.316939005955898|
-0.08977782822110955|
-0.2470178067865563|
-0.45408819752425195|
-0.2130528106334669|
-0.3576194483274821|
-0.5907918871615049|
-0.9748293171150783|
0.46887272034778066|
-0.45654526889417807|
0.6981314858337544|
0.07311017296238885|
-0.34620182164171215|
0.4904137459091244|
0.9606711860899743|
0.6865738055880108|
0.4640545510020334|
0.4311872276297828|
-0.637730939500179|
-0.9535761950107386|
0.19930777305555458|
-0.09448618209265672|
0.3702934125676636|
-0.09491619090184604|
-0.5507821358914482|
0.5248855432190079|
0.18443057494568307|
-0.639212969082392|
-0.6502461066214142|
0.25906821629261184|
0.8782235793763324|
0.26978402418884584|
-0.31453951495907767|
0.5145620159312605|
0.510403889646796|
-0.37314562585786054|
-0.853833488865977|
1.004066439565125|
-0.8650284622709677|
0.07599825363121902|
-0.05437981696920434|
-0.05307300127986904|
-0.08865384267113006|
0.7025205254357956|
0.9594186125884123|
0.35960558477856697|
0.8794484494029403|
0.794688415630548|
0.7236591386791598|
0.5900716892483131|
-0.8901354615188093|
0.5975666549589214|
0.222539904693056|
-0.34332158379983285|
0.052530669931360775|
0.43080111789784403|
-0.16212352683497858|
-0.8417845535012866|
-0.7002072713071386|
-0.5472857179209559|
-0.17147871550112959|
0.9467867747018631|
-0.8014820511162801|
0.9866270124153663|
0.44820806885808073|
-0.5942308261840883|
0.6914763028511101|
-0.7143864869833256|
-0.39819229033492687|
-0.6320326246165231|
0.23265195150187096|
0.34599811617667753|
0.920000560181966|
0.9991465155859887|
-0.47272216037879256|
-0.2828299486574808|
0.9612679394373118|
-0.2021390326227269|
0.014006577520425046|
-0.022986126055545425|
0.7375638944962147|
0.21661453911929765|
0.38442204904897903|
-0.8556360974471365|
-0.38233285406273676|
0.7138921515388031|
-0.9181900128390886|
-0.7078918054791955|
0.18120061813833405|
0.7202761904443074|
-0.6309064836432657|
0.7204753340350826|
0.6262912697295732|
-0.6263458750452061|
-0.40230183577363793|
-0.8875915380890157|
-0.8188031313933029|
-0.10979408199539858|
0.21761918097210647|
-0.6520443340392763|
0.6681411623242562|
0.09014355078066806|
0.39056777039443696|
0.6711744176472026|
0.7523540659486992|
-0.7958673903962348|
-0.3343577476309383|
0.5172026480745734|
-0.060930849881122955|
-0.5830445359078247|
-0.7357142449054414|
0.4486349103988756|
0.8395039767836362|
0.7805329799266745|
0.0036681222703325443|
-0.017393073678955113|
-0.9297182900544719|
-0.017820699417884934|
-0.66009754106179|
-0.7723790165299171|
0.6746903701273727|
-0.2726519131524063|
0.8238432281117525|
0.5532568211688192|
0.8421394522839992|
0.8902894794916208|
0.09129437724228762|
0.6549204622478457|
-0.3044221607903957|
0.7472393004977617|
-0.8680758611934387|
-0.8770611191996803|
-0.038028484468291206|
0.819937755942719|
-0.2872284626390945|
0.16565778256543737|
0.6928949571110288|
-0.7630116404818783|
-0.7335862633615537|
-0.3933766757286507|
0.9755997910922937|
0.6925899355370126|
-0.5164414949358593|
0.4149817794937063|
0.6403315852927813|
-0.08019395870567674|
0.15941517208020772|
0.9456475586763423|
0.6431680121266151|
-0.8704055208209007|
0.057644572196589805|
0.44342471439634046|
-0.7625126531858757|
-0.9483067774334384|
0.4456566487026983|
0.7770759184584287|
-0.0341631980312419|
0.5870747329175026|
0.18068427005945034|
-0.43531936566362694|
-0.8755331884886068|
-0.5791134528072619|
-0.932731338426879|
0.524665285757181|
-0.30672051475708195|
0.7991534341608126|
-0.1727085769920799|
0.2131127091012532|
1.0032656497233279|
0.06382548855075712|
0.7738072492315591|
-0.6285070101808086|
-0.011378777270062701|
-0.16735640796459336|
-0.81513791412121|
0.65934528406503|
-0.21344459320487846|
-0.39071113287599135|
-0.23536049479572463|
-0.9743434487286088|
-0.6700903123940735|
0.4549644448462451|
0.9947730323942064|
-0.9132669752791189|
-0.6363782164067404|
-0.23199166074766725|
0.5129380645821606|
0.45339549088344744|
-0.018942040651654037|
0.9934929897630949|
0.7475879795453712|
-0.9486448696378769|
0.37832889933898456|
-0.19918237695530294|
0.7488842070589121|
-0.5637978099306267|
-0.2903550741464419|
0.5379266240574724|
-0.8337737642214216|
-0.026124069643250276|
0.78558751786227|
-0.5692334098901369|
-0.7930705791980657|
0.8330053349876334|
0.12226423606496065|
-0.8237497589909426|
-0.6367583714532593|
-0.5412513906813693|
0.6870648937178516|
-0.7897108023181552|
0.3828086474945903|
-0.5268419121894532|
0.22331539759129496|
0.32475329629874994|
0.06600442604611328|
0.6441266687237179|
0.14389390225648307|
0.8620600299923035|
-0.07987390889876407|
-0.9796533480015308|
-0.18912216945680718|
-0.006878828871230613|
0.9582321288497059|
0.5230406242629206|
-0.761702804797902|
-0.10326481327881666|
0.29647813980957877|
0.6865146124922573|
-0.01777776598267192|
0.15426928208373|
0.46940979911211095|
-0.3848008659581453|
0.6471402960728772|
-0.18104317553611535|
0.9624742594727861|
-0.5915490156667299|
0.36748926667714943|
-0.2910337786541817|
0.027929363163526396|
0.36959187972056073|
0.21479169657010966|
0.6901173621567165|
-1.0143780317645419|
-0.04532745840471316|
0.7208078800692591|
0.09454986821735774|
-0.7771897911469042|
-0.49502999384724744|
0.7678162750199032|
0.547783142996894|
-0.6045769401616566|
0.3780951490440015|
0.6608343644137107|
-0.47434215735501634|
-0.8111339879169426|
-0.18374636925601884|
0.4255881769668058|
-0.7344339619378858|
0.1457510658041483|
0.3312772330037223|
0.21515897361056152|
-0.09100724638622411|
-0.4210456639937048|
0.4464874458771218|
-0.7971224601740757|
-0.5491266060130553|
0.3040489734196471|
-1.0118198159659888|
-0.39230489905381344|
0.0671731642993|
-0.02067707053696919|
0.5711494996913993|
-0.6613931203767532|
0.8849496423112948|
0.815159498079503|
0.02335665461428701|
-0.7940206017352798|
0.9505652749614747|
-0.7527500956596086|
-0.46947080894934756|
-0.4037453233616438|
-0.010891282512644401|
0.04083909577042261|
-0.8113937047504646|
-0.28874528034272473|
0.5691062174686176|
0.9637413231397689|
-0.5695058155584262|
-0.4003648818587329|
-0.47867628002827034|
0.2194421802096604|
0.05015571179946543|
0.7585143386693207|
-0.2619788833203411|
-0.005723166428588974|
-0.6084089278181297|
0.6334154739610699|
-0.5750563962452737|
-0.6728248173337171|
0.5972873962580671|
-0.2218180423097199|
-0.22440715294671382|
0.5289964685797932|
-0.863697092771814|
-0.05441405211209614|
-0.3312249024742802|
0.7747906309512206|
0.6530516035444109|
-0.3615689970504019|
-0.6027526610214206|
0.6532907940848531|
0.3249912985894586|
-0.0015289424601783426|
0.4226930213865028|
-0.18141618360154882|
-0.5836546456205471|
0.019912002563617637|
-0.8032817615596256|
-0.8804809184711825|
-0.5346001358160798|
0.10684537175523691|
0.5042282919897383|
-0.4975002043518173|
0.140132767466092|
0.22503180063805117|
0.766324150237074|
-0.027126589468735002|
0.07172435252182668|
0.2648911641032252|
-0.11078244219423398|
0.9837091155536491|
-0.8155272159321724|
0.8424952580723043|
-0.9713604714638232|
0.08242984108906298|
0.4909664064832972|
-0.27031217694151044|
0.8648057167389822|
-0.4033433927592105|
0.6704285510848583|
-0.5551059132053439|
-0.7380817198272528|
-0.8393359713186108|
-0.7316229476805101|
0.15487059802368247|
-0.16580900418027733|
0.5117699696148441|
-0.052339936725113036|
-0.4093557281396854|
-0.05152084132940935|
0.17336971833982276|
0.8989273849914177|
0.1844360778622384|
0.07610461760274144|
0.48568085963273416|
0.6333855155342276|
-0.942139045219631|
-0.4764920144350825|
0.9572963107026647|
0.0376147212032611|
-0.6159700325230778|
-0.6787699679922955|
0.517844816341902|
-0.43196084299713416|
-0.6251585707539049|
-0.7810282143383843|
0.8174496490600118|
-0.18184588991834083|
-0.48825310426765156|
-0.10293967135405264|
0.2498722013502822|
-0.8417898788813513|
-0.4300172495716226|
0.03420704736827005|
0.035081937574803025|
0.5562472843786939|
-0.12277527443470349|
0.6372401081086038|
-0.347081986257915|
0.5034548865943737|
-0.01417863053769611|
-0.8403918704233663|
0.07491996964066014|
-0.285007902145743|
0.7782367322578844|
-0.9452178646906638|
0.04364307888248105|
-0.22402205926273183|
-0.36677499447552214|
0.8617399299552666|
-0.7551665661896928|
-0.6549578945176656|
-0.3385721354955084|
0.9810998714996939|
-0.8160419605649682|
0.18589314697916348|
0.20779794833569737|
-0.21637898239120518|
0.5632108181004949|
-0.550078280112205|
-0.686652917154421|
-0.5047093361620956|
-0.9282529957704154|
0.9883670086498985|
0.732798792580126|
0.08008999818086718|
0.5314464427654289|
-0.17068778069695528|
-0.41524055266124477|
-0.4646621453236728|
0.4786893097496048|
-0.40897661226399956|
0.6822106333472697|
-0.361200122431152|
-0.5661274123025541|
-0.7543164259080383|
-0.3962664605909319|
-0.0017379091267664653|
0.2429611911284184|
0.21928818336525022|
-0.6125417716122179|
-0.8977725744380628|
-0.9351155319107284|
0.44527671646563277|
0.6595412988455409|
0.5026690747474105|
0.8144708348246974|
-0.08242387602567842|
0.13630223512148013|
-0.6719336190808625|
0.3320742795221752|
-0.8878323452395922|
0.8186972462790998|
0.09926743631896323|
-0.8649034332490637|
0.00929752831820094|
0.7104540601491095|
0.1601732460587359|
0.8710241795215319|
0.8120467334055521|
-0.07323860124574554|
0.2652280847062894|
0.5479954163461587|
-0.3254631287264635|
0.4730677988978206|
0.38933674415519476|
-0.15540180821365276|
0.6647543092032946|
0.09054319925070368|
-0.23663394857553374|
0.5212809283303963|
-0.22099365281312006|
-0.16924591273059178|
-0.3880136184410308|
0.05515249237090868|
-0.31845060772179384|
-0.48350774893150267|
0.9485638423388792|
0.5539032712793172|
-0.8804398777898644|
0.39221007262927976|
-0.2742749476459133|
-0.9824670137189544|
-0.3634273739086572|
0.3151491976773525|
0.9596376405713767|
0.2201860172264265|
0.29900049449555|
-0.1593390901574074|
0.960919529517038|
-0.234269002323048|
0.7912549731844905|
-0.19702289080324373|
0.80908378841959|
0.9223259586945982|
0.2658517094231356|
0.624937686979556|
0.8725217154090881|
0.4876713220319733|
0.9609026362381351|
0.30962596572934903|
0.38914984148619025|
-0.21909544173725984|
-0.7355085738680273|
0.4314602643156131|
-0.6041011766923081|
0.7371003316941371|
0.5664431266879161|
-0.28540459421637426|
0.29472371711198875|
0.2167037112312412|
-0.9175648745113653|
-0.38566735752367015|
0.6247710191429205|
0.18871324437686993|
0.09951538121101612|
0.3486977018950413|
-0.47460310215926876|
-0.6142447624897015|
-0.6956508283732656|
0.8795479692893309|
0.2517379177967872|
0.8380434970975206|
0.06864656341665158|
-0.8050552328142709|
0.4395613880819954|
-0.23423998248406172|
-0.037512048666175024|
0.062304952627259526|
-0.701267418338764|
-0.23502252587522987|
0.521888122024697|
0.9781511828966649|
0.9759694117970169|
-0.8838338675577616|
0.2611234957056338|
-0.9472035657160273|
-0.5178767101023386|
-0.879943868419253|
-0.1268463867244193|
-0.637648687826521|
0.9243460014937235|
0.39307968319914255|
0.2527791310184978|
-0.8924888510344804|
-0.19020328291562635|
-0.5472249911841668|
0.1953557267253082|
-0.762018909545403|
-0.7349664752855894|
0.19511180760695432|
0.6972364168039065|
-0.264119830188454|
-0.6524365184986483|
0.7268147804676229|
0.3986126976452271|
-0.030329204003922163|
0.3206319223886743|
0.5097826168448758|
0.7589687995480064|
0.7305791727435977|
0.09629480066983473|
0.27112628741817174|
-0.4634188575876514|
-0.4692564061035229|
0.00842075292597849|
-0.8316493782658314|
-0.4744682921315005|
0.4014794667907047|
0.3399572135119971|
-0.4789517701830866|
0.13295313587747917|
-0.934459376671337|
0.07699827804680884|
0.5280200929791546|
0.7604365111908075|
-0.8796439792583627|
1.019008041181663|
0.7644687690718899|
0.8635770782105202|
0.1700852728800297|
0.04189348504431091|
-0.3128158938514871|
0.6993259169807591|
0.3964806738091439|
0.6978534546420596|
0.4600863097234646|
-0.18119827973117958|
-0.3144098875563763|
-0.4927174988027533|
0.4128585510212173|
0.6038708410524036|
-0.2255111759595053|
-0.7711737316936796|
-0.34523681583983584|
0.9467473625127617|
0.8368309448159097|
-0.30618340361545826|
-0.3664787169975525|
0.03515582033793541|
-0.34441061525791866|
-0.42768512669703085|
-0.49000149788589537|
0.6284510698186087|
-0.7127470300833676|
0.7526428990235763|
-0.1708291918996406|
-0.7148187716404296|
0.5814866929033468|
-0.43402814580389165|
0.47718948785940457|
-0.6836307158190829|
-0.34425310680874316|
-0.6159319966554055|
0.9336945235649305|
-0.6524109910757994|
0.4849528959033014|
0.1281973565800896|
0.846930431687792|
-0.20872483553709753|
-0.4028174265498722|
0.49062557197831247|
-0.3357208721644262|
-0.8948194060252278|
0.5432316750174986|
0.4727276042834383|
0.7076498942395558|
-0.24448816518175354|
0.5297336256848332|
-0.5744973251302866|
-0.2506216911306418|
0.43779288971069596|
-0.120450424522773|
0.20107533203020533|
0.12851640937258033|
0.9457087313619509|
-0.8014502683153383|
0.7929471142519565|
-0.8980137360307225|
-0.7975766440131425|
0.855807581106642|
0.8496466813005468|
0.40799943549416706|
0.8736216031957947|
-0.7979711180028725|
-0.5344603485764164|
-0.8670883088388517|
0.25864676222679495|
-0.5959919031131996|
-0.9837585120800055|
0.7285876210718742|
-0.8539924333117129|
-0.7658324534230625|
0.5666985530213793|
-0.7649245516077066|
-0.9450860305790416|
-0.5775688702990235|
0.09906954888303073|
-0.7750197472487912|
0.9782846571358115|
0.647307701686583|
-0.7666503636668862|
-0.8067759429232946|
0.8244442050503555|
0.6278128395592776|
-0.6583691401292674|
0.04737521187073731|
-0.928884856330906|
-1.0081080633156465|
0.741441048809919|
-0.08463959847776482|
0.062126548837422614|
0.2532455529892361|
-0.8310325188859111|
-0.689942786775529|
-0.9248594041878473|
-0.6317870360475717|
-0.7032933374765011|
0.8481365782535306|
0.9224093599516039|
0.5056542026147794|
-0.5357845078568135|
-0.7173963492714525|
0.04195144630124403|
-0.5236560602438478|
-0.3822063107488997|
0.6234102539400922|
0.9816298597766201|
-0.4098609458144303|
-0.38225465472819087|
0.9040259107810398|
0.2304495613966382|
-0.3859688166413159|
0.2055585814988223|
0.7521832655875261|
-0.4927539853124605|
0.772414070532245|
-0.645677001266986|
0.3903936043329652|
-0.3302099128005606|
-0.25918138197644064|
0.2672831994584089|
-0.5806945027302214|
0.38231520630125204|
0.8105101560814061|
0.8886731167024154|
0.919664889004574|
-0.021627735752041747|
-0.010333109910408813|
0.9573075581744119|
-0.5599173313946899|
-0.8802516244683489|
0.6704610881411343|
-0.27133493631607813|
-0.6825402634138054|
0.9910458871441833|
0.24682764570929175|
-0.753171778634245|
0.9530637568682919|
-0.11560675716757562|
-0.8937866851310908|
-0.166985485889297|
0.3884263054199009|
0.1669159910665787|
-0.3492827290800287|
0.8252571794677193|
0.760551251599772|
-0.11745527730139334|
-0.6434064761964629|
-0.09891343708474545|
-0.013079170906860919|
-0.5453029342443221|
0.8340540765223008|
0.7851227081695566|
-0.7420799595734306|
0.8575613221495102|
0.047403999401431564|
0.6783484948603034|
0.03763482618706829|
-0.17347947688352816|
-0.5590816706498695|
0.849180022315743|
0.9762955765889764|
0.5011924508651576|
-0.6056549276369791|
0.2641472956263989|
0.7447211792334277|
0.026083095796026506|
0.706135573457579|
-0.7816960903067217|
-0.30969727058519064|
0.4591185971649992|
-0.22733372917530734|
0.7813255087542446|
-0.7480001333619885|
0.31832404718368457|
-0.9044085368058417|
0.5565927888828225|
0.7892967790188682|
-0.4381097165002571|
-0.12639369804778766|
-0.2861606367297249|
-0.6267477650270948|
0.2740050608784135|
0.5602161594772276|
0.9689631206414943|
0.7641615596377913|
-0.11423492368982274|
0.02918911193291476|
-0.5743413641042361|
-0.13055634902026342|
0.4504904909451875|
-0.025411411509190733|
0.7342638386755544|
0.9457975251301861|
-0.23013175237024572|
0.9073587668767069|
-0.09679720052820148|
0.6763368580852885|
0.6656644647619836|
-0.4286298501820225|
-0.6621486944315521|
0.329800366537803|
-0.9272941244153056|
0.029595302310238922|
0.18511494509798862|
-0.5324937472459285|
0.5915906135196397|
0.8554272076655387|
-0.7943882830791036|
0.8636641403869161|
0.6857078326492799|
0.0709377105110279|
-0.21318621384111544|
0.8413054683109328|
-0.38854124916881694|
0.8364563388484513|
0.30576288032001947|
0.819467234191541|
-0.5837329141900087|
-0.8770960617659214|
-0.3258868761781285|
-0.7617228073845744|
-0.8727561798631748|
-0.5405073151921199|
0.014480495596704925|
-0.9410000721607105|
-0.32688426015851874|
-0.9900927375185097|
-0.5900696995223829|
-0.011404059407559643|
-0.20029293644003904|
0.19892822364894314|
-0.5467544626462366|
0.8224731066512081|
0.2603315525995403|
0.880485462807265|
0.8444129250525056|
-0.6814104567986492|
0.23556757087908176|
0.2232219496617389|
-0.92828830462132|
0.4144716963371436|
0.3051536452444768|
-0.7366341957531267|
0.24451863777322816|
-0.49628119536311477|
0.6751640865549582|
0.703884191143447|
-0.3381112891013634|
0.43066358163955964|
-0.017654223424111236|
-0.4950258063836785|
0.40157265281729265|
0.6389433460032258|
-0.23645353527489335|
0.33602344725708344|
-0.11967002186823984|
0.9431403676759086|
0.88401416038457|
-0.28103721367778767|
0.42124311577731166|
0.16165339017241717|
0.6676132212321723|
0.677671315695464|
-0.017175315122684096|
-0.044340428042409084|
-0.9972853691378369|
-0.19530669399556885|
0.07589558949326992|
-0.9686483800041346|
-0.044138992699827566|
-0.16917786145446206|
-0.05897508423673526|
0.003789454436679146|
-0.6564836730623741|
-0.803902486647721|
0.441129589992562|
0.38660250152316494|
-0.3457054472661256|
-0.10046413638478777|
-0.29436265971931536|
-0.6615419953986941|
-0.7784762196536256|
-0.42331567535562536|
-0.9339562951876843|
0.5644922676989108|
-0.3363401081713259|
0.22656614911659223|
0.1586545360241701|
-0.25887543843044436|
-0.3378758527142477|
0.9400980469202144|
-0.14294177458654783|
-0.6930547367154222|
0.3796474374282317|
-0.7915610864003986|
-0.9802056078789351|
0.4463304993702921|
0.7605110085559339|
-0.5169443580562786|
-0.2415714566198055|
0.0541727105681414|
0.01247148236635888|
0.6684386559662904|
-0.08039636731917045|
-0.22725341032395635|
-0.048910188902846395|
-0.031178539581908537|
0.8464253871358456|
0.49823321499414697|
-0.910235537109892|
-0.4197153467506852|
0.7451173097245257|
-0.3618949358569412|
-0.07073457097657035|
-0.8374371765751191|
0.2651187060286292|
0.5889524673545139|
-0.7223870302960552|
-0.5650638606435858|
-0.6749904431594459|
-0.7280201018382159|
-0.34998335349280363|
0.5484896530146162|
0.05700020041384395|
-0.1339173814215261|
-0.9417492196821715|
-0.7465226474389903|
-0.3474326075967253|
0.5840856972064641|
0.5615700443329708|
-0.8401467115781448|
-0.8389300431076836|
-0.06338660584226265|
-0.37413053677998304|
-0.025606961244786123|
-0.6042143971274309|
0.22188649986798623|
-0.6001055215343858|
0.3565503056357979|
-0.11277033058878873|
0.8348561603222379|
0.2112317505909614|
0.6802789934929534|
-0.16284890354083534|
-0.30878077602902665|
-0.08012814419905984|
0.7856381265516589|
0.2737975945711837|
0.5220663266248222|
0.38698299226171273|
-0.8984934906556074|
-0.3929110139153898|
0.38656395016708234|
-0.46654588030753485|
0.8878305973359428|
-0.08802028493530523|
-0.7614463339584345|
0.7836473050410371|
0.511191824997502|
0.2721937874308648|
0.6462972220052531|
0.11234017915562912|
-0.06883352375135925|
-0.17366447279313804|
0.004531721034970423|
-0.30235169664633116|
-0.6765637749956432|
0.827129836258613|
-0.8567396289081974|
0.8299985136755658|
0.5493481930245273|
-0.5971144383417428|
-0.5186865816092238|
0.9138873748752188|
-0.16911278572113905|
-0.06852839929501228|
0.05626499858348914|
0.5889809146282318|
-0.7021247720196029|
0.32162357080609666|
0.8488238940499017|
0.6669480515350801|
-0.5845239451555064|
-0.028115260348329462|
0.952318990019043|
0.42793848828217523|
-0.07132822130828631|
0.46583955582387737|
0.8998535708425471|
-0.09764582913108717|
0.23151492289385586|
-0.8131877055645226|
-0.9028586985754348|
-0.02968240611103609|
-0.6193354676362807|
-0.5643862130819197|
-0.4339062898926392|
-0.40791900332745273|
-0.6304095034935921|
-0.04820714819273238|
-0.2787831828401463|
-0.03681599927110959|
-0.4348158128572488|
0.13639773738751743|
0.7241568243561797|
-0.572786967799698|
0.7611443023146025|
-0.298580234207316|
0.8824082485270609|
0.21896589176483677|
0.8600016376365057|
0.8423938727088782|
0.5737048617991857|
0.9367539781638482|
0.9482838606702524|
1.028291093098782|
-0.6929875266248786|
0.6611841310850847|
0.4231119291289147|
0.7335139141180967|
-0.023151351485308874|
0.5081855261445143|
-0.3144921294271802|
-0.6745414445463712|
0.011430908255424681|
-0.786998141843687|
-0.28187600760182824|
-0.32496088170938797|
0.9022500248660277|
0.3165339552925641|
-0.7641498317372653|
0.30303646338012463|
0.49321421634243123|
0.6267969812564427|
0.6453873761793422|
-0.13804463630378977|
-0.870502167349326|
-0.9006116936608517|
0.8744861779942622|
-0.2242317358212868|
-0.8974887191800571|
-0.8531110936268423|
-0.7430757433172748|
-0.3652160733404362|
0.6410056147306538|
0.5488618276154358|
-0.29356891787902917|
-0.011185811513401906|
-0.4814181066763482|
-0.5009757969656639|
0.5036000527608319|
0.26534800812636516|
-0.7514356187607435|
0.14846000448112268|
0.5491889847563649|
0.041002635036839624|
0.46895494593716525|
-0.8238487419058808|
-0.7183236252436163|
-0.9822979171471453|
-0.12815917358835252|
0.8403959639082598|
-0.04214537157511962|
-0.3881883570133959|
0.3637737006032942|
0.753581676959823|
0.09676209817761533|
0.6816478518677995|
-0.6216020796092043|
-0.8837685908332381|
-0.23546022017238333|
-0.09847143532632012|
0.19069478607369522|
0.20918297896674615|
-0.22045078366481088|
0.45765504284889025|
-0.9336461543575609|
-0.055745011651092274|
-0.6875491622236746|
-0.6497521916278761|
-0.22146577039560997|
-0.4182785691888313|
-0.4161539832849995|
0.046846506922201644|
-0.15420819882419673|
0.10401894457846639|
0.09847797458612159|
-0.8234341478320558|
-0.8972874132922256|
-0.1480144609588766|
0.07666819386039911|
-0.37065786199479717|
0.14823724313777184|
0.07434437290704471|
0.9480392838378724|
-0.5689799789849954|
-0.16766161039484223|
0.6856121420397647|
-0.5145230023500809|
-0.5121904644883957|
-0.4089872944057547|
0.6198380991791893|
-0.8046518282307212|
-0.6014071413834767|
0.7874241022434827|
-0.7901297856208382|
0.7436604743824703|
0.9274297289198236|
-0.8507082681142146|
0.861010339752742|
-0.3471173279632381|
0.4765796112671127|
0.030978567701685774|
-0.690560796731398|
-0.10341042679056446|
0.13749971285601015|
0.17214815765731808|
0.026327590842523833|
0.5924334390307567|
-0.6863286210753261|
0.1429916847671703|
0.5458381726511089|
0.05662910580127053|
-0.7860283160170775|
-0.7898602527630934|
0.059643324498534996|
0.5723480654538945|
-0.05975629732523738|
0.3694430614815059|
0.2810968038926975|
-0.4537114207190503|
0.3546171861338884|
0.3147366160424421|
-0.23302541651192066|
0.272254924607117|
0.18185089637722368|
-0.8506193539189609|
0.059578134937953664|
0.14068086293317836|
-0.15794462796925082|
-0.4279118193690093|
-0.177209732012941|
-0.5809057336593679|
-0.8303488238456802|
0.01868344565256558|
0.3838557160433594|
-0.09320983214808362|
-0.46845165898684865|
-0.5920544778950191|
-0.4825674798977269|
-0.29196148836159846|
-0.6039004381884521|
0.9865645124886047|
-0.4121197507112451|
-0.5010961674985004|
-0.9566913300562506|
0.9098616585872816|
-0.9327322663452462|
-0.5888605929692091|
-0.82988707368872|
-0.8549915485994531|
0.4578230389696428|
-0.5990718735378129|
0.47129771155369987|
0.6612745912739099|
-0.6188308273064227|
0.21414618884104195|
-0.22003375797438995|
-0.8633236146516235|
0.12194463501775953|
0.5286078682169519|
0.1342757428937773|
-0.2068808944667349|
-0.27664679508926604|
-0.07440762443037098|
0.788409018890672|
0.017515855443838768|
-0.7643789106680409|
0.19738623724761167|
0.7087590244798656|
-0.15571388528088131|
-0.4304269275040655|
0.9553066349425131|
-0.4767396478890623|
-0.37609209900582813|
-0.4355570030530419|
0.4668969768006099|
0.5568950997696267|
0.7141488161467027|
-0.07574946178409213|
0.026383096606179657|
0.9474163543101943|
-0.33416935813065735|
0.8116910516583962|
-0.7782536350945882|
0.7730590639310039|
0.044747691429981404|
0.707414075678355|
1.0250936959449748|
-0.7673835839787247|
-0.42359533337381106|
0.4766118496532366|
0.38649099619360056|
0.940214953326211|
0.8679491733498091|
-0.4358758703671113|
-0.995987521843386|
0.2657883333092492|
-0.5197572531296507|
-0.6067082650303477|
-0.021864625120943917|
0.6048998626097098|
-0.7411340210198986|
1.003516370423499|
0.6497272344293815|
-0.27974556786800947|
0.901495676912206|
0.20476515684506974|
0.3356681992769938|
0.3155305371565034|
-0.35535833826971797|
-0.10208870465218663|
-0.9973857848543891|
0.4351787056777956|
0.6985543294380167|
0.3342915753604515|
0.668426791344847|
-0.465070099112943|
-0.19365822886984313|
0.26107457189422084|
0.7918314159451187|
-0.46771542137166455|
0.7814621061232531|
0.6512338014718189|
0.01867045458982617|
-0.19603410922590148|
0.06254343771008847|
-0.2603944156596709|
-0.5322466490302539|
0.44970360894602396|
0.7041480393247382|
0.061120985760655715|
0.5092630575420029|
0.004419171630874944|
-0.13293886383223574|
-0.843663740219545|
-0.36385936119786894|
0.10233913869804967|
0.9307401180015742|
0.9184434335260924|
0.0030325344629988826|
0.039416574514905205|
0.18389864690089772|
-0.025712877645445487|
0.05214011076777134|
-0.6926262324679631|
0.5801130942539053|
0.3512107022527689|
0.6615131702034613|
-0.3606564790826265|
-0.35492365906984563|
0.7065510021912306|
-0.2894341915143249|
0.026176907946521007|
-0.39626629110099254|
-0.6741071681240656|
0.07829901305329849|
-0.023243965355479745|
0.7919105594188113|
0.6486648201200447|
-0.08713302829703795|
-0.8414528588600257|
0.7380416575483678|
-0.5176925738391077|
-0.006930510589751235|
-0.15557660208127747|
0.08480628406059845|
-0.7005460536409082|
-0.40309834562500924|
-0.16380276660413598|
0.5348346370435731|
0.21097124955379853|
0.39853148412624134|
0.2432077673523668|
0.9715505627218456|
0.04543127784917375|
0.7704415509715439|
0.8634831545345513|
0.8176552067214925|
-0.06961869073884452|
0.6414861740358581|
-0.5921035732910476|
0.20867776526883808|
0.21275961258824397|
0.40586667891119277|
0.20839462194033614|
0.683798475715865|
0.2842820048173229|
0.07493326817058434|
0.8586176027633732|
-0.21050596453111886|
0.692943528194048|
0.4306637662687843|
0.4840848274598008|
-0.023404564116444423|
0.5678460348364229|
0.37168530338887235|
-0.8487170456000227|
0.7611425775787066|
0.22511285399803044|
-0.8013771822086014|
0.9854921128754738|
0.5580464240619193|
-0.43829131667237153|
-0.15096754969586956|
-0.8673811868747057|
0.09004523930290992|
-1.0097859200678148|
0.6560672876622482|
-0.47067977547232953|
-0.5073294974207985|
-0.1965256734216991|
-0.7418440775994989|
0.7106628648184735|
0.901039966342992|
0.8292943870467616|
0.5794925206192667|
-0.7609478026758992|
0.022641541293146182|
0.251726584488799|
0.42621918468913733|
-0.7767766189657964|
0.4517130942504227|
0.17465183148700553|
0.611828582529534|
0.7182895770564606|
-0.5859419068772975|
-0.9789748685329052|
-0.9087032035785269|
0.5891590084723695|
-0.8444831236652012|
0.6690449199407275|
-0.40960011882934955|
0.3948448577616637|
0.10180959070040599|
-0.3673427653797064|
-0.5156451022980509|
-0.5028368467190941|
0.9063886831204814|
0.8346631151882977|
-0.7980691306771511|
-0.7918089148208123|
0.0504638154765241|
0.9027309129222966|
0.8142416359195717|
0.6825082732482706|
0.9730055969725322|
0.5467872537800191|
0.5137132348228033|
0.22321635205484325|
0.12746704591028216|
-0.46921340862131916|
-0.12265672729940817|
0.013660203104182476|
0.940457660257551|
0.17244908981942617|
-0.41059087595853694|
1.0067864294877071|
-0.5596432130197027|
0.18551543535377144|
0.6925266113838866|
-0.3498709620242393|
0.6118990361140049|
-0.20561198306255898|
-0.34443991677843805|
0.22831620214416706|
-0.5811020565576696|
-0.8054622740916143|
-0.140473128218953|
0.5721230207693102|
-0.14253861914082813|
-0.25688814157377465|
0.8009285808615633|
-0.31798260502066666|
-0.8431166101195794|
-0.7982116627446089|
0.7997631206031003|
-0.9471562585589371|
0.5020623782866759|
0.749826786887657|
0.941330102347133|
-0.7601224176206401|
0.03237017870272001|
-0.9408668490885012|
0.05528103617389106|
0.7396643918724695|
0.4572378028297084|
-0.6845326533356884|
-0.5106636458921641|
-0.20488066872168542|
0.5609854034039214|
0.06546409251069311|
0.12493507011810814|
0.4867542208932431|
-0.15332558675944638|
0.9362890824606407|
0.41521678453380173|
-0.9306641703092984|
0.41221226678179096|
0.3012980455974274|
-1.0148947987414976|
0.17906919642651453|
-0.4358091108829779|
-0.6044346682810426|
-0.2432843638527303|
0.2592880772729678|
-0.8106217201425416|
-0.7072654613454344|
-0.28935057174597945|
0.881781915299682|
0.7681372981842202|
-0.5612469561002831|
-0.7301062100317497|
0.272554407742366|
-0.7102822356536939|
0.17701002600904409|
0.2788348415620143|
-0.5609072847513372|
0.1547546715319011|
-0.052893577432705396|
0.8178171751433821|
0.8685514900673207|
-0.4149927104391623|
-0.7161252042900208|
0.8611473275104469|
0.9781872598601037|
0.860616918781278|
0.863296627309572|
-0.5298124853928156|
-0.5073551609955194|
0.9470236570849847|
0.32461332316410035|
-0.0156779627405212|
0.8458414288807028|
-0.3163136951226161|
-0.8715397354554402|
-0.07463752256419413|
0.877269281367675|
0.5752885220105048|
0.3541296502754548|
-0.9606128457639991|
0.7781083795966451|
0.06484707445280094|
-0.5614542435208358|
0.5107308872973471|
-0.6564152143613311|
-0.6202938694819996|
0.47866599579386554|
-0.7435464297790008|
-0.30492056198530193|
0.7024819574452569|
-0.31029108428708524|
0.06738145169170413|
0.6590791365226022|
0.5961510926051593|
-0.833181215545317|
-0.8157626802577|
-0.8910983713224097|
-0.07700049354430291|
0.48030813916989007|
0.11277969875134541|
-0.10586828832728223|
0.5803107753657867|
0.33011126893470133|
0.4118239847690376|
-0.4327968616325095|
0.9177341006078078|
-0.09664908831145866|
-0.7154113049988319|
0.8404059857937397|
-0.5188200669601597|
0.3349603726717559|
0.3708046729881039|
0.452269303377882|
0.5405323146875517|
0.7229387637101383|
0.5928966856651983|
0.6612606247656194|
0.6214006000720034|
0.4422078734184121|
0.737860830135616|
0.09773432876986408|
0.1179604632209883|
0.5835077941660821|
0.7289510339103056|
-0.8921658413581062|
0.5599322133964135|
0.1588861484878424|
-0.33257347192569087|
0.6670916643603501|
0.29352755287001325|
-0.758620402185857|
0.8970902735035415|
-0.4340267195729251|
-0.5910622801031812|
-0.3183083110375753|
0.76574049295899|
0.943445182606297|
0.7750822156772832|
-0.6682667071887586|
0.45820806804045455|
0.9066780062909497|
-0.8306217246568447|
-0.6829540573167602|
0.38115101826677084|
0.49420439168481883|
-0.07862026469783098|
-0.5077465186591639|
0.3321273975429743|
-0.6121657860804715|
0.5010734356297766|
0.5820218051446002|
-0.06285673260641511|
-0.03352759638007637|
0.49916395644046535|
-0.08714949803594371|
-0.2418476745229516|
0.5697952530869639|
-0.7415168631249374|
-0.30823108661403653|
0.3470521662114636|
-0.7133124926893971|
-0.1158714639285981|
0.542393550725148|
-0.1850848068918368|
1.0046848143389508|
0.7651074432555627|
-0.7250514713601098|
0.7316944494734002|
-0.4621652770192765|
0.849926575043661|
-0.5630862843753691|
-0.2609063568615458|
-0.9762375500724035|
0.5917653005173212|
0.6547792230176419|
0.8893136898425414|
0.2656246720009189|
0.9624213037049506|
0.029797049036104906|
-0.4723182587601057|
-0.8610070367900995|
-0.5552060498570206|
0.9301623915489606|
0.49264728747820524|
-0.3005575578020658|
0.3823417828432348|
0.15615739120390904|
-0.5252145682055676|
0.7730188157300962|
-0.15407020773705105|
-0.7522771432367471|
0.6636721237373274|
-0.9649948016817528|
-0.7813640949384384|
-0.34806910523048484|
0.867688250191366|
0.06348737232211156|
-0.509612108699549|
-0.05162594340033416|
0.8199678656797443|
0.4777574348347101|
-0.6419922443648952|
-0.030749096291064905|
-0.7492067879287492|
-0.2985637196508318|
0.7967494006940374|
-0.8916819694171003|
-0.9662597325651072|
0.9784428721579433|
-0.24567776037218986|
0.10867841750165891|
0.03286682708884253|
-0.5200107327486454|
0.4996246108100865|
-0.6525760838797803|
-0.10195568038319805|
-0.29556219125820177|
0.7016834560719278|
0.6113765951439676|
-0.7826103951011768|
-0.628171474468498|
-0.2201444119743534|
0.7534457610091382|
0.5648215405258045|
-0.8844035180594547|
0.37442397362201446|
-0.1624165247356404|
-0.8846148268945424|
-0.17985120892154144|
-0.37632032420030026|
-0.024658642526316117|
-0.41642625970955754|
0.29805034124129276|
-0.7032919246006732|
-0.8592211543707668|
0.743447992176793|
0.14018576626643636|
0.5306519701701665|
-0.7027772263599787|
-0.006119086897660288|
0.7941244507750608|
0.8361025682928791|
0.041602845231374266|
0.9505690838986612|
0.46375957492319225|
-0.22488777600012264|
-0.20013976529120797|
-0.6467560930607057|
-0.13681283255841267|
0.6472825111287936|
0.7021723863424802|
-0.09550282414125852|
-0.027824829525392624|
0.3895056672937334|
-0.3290120131146611|
0.9401481466187739|
-0.5486492864192144|
-0.464513266441516|
-0.9708631913738891|
0.11337567016556753|
-1.0193305372427144|
0.9083458366845849|
0.8040157632173881|
-0.13276390504465188|
0.8751959671907592|
0.5189184458563056|
0.5672486768737962|
0.6173169087167648|
0.9657340637876687|
-0.22392393896736773|
0.3118001482140497|
0.18901034841656433|
0.6280992065223304|
0.08326790394850202|
-0.7329500595525232|
0.689902086355165|
-0.6707186942960323|
-0.6304803900079408|
-0.4974774256883781|
0.327879208701191|
-0.9218779185462459|
-0.054380302381289464|
0.4866348253954633|
-0.884566349302898|
-0.8750769436951475|
0.9162020533218279|
-0.47112240441686465|
-0.6039819464938346|
0.9837139131896134|
0.992719613348341|
-0.7327362488544581|
0.590374264437407|
-0.8279448050372682|
0.5026391092301911|
-0.3532309959579136|
-0.15339382443450578|
-0.511603535664166|
0.43061594586523316|
0.5299251301423478|
-1.0172847364919642|
-0.3477810535403259|
0.007285170634112623|
-0.1898114769868327|
-0.48002645070818595|
0.2573952984623313|
-0.9400527481309228|
0.31167127659415517|
0.9668632677045932|
-0.16848816228260471|
0.4809109700865798|
0.6935009923334945|
-0.8102257350653996|
-0.07190389764036467|
-0.31698938024721546|
0.6753186320132184|
0.3679277096115473|
-0.07240770117755466|
0.824542590339625|
0.0530645894068601|
0.19608456082483317|
-0.36289328942147014|
0.7842248593011031|
0.359059040597798|
0.1892259860946694|
0.12542562040710167|
-0.025745971912088387|
-0.47557536617939816|
-0.34247416765278954|
-0.6723608949774327|
0.8662242205423905|
-0.28330481756372544|
-0.6022917070205096|
-0.17052853921866962|
-0.9207904739604118|
-0.7018258250982686|
-1.0160095132424145|
-0.8633468879125684|
0.7401932726873757|
0.40142582942190563|
0.0265151082422462|
-0.0073293664489082555|
-0.2580202522153082|
0.6220167359446375|
0.8289241947236313|
-0.5162932892709594|
0.12108561081876695|
0.8497960857578429|
-0.6718310556964161|
-0.3578086494286799|
0.9599199331169698|
-0.39529935234214086|
-0.8728178595265719|
-0.36713835093231145|
-0.22609190825487444|
0.20351461160337783|
-0.694653817559872|
0.1883713607625306|
-0.14410630948339226|
-0.08727293939395556|
-0.6709581338470397|
0.49241169787222605|
0.37951061776978123|
-0.05969645462837057|
-0.93688616452026|
-0.4172729776038796|
0.27325656389991493|
-0.7983752727869151|
0.05777510858934474|
-0.2943996690369268|
0.7320936469347925|
0.3784944796064324|
-0.28840345036046616|
0.4599598724618697|
-0.8447537420015381|
-0.10682081484749496|
0.4909745144242671|
0.47337470694210143|
0.5373036813848739|
-0.1816200468505398|
0.11806692338745571|
0.3522976728098447|
-0.7946854778785192|
-0.9343754941588882|
0.13505865061061145|
-0.9608829458308659|
0.15408594193401373|
-0.3719418762701111|
0.4094043671130816|
0.61726464932897|
0.03729459015133998|
-0.7844662931021691|
0.9486997663396018|
-0.1491017465269546|
-0.12595499454529246|
0.8434758648057704|
-0.23103445259071886|
0.13851298536840653|
0.23969376357812483|
-0.8180225335094992|
-0.37885592904069443|
0.9599838777730906|
0.5115832047773857|
-0.8820200788415794|
-0.5983565056431356|
-0.7853376266804971|
-0.6908689934194209|
-0.010471053191438678|
0.22820559437515434|
-0.4715875379836147|
-0.7229036892451528|
0.778309846314373|
0.2640963438405361|
-0.03831207991211893|
-0.018997289196667787|
0.04950633627094607|
0.7795241562924131|
-0.5174598178781236|
-0.516917434472096|
-0.6310466044061317|
-0.10428763546145287|
0.6424298893651719|
0.9299935398677014|
0.12646333987586114|
-0.714909223001109|
-0.802158105056787|
-0.4274378070045901|
-0.6083336384953332|
0.6506198894113937|
-0.7587459013313889|
-0.7572710492246553|
0.2494399417372836|
-0.2636420186391874|
0.8632933918881822|
-0.7749620671423705|
-0.1277007839053229|
0.5149542909415563|
-0.8467289425690144|
0.4381014038551633|
0.4738230652093786|
-0.17139926372790645|
0.8962762438608753|
-0.7845987559155688|
-0.793312759621955|
0.2611676705364478|
-0.8831925522158445|
-0.5954060142376991|
-0.31669048565836766|
0.9469385873906198|
0.7548393900106984|
0.48995819134209273|
0.2605825064399565|
-0.8447637483442734|
0.8857243822688322|
-0.780177764545453|
-0.42228786977688687|
0.9325901358713434|
-0.5197707301409121|
0.38432129801143233|
-0.505582054229286|
0.5600924555984785|
0.41751412495054285|
-0.3472180959764667|
0.15097501016237097|
0.24075313728102127|
0.9119470059279892|
-0.21825732598284314|
-0.4620009756097698|
0.9400738842887466|
-0.5840512719386161|
0.5556731008566981|
-0.7594749163474841|
0.0779652528228404|
0.14609161281830876|
0.9158179086122793|
0.9463930308904562|
-0.5057688293400128|
-0.14968166662888618|
-0.34406574805644036|
-0.4043492639058234|
0.46951924951422025|
-0.08398189947723397|
-0.21744227906109442|
-0.8870922780437399|
-0.7721509882785206|
-0.32157731145242624|
-0.10873997768059107|
-0.8709725009433147|
-0.09888434758707484|
0.23890721239081578|
0.8936348427969418|
0.7423458471443762|
-0.37989370638608916|
-0.5593088113424867|
-0.5187769403257415|
0.1844651650291508|
-0.8425827664138751|
-0.45646570135949466|
0.016957180880624208|
-0.32734962037931703|
0.9386719699861044|
-0.011560174567811398|
-0.175868597462482|
-1.0045752883732308|
0.8471880451923841|
0.799573265576547|
0.49926953939923674|
0.527231472498209|
0.6865228222701468|
-0.5324995532532112|
-1.0158587447606442|
0.039389474540631096|
0.9426557855488384|
0.7706462932199871|
0.6599595194140482|
-0.24370326337526335|
0.8155859869884481|
-0.43759182394908186|
0.7742973629365187|
-0.46214926702238013|
-0.0481546963303706|
-0.9472976086005066|
0.5119278807041737|
-0.6740716573446431|
0.3745521979411875|
0.9571633606713215|
0.23545694092215386|
0.09844698517125282|
0.263244281630467|
-0.24037197108323421|
-0.07419670273480265|
-0.9192612800756105|
0.43934142871922216|
0.597219101726091|
-0.7150996615246301|
0.5560088586424409|
-0.6328366547707461|
0.6635985857439506|
0.479067557455084|
0.6759238930364861|
1.0104080872574606|
-0.36608885945190517|
-0.5335286242239865|
-0.6025085476794027|
0.8326236950843072|
-0.4636244736138678|
-0.8970861162490013|
0.2147465865296893|
-0.06706169559060216|
0.09872290547545946|
-0.036862860182937184|
0.3791800112791471|
-0.9547957723192081|
-0.00504134490037092|
-0.6141134648563715|
0.8494687258796721|
0.832831719778754|
-0.38441487068148883|
0.5957084689192135|
-0.6860366789653951|
0.7460078836402068|
-0.6423334854866021|
-0.7835252662005122|
-0.2589718403480085|
-0.0577867186315085|
-0.21831869543404908|
0.13342581598846115|
0.12616318514035893|
-0.8668211006309982|
-0.22326518331545023|
0.016586022461463495|
-0.12164760461928349|
-0.7380773245768226|
-0.02177617933147767|
-0.5592717544807136|
-0.18859977704506287|
-0.5859087027210127|
-0.27207027026478486|
-0.6702117459356299|
0.2250265041441894|
0.8730307303433693|
-0.2453904659532632|
0.966886011228073|
-0.368047357900682|
0.5865581513685894|
-0.4153486334821431|
-0.11521731003082816|
0.9310568463516379|
0.355111272383131|
-0.19359164696648176|
-0.19984156979525575|
-0.8519211466416277|
-0.54756841119021|
-0.2762873553527529|
-0.04256932991468842|
0.67655579876589|
0.7422832534574477|
0.6990035153870529|
-0.02717943169749369|
-0.37157334066907477|
-0.44008492375760566|
-0.23387231071965317|
-0.7645685252696214|
0.40985349887567357|
0.3187915233608723|
-0.29444959510867486|
0.7781352538689912|
-0.5916319157934172|
-0.15908772690075584|
-0.9894292751286845|
0.7963128009818851|
0.17094749355570527|
-0.8506984860350844|
-0.4486932564370434|
-0.4997226139005004|
0.1770362543950922|
-0.5961040603729432|
0.6683672563570797|
0.4563283962585108|
-0.6889565213794802|
-0.4326174556084077|
-0.291288716785533|
0.7066160231383113|
-0.7322896499990472|
-0.39908979619374324|
-0.9691052309951876|
-0.8593693943760713|
0.35348594243810105|
0.7341992990302402|
-0.4659534828295077|
0.91561230870206|
-0.8865632758081231|
-0.5085774092347163|
0.8078264372225807|
0.38358015710881926|
0.9732615175461602|
0.9081518412954293|
0.09948474131555385|
-0.06557731664299943|
0.9700542576752345|
-0.3749637561233792|
0.6024315132770843|
0.959381535990081|
0.9262446224188172|
0.9746465496338347|
0.013390409832474161|
-0.7124869951349124|
0.6104221448463069|
-0.9050616323847689|
-0.7642381010516872|
-0.48311060939512557|
0.6615044505448138|
-0.5459806660432083|
0.04984147807418953|
-0.7085605598305791|
0.4166121451247428|
0.4997377155040856|
0.0545942874905923|
0.2482992521372948|
-0.1865047009823178|
0.2825665701527803|
0.401604380940137|
0.5507469562511276|
0.01881056349885416|
-0.11636580319451706|
-0.34081165879313174|
0.5896026273941146|
-0.026603142354127814|
-0.606935067404983|
-0.33685716338099253|
0.6442378179992141|
-0.823647517447148|
0.2999347270738727|
-0.8618126827122546|
-0.886133515498184|
0.05185037689434361|
-0.4154706825599929|
0.019799017127358792|
-0.03843924770410922|
0.509190805960974|
-0.3425751198581623|
-0.6295528674094675|
0.1925044971965395|
-0.0897070526719733|
0.37445282245439115|
-0.5902734402920756|
-0.8995219701852407|
0.03553428534306213|
0.7656167663057926|
0.3110396556271042|
0.706343107820544|
0.1315636823394956|
0.14675145588134916|
0.23622795590135579|
-0.7652269839482987|
0.4387775078428154|
0.7955011161850143|
0.06998850156449646|
-0.9877620210946514|
-0.8134366240683789|
0.5742176269352618|
-0.7429872131897062|
-0.23654789642840196|
0.20723106495570315|
-0.3243380414523827|
-0.2577105123279235|
0.15389408942717195|
0.8003234121312437|
-0.11894056924610708|
0.29753058257351106|
0.2179533124944868|
0.22683786212497167|
-0.11048728168256725|
-0.8963623270894459|
-0.19842541292163868|
0.5713854937946204|
-0.3267279880633169|
-0.4793780135855388|
0.18795258216849994|
0.19121422129423024|
0.7974086054021703|
0.7009684244916731|
0.6709945693971323|
0.6228803780012635|
0.7572904668381514|
-0.856421612526147|
0.03643603191458646|
-0.37056808449786777|
0.3404844320987512|
-0.6982436868028105|
-0.18461272021878683|
-0.3017432303605445|
-0.006305016924854474|
0.4201338323546997|
0.5100809152531027|
0.1358453721139591|
0.30739649705062394|
0.166026735009054|
-0.5673401353468022|
0.9653023647756698|
0.9713321826258688|
-0.34647782969658236|
0.1239347038453286|
-0.6472993692662861|
-0.4634340601810357|
0.11247357291139697|
-0.9387702499568138|
0.5624697535820955|
0.1027385102958826|
-0.04297388551688586|
-0.05282625029394693|
0.12367890489172907|
-0.16641200316870186|
-0.9172259023787536|
-0.6733371242989034|
-0.925015468376468|
-0.7054156857463011|
0.22702829434191305|
-0.8052182783825135|
0.28030679108733697|
-0.6918763605101312|
0.06858089127010973|
0.574812927616789|
0.7064974271402218|
0.3079910578523653|
-0.8345302748831727|
-0.007622499350619611|
-0.49447641330043135|
0.20752450904300693|
0.9799123668412311|
-0.4449627221597139|
-0.8960235777731682|
0.6212638418575156|
-0.6893155070878287|
-0.26354107184309045|
-0.6111863249940421|
-0.8644456132928093|
0.8657262502815842|
0.7990414487565767|
-0.5405868459058624|
0.5557959639996366|
0.38643092419801583|
-0.7136180914541904|
0.9035067881730986|
0.8957189655895381|
-0.2809202299199755|
0.6725195875163504|
0.8612030204538297|
-0.23758296149577365|
0.6901506710479256|
0.7347327245407006|
-0.43567487242697345|
0.7210540570125734|
-0.09895337397546132|
0.3722234031305749|
0.4512517244421395|
0.39526131979913415|
-0.4780143052041462|
-0.6558849597069382|
0.46102943617895975|
0.8008741870223204|
-0.7354091833482667|
0.21915932750555722|
0.392139528839213|
0.5612329153836609|
0.09117803725532729|
-0.0034698498387987736|
-0.6851610523062661|
0.8117083576044216|
-1.0220376209577668|
0.19199003695380237|
-0.048779593237507565|
-0.9319962056704453|
-0.19878566887364796|
0.5383391614916988|
-0.7781707635797597|
0.7045062864012868|
-0.5314044895242495|
0.9755155306844318|
0.6938325378275527|
-0.9788702741592531|
0.9196422332291646|
0.19538254421879134|
-0.941958282255752|
-0.5030201062628906|
-0.3306519448306295|
0.8306855151151138|
0.26159515473302564|
0.44887030439215975|
0.6304407165994547|
0.03037043764115046|
0.7331254956495895|
0.7969547447589392|
-0.9223360327511176|
-0.03809335701311768|
-0.0581377931470803|
-0.4046489298475117|
0.11892701539618553|
0.9154968719858403|
-0.8457025630857001|
-0.6402576648493099|
0.02364214220559172|
0.33114142591918305|
-0.6830323156143832|
0.90076023728352|
0.4188773528082204|
0.4528217862052524|
-0.7318325636102488|
-0.04729795126576789|
0.85733603123375|
-0.6863907216399632|
0.17592824199337373|
-0.03168587700123184|
0.46552249224750436|
0.29197649195496417|
0.4137041559947339|
-0.5134069757224698|
0.5940111367462177|
-0.30933217291042153|
0.36273240139433327|
0.5316951281630203|
0.7151933055222066|
0.6781967303703517|
-0.555175202489095|
0.49570930036418437|
0.43831198410367317|
-0.9733077384907629|
-0.7979227524646887|
0.5278503357223427|
0.39974890141585145|
0.9449444126768869|
0.4479451867840064|
0.1779476033610597|
0.1066333014466883|
-0.5527147309552389|
0.3896393552408052|
0.17176504037572524|
-0.322992523451905|
-0.8450432023861393|
-0.9097961502100289|
0.09986945667682329|
0.9689017648869285|
0.3867171099639102|
0.8725593851322275|
0.6873744349060611|
0.20347349552268248|
-0.8108038132555612|
0.22299141826532554|
-0.6776950408234012|
-0.6330789358314218|
0.6721358647702976|
0.6501558138273779|
0.5581447862728406|
-0.4708613522299793|
-0.9063704228119799|
0.11523452332991393|
-0.6855514308035048|
-0.9514720843772585|
0.2542955313164947|
0.8176913378315209|
-0.3091819311965222|
-0.18992483768387472|
0.31885827882833884|
0.9657256959100473|
1.0071453990910373|
-0.09548825227390205|
-0.32749498190477877|
-0.13399353126180613|
-0.6056958496379914|
-0.9566076493837496|
0.41765329560444764|
-0.590173870954074|
0.6135006670286645|
-0.6959347439351581|
-0.4130723667620644|
0.7590418893926436|
0.3694003052065403|
-0.8470578732278502|
-0.30864830037034763|
0.9058170286191959|
-0.8477216895494815|
0.2525929529878558|
-0.3232961604603998|
-0.33376918577129694|
-0.6199667915036136|
-0.5158973208451583|
-0.238059132175955|
-0.012076296412175962|
0.7506836988588037|
-0.16204170515665914|
0.6334228993788974|
-0.2131731716324266|
-0.8486344143341825|
0.04070038490548646|
-0.32380755731909694|
0.2790096409306707|
0.7953197440140733|
0.7107562947846494|
-0.7703722865425048|
0.20213312960489407|
-0.1773790897796501|
0.8083598077516154|
-0.6723848800066736|
-0.5571596697283416|
0.7815276136878412|
0.12708124894799253|
-1.0130801930483562|
0.26881718662899373|
-0.5395779723236559|
0.07126587835697508|
0.3199237296689117|
0.45245597830297013|
-0.8266661931707325|
-0.9618690717611366|
0.135754314359514|
0.4814423566511021|
0.4615749559789748|
0.55853139173437|
0.7845577496101379|
-0.8984947041847292|
-0.9801274903020121|
-0.09528248891605642|
-0.411753124901907|
-0.7706070217460276|
-0.8865158325739156|
0.918293643845029|
-0.05875755070913883|
-0.6993880551159319|
0.8969183703022482|
0.9454574640909253|
-0.027665123425785372|
-0.9550463635222499|
-0.21941046685940635|
0.4737686406385098|
-0.639516246365766|
0.7666030407493162|
0.08615178419875963|
0.9319724362956503|
-0.16665887908570426|
-0.09184080218579925|
0.9138768957095033|
0.561415001719334|
-0.5434958085421433|
0.4886120544957898|
-0.7359197105966041|
0.4333341033775176|
0.24467930161267823|
0.7749602744850366|
-0.46069388959026353|
0.7398725481160847|
0.47630694571241494|
-0.6712088350113534|
0.9186989272070095|
-0.7599819379807468|
-0.8362806664602858|
0.7493886659876564|
-0.561577366235108|
0.8861026041755836|
0.4644756615387671|
0.8815798934221665|
0.8024372629089689|
-0.696318054832174|
0.877939624196932|
0.1743152050244147|
0.7988523008133877|
0.002577042631045829|
-0.2794438603980914|
-0.690283950796497|
0.6988497962027445|
0.11895399692325592|
-0.9402503889738566|
0.9684242132187726|
-0.9107421389101471|
0.15303412156772842|
-0.6102939758143613|
0.6842104071924409|
0.8116346467753628|
-0.824252296999811|
0.7388959743489508|
-0.7039338760703859|
-0.5989443317630443|
0.13350709277934875|
0.9597904578702551|
0.40075842986650667|
-0.47114142193406233|
0.3190003296506929|
-0.43026357663696607|
-0.8455327641170893|
0.683338567274379|
-0.8828795296527192|
-0.6916566840792292|
0.43247286885632175|
-0.0905392210872038|
0.26061753133955323|
0.2879409733010615|
-0.2542064507382355|
0.13999394237500465|
-0.5495431539201086|
0.7510583356821456|
-0.8720857100149758|
-0.7832032033714666|
0.2042317228404645|
0.671119203078212|
0.5711658065007924|
0.019439352232660103|
0.6975150694600627|
-0.42814339394356504|
-0.10195738453235617|
-0.7454013483670369|
-0.24056812265753014|
-0.18345203988249706|
-0.7114220073859462|
0.5924141998874483|
0.1992098509112547|
0.5830538212770806|
-0.3600571395192034|
-0.831692990987077|
-0.1425907033139281|
0.09392715246483976|
-0.2700771930438691|
0.5549164201242219|
0.7163461193263696|
-1.0174476189135953|
-0.6492912608136395|
0.7788873106218533|
0.5521876402142506|
0.5419265579830417|
0.3412498478871009|
-3.78141832919946E-4|
-0.6747985651657427|
0.4112807874705972|
-0.9471537589941875|
-0.07291520185594841|
0.5171408829895465|
-0.3414372048118149|
-0.9454782631483101|
-0.5962989708968797|
-0.3444530777229595|
-0.39285336758277883|
0.06697996876781998|
0.6893292103060131|
0.8817668788289567|
-0.6711827524048919|
-0.2257399245817285|
-0.9267654082103018|
0.7742181074327924|
-0.2911140474344426|
-0.872672464072796|
-0.15370099519925529|
-0.21043254733240999|
-0.05157595987753907|
-0.18337166777470212|
0.5912347213407864|
0.4959225433300774|
-0.49218352828491757|
0.6992844824476598|
-0.3162627477494602|
-0.6839468379009807|
-0.587596688808581|
0.2375936005590122|
-0.43421907827006984|
0.8300797903749423|
-0.849771897901627|
-0.8886235321157033|
-0.40121316715388433|
-0.4645706382009014|
0.26704336720279465|
0.039915178412411066|
-0.5239089002677473|
-0.16443426752929727|
-0.41024821256963345|
-0.23329740337612645|
-0.26188783122717507|
0.5932840978770967|
-0.8812003917033694|
0.23183609543335762|
0.12332543061760898|
0.20096110018797603|
0.3844085222639056|
0.43808473923522573|
-0.3530049787417836|
-0.21143902936562983|
0.21355051857898721|
-0.5732840245912314|
0.8839650295221649|
0.7818110591859387|
0.7011016149644881|
-2.663285604613528E-4|
0.6768379555412171|
-0.5092542873110958|
-0.6403111994794197|
0.3657499176943689|
0.7436330582350111|
-0.2546955890495002|
0.8235022855719313|
0.8932785304726008|
-0.11614979658946704|
0.37123796310724294|
0.7361466721342838|
-0.928273838974976|
0.7671013662023128|
0.015335023158917532|
-0.049763193883719796|
-0.8264715245849581|
0.9011277615919185|
-0.8592169828347048|
0.13253977649695398|
0.5181470239865232|
0.802183431904411|
-0.20334840946797153|
-0.5385192103682188|
0.9326974500131798|
-0.2823240478713095|
0.8112030497321062|
-0.8703595586091432|
-0.1761935962589067|
-0.014938929043629815|
-0.3014237434923223|
-0.8950677799155673|
-0.715258941852686|
-0.33988532929826576|
-0.7329047698854917|
0.10773928427789553|
0.7563154060737228|
-0.5653925732166197|
-0.8789583080420926|
0.6930758978030359|
0.476029573412186|
0.7005752605358239|
0.6627231028988609|
0.8675650080879872|
0.4116512931863381|
-0.6076973975799167|
-0.38956226104148456|
0.8094817672339295|
-0.9922268659001932|
-0.48918964216337923|
-0.6939300817025091|
-0.5764675793829542|
0.7929272102563176|
0.8108601001675453|
0.8608693891446995|
0.739680384499137|
-0.8425824732860054|
-0.32139529429357083|
-0.5940427851797366|
-0.22960263083079843|
0.824189256291196|
0.8787210616107406|
-0.9980985812457589|
0.6484465902846411|
-0.7596687184260115|
0.8728765088084944|
0.5540431050705245|
-0.7617195614219787|
0.14931606708972978|
0.32431994088279215|
0.630088915732601|
-0.3152989868900972|
-0.06461478530203173|
0.1436822358740477|
0.35126419326721003|
-0.6009007152005972|
0.6543378197669624|
-0.2985185165983752|
-0.4311875894510978|
0.9272398765960412|
0.171973035704128|
0.21986612947901213|
0.3786411644486945|
0.8164261919724667|
0.5142285613388298|
0.16193402171471252|
-0.29553972392392597|
-0.7707292608966044|
0.6781697716092593|
0.08065570169570568|
-0.1417897930463223|
-0.13028748924857178|
0.36689190406387007|
-0.4957430331814415|
0.851468457452301|
0.5997655480447704|
0.5265899446158876|
0.27850654290498167|
-0.9985306730645787|
-0.781343563278814|
-0.03035507682317306|
0.5932364503546792|
-0.01728397617057699|
0.9510352091987841|
-0.802591412942807|
0.630474153378169|
0.8378576827415968|
0.7114814184667333|
0.8880636227312299|
-0.7300576176734871|
0.8640921529337207|
0.08259927113523373|
-0.4211232522434038|
0.5372269591988849|
-0.5224070734108941|
0.42421928898039196|
0.9122534326619264|
-0.7725044750620905|
0.08238619413324558|
0.5975079081953407|
-0.08968312826215265|
0.5792608558646334|
-0.6583905995355976|
0.6991555353049478|
-0.8699303738620442|
0.06485816702612895|
0.2517047487364361|
-0.5314491037455172|
0.2854549267518966|
-0.8898164739881008|
-0.3637371149246233|
-0.721912362525639|
0.5551794050476393|
0.667856058621644|
-0.640353204492517|
-0.7424947616996016|
0.3683054649693159|
-0.273494113460367|
-0.14653821430217762|
-0.400375156639375|
-0.8974535993398846|
-0.18489603158032686|
0.29343241773418355|
0.9151541182466615|
-0.713999907994294|
1.022667814105279|
0.3740790702296259|
0.6576137815436803|
-0.4155647730816522|
0.7978472912882678|
-0.7890155183693978|
0.2961371611674919|
-0.9078714449789012|
0.8840707461924122|
-0.688991650160131|
-0.3898877248770169|
-0.9063010929377492|
0.5631651861023109|
-0.5319789404299908|
0.010980066119641925|
0.8664506405575971|
0.0068530626445423085|
0.10424830562642207|
-0.40702648931003693|
-0.06198843058749847|
0.30353926614220694|
-0.09837499293785713|
0.8872089971085101|
-0.7498883789454954|
-0.49510696594276127|
-0.41036254005410117|
0.2408254644370928|
1.0147851304981812|
-0.6647173200869684|
-0.6639617934911719|
0.1669468395635728|
0.9677691819796008|
-0.8676252193359507|
-0.38374420181556707|
0.5407894436153282|
-0.33474142601625695|
-0.6251769525545382|
0.9595599190627206|
-0.2517431991251047|
-0.3608038046441458|
0.7520943550726634|
-0.4560203421540313|
0.35292686647386756|
0.8124382919878252|
0.6547028568253792|
-0.8486221857549027|
-0.24488869001755031|
-0.7270986068891203|
-0.12347976644566623|
-0.9015936825510951|
-0.22725531937591242|
-0.31486749762053107|
-0.03088525992198611|
0.9417562174869747|
-0.5323515300552257|
0.13907927755177285|
0.19603692729526148|
0.7368188718938087|
0.43600684717913585|
-0.17694854540221686|
0.44166761820803396|
-0.2667066843584252|
-0.02649596105754336|
-0.1902120209316737|
0.6374537720366151|
-0.8072862680962478|
0.6122290290000448|
-0.657902187562573|
0.6391299811477326|
-0.9729366282984168|
0.6690119519638797|
-0.548849019040616|
-0.3687815390029566|
0.7225191802179386|
0.34594156827488215|
-0.773671356514961|
0.4781927598780311|
-0.10157794349089087|
-0.6829465250494186|
0.9989861562621654|
0.517665175694787|
0.7373941879344129|
0.2238826756738024|
0.14452405452835007|
-1.0132653154672855|
-0.31844119726045655|
-0.8881853291931278|
0.03530980392713781|
0.5740613499856224|
-0.9995627162617312|
-0.16564335133155042|
0.40168312167333087|
-0.7422532255493276|
0.82200958706238|
-0.4127692912673899|
0.5835964942773199|
0.8441546634341683|
0.6906756698371289|
0.678259030077964|
0.04541135034908604|
-0.7132431794559648|
-0.8852294561545316|
0.4299834858948004|
-0.7073697680515544|
-0.9056180249297269|
-0.7165439754791073|
-0.20650602850970853|
-0.19047351552775615|
-0.19413215978052925|
0.13170839237807005|
-0.05820020362103139|
0.21941054375163932|
-0.9440926302146186|
-0.15242050356696285|
-0.0829713921860405|
-0.4166459557849786|
-0.760544815935085|
-0.6953731649172536|
-0.4159259142821748|
-0.6854345708969409|
0.5081496818186925|
0.8193107782158036|
0.38739977873441583|
-0.7115844062388447|
0.38783679765584395|
0.3982825154788055|
0.06949001668257812|
0.23115166693683062|
0.4180759674981026|
-0.6588212681855291|
-0.7243085181060994|
-0.7605841562053031|
-0.35575310827234746|
-0.7871595423184904|
0.9785745993593339|
-0.36645002417930356|
0.4638108488095235|
0.8285439597229712|
0.6355061955034372|
-0.3067962003351097|
-0.5113818707468901|
-0.9933407043001526|
0.37725409165587775|
0.7254073472096906|
-0.5524186698606113|
-0.6824026529450526|
0.28825427026511913|
0.4575037727493922|
-4.410679333240957E-4|
-0.14101278167432685|
-0.05343183704590254|
0.28075803293701784|
0.7435863419280785|
0.753681142315188|
0.20766136436265245|
-0.008821308166561575|
-0.621195723051299|
-0.9934324624184093|
0.8225879494259386|
0.7804879073777997|
-0.17324567759229223|
-0.4234489105568137|
0.5875160372592353|
-0.6427177428180239|
0.46806614693517207|
0.6114321641625787|
-0.46733610888410365|
-0.2717988856665305|
-0.37294538707153474|
0.36792338817063996|
-0.038117527176265036|
0.43410544727583183|
-0.5994199567051363|
0.9816032821733219|
0.20551185108326456|
-0.6943245089502403|
-0.5656835765143967|
0.5730412142800805|
0.34337878615941764|
0.9584703664609681|
-0.5237757677493939|
-0.8224910664548701|
0.8264527262664784|
-0.9975884441610028|
0.1122472912078486|
-0.30392673254495856|
0.9002341907032241|
0.8155904271127593|
0.5308300305247752|
-0.4744317411254148|
-0.8987375509172445|
-0.9516450862267426|
0.32135750285072917|
-0.8277630187212079|
0.935060789452529|
-0.42223940089781664|
0.5124348709738751|
-0.838046864306873|
0.47307485288703327|
-0.7237799266085134|
-0.52552404421636|
0.625616488709472|
0.11799713561714467|
0.16055127755200288|
-0.3995526803180805|
-0.3354689743928689|
0.9881014753611087|
-0.53924559329067|
-0.31286306253731117|
-0.17471577216471776|
-0.6140374930980266|
-0.6647463300341634|
0.01246992249499176|
0.6974962984423992|
-0.658688254286072|
1.013032755959155|
0.28240653464328125|
-0.051966224714060975|
0.2901012355070529|
0.32713997215782886|
-0.07036943607149755|
0.9714142408373505|
0.17201585369707845|
0.8493669481874002|
-0.5675470170408673|
0.6362159740583498|
0.6903808317869468|
-0.13243317154692485|
0.49043610118191333|
-0.7192327530436884|
0.6695367827227098|
0.7190180649025283|
0.6015851641348317|
0.9521076074984983|
-0.6993889218935933|
-0.4149742497536192|
0.7218752310358403|
-2.23499249604926E-4|
0.8500731790368188|
-0.23878362387540922|
-0.6202191494275602|
-0.5722587016913242|
0.9225592446139238|
-0.49101990900361164|
0.8590814472856111|
-0.4798308082134638|
0.005925467652263538|
-0.2699896160795861|
0.2248124639117421|
0.029325290544801496|
0.8046851846692328|
0.12537069914128443|
0.9354293887831066|
0.5566374357651301|
-0.9839774452587996|
-0.7519130076952777|
0.6205810823323568|
0.19879295986555762|
-0.30308520963798247|
-0.31414618050134574|
-0.2449555592752793|
0.5378705734184551|
-0.9412905285168858|
-0.036968879041928394|
-0.19310946656514402|
-0.8982134591023496|
0.7880558696647859|
-0.9268608654291471|
0.10495417432930058|
0.35257080921180234|
0.7864717968555639|
0.6823814686229352|
0.4583764957727407|
-0.5579452389248715|
-0.9498220081861988|
0.7828526431508303|
0.40509832387322|
-0.8029728542324751|
0.9398319709032271|
-0.21064402618502107|
-0.39297501717757605|
0.6747736964974145|
-0.6935646950022463|
-0.012262570269310413|
-0.29646472398504997|
0.8194456149558695|
-0.028803524302068218|
-0.008568470841003149|
-0.15058790956798496|
-0.39652887805233694|
0.23120181142823276|
-0.8074464051988585|
0.685814302143527|
0.32042887016960425|
0.3697918768273721|
-0.567267799537951|
-0.010623088964157762|
-0.9713441924214153|
0.24230077831256075|
-0.4454549817573444|
-0.5281215087850992|
-0.0034447309450490377|
0.1250453498854046|
-0.02951796764342928|
0.11062240919043315|
-0.3241392473192533|
0.8347357556944862|
0.5523433091456478|
-0.1597985270190151|
0.951152253035901|
-0.29386623574009463|
-0.03283272820727596|
0.6684432327007304|
0.995214134661858|
0.364272218231934|
-0.9515395353676036|
-0.056510052568432806|
0.588324555073514|
-0.3506519098565294|
0.8542393229063916|
0.4581974585978474|
0.8379978780007284|
-0.3773126593430592|
0.8126234604247734|
0.8981274242512032|
-0.5108195575767013|
-0.24317696894250818|
-0.06366290755978403|
0.10305665504332667|
-0.8423686687169881|
0.0034198701403129563|
0.6160997778458407|
0.10075344480935124|
0.449656199585964|
-0.2410491683797532|
0.56564264783895|
0.19742661624310573|
0.21435322675861185|
-0.3672988178217642|
0.6342166575005526|
0.39688789354981086|
-0.8505064338241463|
0.27534184275659335|
-0.3636477958669683|
0.2850462873919706|
-0.6486612282743326|
-1.0207957462928372|
0.2954744582904406|
-0.5894347256116086|
-0.9270755666069224|
0.9086165902293385|
-0.21437377596921972|
0.6174711698567137|
0.6906669812144371|
-0.44705249796596525|
-0.6802368390460324|
0.630420692469529|
0.07660952531172265|
-0.21790735368866335|
0.7983560845355688|
-0.0637145994966001|
-0.18825689844223706|
-0.7424448654943593|
0.5446606527751572|
-0.7917102246948455|
-0.3156359603734854|
0.4352851844306344|
0.527661436065684|
0.7165364221496587|
0.8816871663814535|
0.7009966471454027|
-0.44800829923123603|
-0.08084932952454629|
-0.28773052187810455|
0.3138662636800349|
0.723513258086886|
0.9352360290864499|
0.308088237753946|
-0.813332855956671|
0.623935490014807|
-0.47530105306642173|
-0.008202421480917557|
-0.8357500512226448|
-0.5266605309362461|
-0.8238459762581768|
0.12647883698244436|
0.4845706234925899|
0.5330044079562276|
-0.48536787271613524|
-0.15433370789928863|
0.08046193315240921|
0.6153929773515768|
0.5981065730544368|
0.4807014226395373|
-0.39939669994645316|
-0.9172114436567684|
0.012282249471168667|
0.36146675809920353|
-0.29888462584332387|
0.4813663927473263|
-0.05450737692415931|
0.4690772623987443|
-0.35839029009214984|
-0.7404390233422187|
-0.2844595694553204|
0.41970852593107894|
0.7667611101219127|
-0.8023117452535399|
0.10673330706509519|
0.6366786571676142|
-0.5649132520522401|
0.02627887936514499|
0.7681045597320046|
0.4351096463814854|
-0.6093077751399114|
0.47937230310890544|
0.11260583308752042|
0.3397511883152731|
-0.30242912800198823|
0.514479401043845|
-0.5276485867325278|
-0.8031014274390623|
-0.9118688927066584|
0.44936962878184983|
0.4472381939198141|
-0.3656595006588792|
0.43505216747143244|
-0.9289486124835026|
-0.12066893024294764|
-0.7635751116340609|
0.4200875249281387|
0.4258845002957233|
-0.7379332120641615|
-0.8845307333921529|
0.6632964454419025|
0.7922210169180511|
-0.83794534607619|
0.5941625371313795|
0.32653078476459335|
0.0813552830417446|
-0.4110085475970041|
-0.6949324822632068|
0.4117022564193895|
-0.6760533229027166|
-0.2752780203799686|
0.11044429621579446|
-0.3282778800424447|
0.9344785755860653|
-0.7255470231279163|
0.9862294394454284|
0.3649788525772504|
-0.7873187697564463|
0.19946296538129563|
0.6246262912193586|
0.6889583822147101|
-0.7161033208215624|
-0.9321860332359355|
-0.3967075216107646|
0.819265822977345|
-0.44913902170968234|
0.5169868058859813|
0.5558487623813777|
0.9070731389657155|
-0.16748753047737291|
0.07633168512804991|
0.5711447389422643|
0.22447244332466304|
0.034094495288301135|
0.11619309809805368|
0.41912910289683697|
-0.18022441358457583|
-0.2600856111693507|
0.2644558450543835|
0.5923785853999034|
-0.7316036360685602|
-0.22111925612906844|
-0.6388338978337994|
-0.8293517179702673|
0.48075217408237236|
0.11814908893994731|
0.24250527118961518|
0.9455782474027518|
0.8578318793796678|
0.4914138918486601|
-0.9533559943253227|
0.5654583606285364|
-0.6936366799353851|
0.7164754313788203|
-0.18732509486228713|
-0.7135276452108897|
0.26464540174780954|
0.7228831040754978|
-0.6175474670445305|
-0.07070699112057856|
0.7489864280309055|
-0.21681620317304148|
-0.2870272986807747|
-0.2468287494179446|
0.2547614049144347|
-0.012895123558002037|
0.7896887792137923|
-0.7115871634851542|
0.010646477652728257|
-0.08644013680236735|
0.7094743868958348|
0.9105751399792108|
0.656267090579525|
-0.15110939462696996|
0.4107755607986987|
0.577340991479661|
-0.3907234710673464|
-0.2261260764281093|
-0.3495015635239437|
-0.07956046423695697|
-0.9006554950122617|
0.7832870664141749|
-0.36877907277007177|
-0.16502196368549638|
-0.765296059698579|
-0.7272308064286289|
0.7617006041324208|
-0.47001181743593157|
-0.34171230801220254|
0.33145376140039734|
-0.7442791759284566|
-0.7196377146781029|
-0.3515184430108569|
0.1306873417101145|
-0.6287490018397525|
0.14769284509360514|
0.9996124442001635|
-0.058930828373062794|
0.3303967711392303|
0.09741741017667618|
0.832392087308651|
-0.7765773678904824|
0.38798840345292296|
0.6842928332870802|
-0.3203645812348542|
0.42581739084404874|
-0.3098237203529192|
0.814637235650164|
-0.9730213818080359|
0.5718406868939534|
0.018122357955857708|
0.20517436166944839|
0.3641151281375913|
0.4762552087283837|
0.7514086810894829|
0.6652984294238439|
0.7411104562937595|
-0.2201165415696192|
0.21848044230308125|
-0.5096997544058648|
-0.9463615095902065|
0.8409127500823756|
0.298910573883034|
-0.47461548457616265|
0.5318361405391123|
0.44634200347169606|
-0.9522056777687435|
-0.1568129303199158|
0.8123325654846163|
0.5773786966243596|
0.4920868055960691|
-0.8728264156321435|
-0.12918599217909835|
0.1644596052850854|
-0.4134990209428124|
0.7766798369333048|
0.12320443461197411|
-0.28874931833967543|
-0.09692622857598066|
-0.7835776875565026|
-0.09656302784064884|
-0.10348127640588789|
0.38306117641927895|
0.7539707948092986|
0.8117601231738086|
-0.7470408121244894|
-0.1822319462047609|
-0.14974327296092177|
0.4140995328239526|
-0.9649955587404611|
0.9576894313120162|
0.8196567994136015|
-0.6100391941198502|
-0.4895611332257803|
0.5465241516340442|
0.2492699680811153|
0.8310467228292158|
0.10051653849370389|
0.3841476964793977|
0.12460483099567032|
0.306396160064138|
0.12628340978992877|
0.8302133692512933|
-0.9424791558927049|
-0.8077480934964477|
-0.6736315951199197|
-0.45268477619300923|
1.0200962799049562|
0.5307892613074664|
-0.08638944317723979|
0.6970114926555697|
-0.2956871506248833|
0.7015919528171675|
0.16643307990108472|
-0.021614593394511345|
0.6123201590936963|
0.570152006278493|
0.22347500960824476|
0.804718229515761|
-0.8377576971269034|
0.562668818362868|
-7.941900985472171E-4|
0.5090198445296099|
0.7755943886441465|
-0.5305437358214627|
0.4931008532083931|
-0.7972755963985619|
-0.10886170459085126|
-0.9014906998492216|
0.4504551480709261|
0.5257977335134221|
0.8793596603455578|
-0.8207276313184794|
0.5052593765476266|
-0.542881090472905|
-0.549410210119375|
0.3752628660677258|
-0.2739515850472629|
-0.6020057573866684|
-0.7040651155358343|
0.9117207363999827|
-0.5783192743603404|
0.044134364450428704|
-0.8336669974755753|
-0.44934165401187054|
-0.9251413270936077|
-0.07715256289423118|
-0.18151158468163756|
-0.22170701712185512|
-0.9482397799598551|
0.9520544483002379|
-0.8079216087770911|
0.03948432400374877|
0.4077630110852363|
0.3124591774012885|
-0.35399799899888196|
0.4942178535810969|
-0.21772265243900762|
-0.030361754512747977|
0.10322303144580022|
-0.6204629010957187|
-0.2883478160903613|
0.2022454917423698|
-0.17011752799395402|
-0.8671766444349811|
0.5135346461965868|
-0.7011747543699435|
-0.7314528158583562|
0.5421461705207412|
-0.2048896550358631|
-0.6311678724383193|
-0.12498046400924478|
0.3322878178503879|
-0.1257415632630772|
0.10681462285070562|
0.37747029283928246|
-0.848772280727338|
0.7174424699487661|
-0.30636564853871145|
-0.5551092881750935|
-0.9111335704110457|
0.3273503478916869|
-0.7784550313605729|
0.6160419474361976|
-0.9398641701982889|
0.18454621253496611|
-0.7035623733742707|
0.7704829332692239|
0.2053832607415092|
-0.09919980047267955|
-0.5978291128913783|
0.9210599917847948|
0.2733823947600756|
0.4922275037186211|
0.44533749892407754|
0.8896456072930577|
-0.03297065830203928|
0.7684566364240182|
-0.40272845769698484|
0.3563679602136665|
0.18691580149524403|
0.8078883686388549|
0.46181629078987374|
0.8161786524662179|
0.5961445023109679|
-0.3768895303307478|
-0.5092677611213844|
0.9009768899851124|
0.1134657716953466|
-0.6330540053540061|
0.18409663327162668|
-0.12517526294186587|
0.5550323323171596|
-0.12507809511057974|
0.44026132899314996|
-0.33982753835779134|
-1.011539943975376|
-0.9114812889890632|
-0.18824371291687542|
-0.9327666017018835|
0.6020391178470593|
0.5543387843030189|
-0.5825388489295306|
0.12127587643387044|
0.8784802317300184|
-0.7654026849953537|
-0.28297129788736197|
0.8214882995165381|
-0.7677197627098973|
0.1738047086414362|
-0.5752957725681468|
0.8041966589815251|
0.5773007206054617|
0.8781431448804715|
0.9563977493161218|
-0.5288721371361255|
0.4540019155520223|
-0.07813647387548152|
0.0796116500241472|
-0.603544884806312|
0.695072652431159|
-0.5165524619202088|
0.7952891815502556|
-0.21275287341072036|
0.9133134083609085|
0.5912324311370374|
0.7389008336152315|
-0.14151133144362157|
-0.10168877059023423|
0.731639517039809|
0.11691519567907072|
-0.06683852553144318|
0.5162348596420548|
0.20362067212978827|
0.29322169780957025|
-0.5240401009891331|
0.37886011217705373|
0.8623242159845755|
-0.578743803543789|
0.04766162947502247|
-0.4160757117567057|
-0.15079612352728897|
0.16828976854137473|
-0.8979009348761253|
0.22183433315213102|
-0.59923448890666|
-0.9806466791890577|
-0.6467832907331041|
0.5924427594765308|
-0.8170357042235907|
0.5644268421492051|
-0.563978321526966|
-0.38773183766004005|
0.020678857384641754|
-0.354682362809491|
-0.6654027407158316|
-0.17657975767253822|
-0.7881230890745207|
0.313207963666745|
0.43609543790657723|
-0.4604650329449697|
-0.44382946683841823|
-0.3387324334716213|
0.6680174945672069|
0.6701482297076937|
-0.9228372079663548|
0.47799606491940383|
-0.7250759719585482|
-0.6267785970623064|
-0.5805813369949664|
0.3962489812988022|
0.4631719424979553|
-0.7880331145887015|
0.29211013475199266|
-0.028282530713228376|
-0.9869067494651688|
-0.6258669496824966|
0.13420140929024285|
0.1743030274550445|
-0.3139891017088815|
0.9530727704128743|
0.26649349956876817|
0.06873981138812384|
0.6912070041279823|
0.24216835564800296|
0.057580642256566436|
-0.24542462117803882|
0.3235900848921387|
0.12037369185810429|
-0.8820630922748508|
0.13558971983336696|
-0.4545324093016861|
-0.09573400587869942|
-0.27724186619222974|
0.41843306439447836|
0.8100723760203905|
-0.38547804690056386|
0.40407141018811754|
0.4467089004141974|
-0.5730029554387456|
0.24970641792290263|
-0.3558764075627071|
-0.6839437894968561|
-0.32632396239256944|
0.39642897730935145|
0.5594545715640925|
-0.746379148857668|
0.7912730111283639|
-0.29713367971040666|
0.2970647034434184|
0.7159818888444254|
0.05963123725110917|
0.2591462245344593|
-0.17894638047162909|
0.5012075173098537|
0.08109896355123904|
0.5853402020195595|
-0.25784669970158847|
0.2132146943726187|
0.27058238036120297|
0.7789265192500404|
0.5656068292690736|
-0.2254534317123494|
-0.6947539726415739|
-0.742958086805839|
-0.7504468557295472|
0.7780237322817067|
0.16238671144153494|
-0.8976575918393467|
0.4126339893818341|
-0.6576172556599166|
0.6258051015308562|
-0.5358615594675101|
0.33452575552872177|
-0.12401892020701795|
-0.737501579556307|
0.5417507984409683|
0.2773959338916258|
0.10972364580161074|
0.6022956580175047|
-0.6089313633210616|
0.8365337514921453|
0.5560795864448551|
0.964656452534324|
0.8784506504289007|
0.5188263993450986|
-0.24590441969639584|
-0.6947437524351796|
-0.9739030535653032|
0.8791585712472353|
-0.6367495990263562|
-0.7202504173299172|
0.41853282422483756|
0.3256173589530115|
-0.86457377385809|
-0.005177247935468312|
-0.6102847606979337|
-0.34285511081656384|
0.4545781341685897|
0.15816045775232718|
-0.586839583106168|
0.06866127793817293|
0.2631346626787135|
1.0008291891659244|
-0.7153205507091369|
-0.6946445884628584|
0.4186979825076618|
0.40824469201085123|
0.4322768789440322|
0.09417484324330189|
0.7108615008816893|
0.8228998395174394|
0.14164581864422796|
0.9027588068666021|
-0.5878106821550186|
0.9661258018227644|
0.9798677312474381|
-0.9164901702593935|
0.39074009929885545|
-0.18451093554629464|
0.40555450329472537|
-0.678826693330199|
0.6403727319621444|
-0.4959719127279484|
-0.8779713173361817|
0.580314340110882|
0.777612721351288|
0.29151752906884826|
-0.9639653257532719|
-0.6953156002730658|
-0.6650726726179611|
0.9604978964247965|
-0.27563412016611494|
0.35980366387885837|
-0.37732485854315534|
0.12894728779232512|
0.40689802581899415|
-0.32044718497225294|
0.31976828241342964|
0.7600363404626849|
-0.3802727725803513|
0.471297092321038|
0.08227708950761668|
0.7218221774900765|
-0.7101231275266201|
0.6678353484093869|
0.4456073957116996|
0.6203070213556031|
0.23043880005225068|
-0.04090892227792564|
0.22022564995077754|
0.8667311693982531|
-0.8130307603208052|
-0.12703638149349564|
-0.6253669479575152|
-0.8929968795229871|
0.8757100468507778|
-0.07059604937563217|
-0.5433400740651636|
0.34472753254065563|
-0.1269944423935047|
0.060480956552242005|
0.8004105764580731|
-0.15249613506414386|
0.16940379713881126|
-0.542634457225154|
-0.4950508059092578|
0.3985566987011344|
-0.5730978167435288|
-0.4921714001796061|
0.31471122174162286|
-0.5968121106581606|
-0.18569303291742079|
-0.8828723947378323|
-0.8748050334049747|
-0.3667227368804943|
-0.43109067520319405|
0.6796704905330277|
0.08844543158221262|
0.47630622985870286|
-0.1906661024523717|
0.3502334297283388|
0.14602376653041646|
-0.7635692931521069|
0.8108650628117917|
0.27160405105214164|
-0.7858758915088855|
0.4247890680438378|
0.8240439095389137|
-0.8526657767574813|
0.7947946457972442|
-0.8491979694149377|
-0.8643689154672585|
-0.8005544994570643|
0.16762296992252804|
-0.4200265580142873|
-0.21927314037581727|
0.1715103664889646|
-0.12878569390866826|
0.5656768361217149|
0.11828137419456836|
-0.4683494069786832|
0.023541213431222643|
0.7475804574648677|
-0.1879858789735102|
0.9414551257070773|
0.560935362079578|
0.700784685809617|
0.3301686436530917|
0.03259947320683921|
0.059298917963999546|
-0.05959801432832177|
0.045788190756262774|
0.42677136395575843|
-0.833100576865471|
-1.0106555134607356|
-0.6080181968793997|
0.816513193943953|
-0.06928041926964232|
0.9789326096315235|
0.17781643146773046|
-0.8161013841867086|
-0.04267443328310814|
0.402906088882273|
0.4771061535648212|
-0.14470781743332006|
0.9772533753171383|
-0.9525534669656572|
0.7636408732131049|
0.5520370663664282|
0.13116317680553957|
-0.5354987924728363|
-0.3820087256563857|
-0.5680984943555278|
-0.696590571489975|
0.15526526369157964|
0.9410516277242695|
0.19916647182507055|
-0.9848494608782699|
0.9429140959037423|
0.33793253091022735|
0.8601331499236013|
0.295312222066295|
0.6598520387211619|
0.007781991708323994|
-0.18415902287230565|
-0.19239223697556923|
-0.29261495002370286|
0.350482036012|
-0.6652023801332502|
0.9695391261424097|
0.6503662927694958|
0.5963725531816213|
0.04970823222089122|
-0.2943835316297601|
-0.8538070089015337|
-0.5251576701571887|
-0.7884090884805077|
-0.0959804555893234|
-0.6005863173969671|
0.050668508864119256|
0.5341695620393702|
0.3432161343149036|
-0.983848228224698|
-0.690108078024535|
0.8669649040022056|
0.42176881297285546|
-0.8831498572429947|
-0.3960442580633998|
-0.2836287899921653|
-0.33304072686439085|
-0.12916611320873062|
0.13529887430737877|
-0.9479906172372529|
0.3623297040021905|
-0.0732940037584641|
0.3588606061406666|
0.42738287275003384|
-0.206516751954845|
-0.7740914923354768|
-0.8184670553676113|
-0.0271626030299474|
0.3064404532248985|
-0.20454697420082282|
0.3943198610419984|
-0.29380461873523284|
-0.39362538865057184|
0.28277158946202763|
-0.2682111342359853|
0.23855945561728653|
0.6393156416446556|
-0.6841214411976508|
0.5414224485412891|
-0.7262922410812706|
-0.5068835669603557|
1.0041546467816627|
-0.5188894696766672|
0.4659437721230999|
1.0052800221758385|
-0.25001338034041654|
-0.07894855959828247|
0.11404202596932027|
-0.21605062526471536|
0.8036673635637666|
-0.47637782747582763|
-0.20964967106647853|
0.9997387599782818|
-0.7392424043640778|
-0.8854693103770106|
0.6036947044948958|
0.4182884753112033|
-0.9637289686570009|
0.6376646263373453|
-0.9439642301526188|
0.8880551921581249|
-0.7046107330802234|
-0.30231082442410095|
-0.11255104535479035|
-0.5749217078663291|
0.4229124955143832|
-0.6345541902068216|
0.9372577829863197|
-0.3786259744338057|
0.09606289878781016|
-0.8118686473567949|
0.7459623833634251|
0.06379401245415203|
0.6087923605168577|
-0.6147821202961055|
0.03337897688396111|
0.7829112354791994|
-0.8382020877033711|
0.664260058713539|
-0.43419129167586623|
-0.015757349552580305|
0.5445820329841354|
-0.9257222817514563|
-0.35987116369770805|
0.4965983956818046|
0.7912831818585853|
0.35338035642823146|
0.19480523345007392|
-0.27950856717415545|
0.16189946050540402|
0.8238569119631115|
0.8528254341193535|
0.29121420613546306|
-0.2540424339767639|
-0.49761286056045984|
-0.05582436547648041|
0.8116957993483189|
-0.41048291973932854|
-0.10740233272276428|
0.8892197543545898|
0.7239860862806374|
0.3047857521420876|
-0.29586609043480067|
0.18438195622343415|
-0.8963980300051304|
0.5028534483493743|
-0.7553531824193442|
0.6790900702736472|
-0.28167361175583716|
0.7643055743749514|
-0.7344117360373342|
0.6160934630734989|
0.8220473822214736|
-0.48378166897083547|
0.7246748928453921|
0.7774572872227582|
-0.39611308529730727|
0.9411112040249688|
0.6150936315311986|
-0.07604882728101367|
-0.7948669144032832|
-0.7455773590105627|
-0.3053637412926333|
0.3833240758925618|
0.6182401638948776|
0.6926381613020247|
0.04214844002318359|
-0.02131426665413606|
0.3801309509654542|
-0.37761832115237076|
-0.14359184924179125|
-0.11467650263421911|
0.30963358144553016|
-0.6705117827096301|
-0.6620336280702|
0.8392615084930305|
-0.06922624946485709|
-0.36822612613031375|
0.7437647001511859|
-0.4067250202519951|
-0.28005138553901726|
-0.5436795878053293|
-0.19916526276512375|
0.47750677498388316|
-0.5948237010143511|
0.2826052492913812|
0.07554283645879624|
0.29027886400415354|
0.4681436284668476|
-0.3773571023900931|
0.4906392298410431|
-0.1335149749254477|
0.36201471889562653|
-0.5105408848219164|
-0.357057300730924|
0.4578881971564036|
0.9426751886384972|
0.26518934492278884|
0.963982022428726|
-0.47701195013386843|
0.03851928815784262|
-0.67164448188376|
0.8246412966900467|
0.9017940620668375|
0.5850382879608187|
-0.5392584308817591|
0.836994496517167|
-0.8937056076054967|
0.0664029539275735|
-0.22229173251571427|
0.3618120617543517|
-0.5720319618376725|
-0.4167092678332102|
0.4694484500539272|
-0.3671009875996443|
-0.9210566910211787|
0.5645221749883452|
0.9904040749261042|
0.12595866480079365|
-0.766791809271178|
-0.9542046781581608|
0.9486885725901782|
0.21073817297128292|
-0.8413073666471675|
0.5187480789605244|
-0.1989226645460629|
0.9231589538639874|
-0.7877546020735285|
0.007000687148766299|
0.004928261269043986|
0.34819232643936343|
-0.5349652642752898|
0.8587855544849388|
-0.47557290232587907|
-0.3476386339230338|
0.09184644482463217|
-0.22069505820330032|
0.2171186192224401|
0.30107441632256027|
0.4783292704106336|
-0.09539413210578858|
-0.40771704026973316|
0.7471426985723024|
0.3891473570137813|
-0.03063363698833004|
-0.8916342205141747|
0.9787093856871713|
0.3054420589292072|
0.6693790897405136|
0.8430332319859769|
0.6827496371659196|
0.8433715622922091|
0.4816136611602828|
-0.28227497408716495|
0.3526152825322169|
0.1248336256408646|
-0.10693310675013612|
-0.9811392585620594|
-0.24940937209515998|
0.11445663400972285|
-0.07358639523567069|
-0.8451998203726487|
0.1358128239725456|
0.1882205900520406|
-0.9276611972058758|
-0.6888860072531948|
-0.0026877836137376657|
0.9743871404956387|
0.7609753596759122|
-0.5422323412080112|
-0.39575154386224765|
-0.4233841326872009|
-0.1521611163163418|
0.34292592632031627|
-0.8074357059019095|
-0.012628750441404176|
-0.784097120448267|
0.6889085537877102|
0.057565253508917204|
0.8647426445534505|
-0.2789639592517124|
0.3448419049327461|
0.8219717631990031|
0.9000440736531582|
0.9148756259719104|
0.6825771297952344|
0.16521395221760024|
0.598134046571833|
0.9200213974109221|
-0.49529342073142124|
0.40792379813518415|
0.7729870595180304|
-0.2457279329142276|
0.680939838632566|
0.03681291154713634|
-0.13479846926370243|
0.22604724854760463|
0.32094347773037535|
-0.7665202194843883|
0.7466877181430966|
-0.21620283791131|
0.8160614383144638|
-0.09626695525413043|
-0.860820699312376|
-0.14532120289443232|
0.528936141254966|
-0.2774029566953855|
0.579483134278456|
-0.5187351008258584|
-0.4763478084604933|
-0.3240195649994408|
-0.9958111721603344|
0.02434152545019558|
0.022814302147675974|
-0.6235073123928263|
0.6234670054444327|
-0.09582203955401436|
0.48886579828933313|
-0.9317244043487746|
-0.9258015996190129|
0.17321538124742006|
0.6576456403010986|
0.35806701577503514|
-0.11919610927317185|
0.23552021708129445|
0.4532959016669354|
0.11436699814225243|
0.0650293863280282|
0.3488896003304472|
-0.3229756176064805|
0.8396679386277817|
0.1824162161066835|
0.22516392499011997|
-0.21743835494209013|
0.5036963127369769|
-0.687456392729961|
-0.46172879650976695|
-0.9523298809292816|
0.9095197284786217|
0.0016657606420389939|
-0.7840310241543452|
-0.6723417681243707|
-0.24798389599908582|
0.010792544002647278|
-0.13763167441053473|
-0.47970565613630844|
0.584464666326053|
0.44121415274803266|
0.5959996463005083|
-0.6187140626761944|
0.734610350494054|
0.03163157645735793|
0.4696148089015617|
-0.21797467846045113|
-0.601387109296059|
0.6190568046068224|
0.6029001106002905|
0.2395503146943644|
-0.4724622928899482|
-0.8248137979833241|
-0.46677283321530705|
-0.4329996744585401|
0.68344532685496|
0.5949822057698774|
0.7774731266416475|
-0.06510897260101578|
-0.3377079065961282|
-0.7711314248515879|
0.7577619433068178|
0.6297117618278166|
1.0034743288189365|
-0.0057736671584139|
0.6105135387880525|
-0.18376404507764962|
0.6183711765837789|
-0.20611260225447578|
0.5928120778334988|
-0.6579853512240325|
-0.7259651191963602|
-0.6137786204496912|
0.10188406491887343|
0.6305955295866034|
0.9937554189997229|
0.34763053666325755|
-0.06247296541353093|
-0.028673121207327897|
-0.2767250200187595|
-0.942374059054349|
-0.3245508856291448|
-0.15334892264939873|
0.011298746574006393|
0.4614400912884824|
-0.39992218080416236|
0.7597212213200053|
0.35407108423969|
0.5924459481936201|
-0.42108203464140803|
0.22052886021499177|
0.727649203232944|
-0.7584364976816934|
0.8135926391622401|
-0.2745570019371935|
0.06200205312987914|
0.11098435611742112|
-0.9399296120154597|
-0.28954296587369344|
0.5017097445152167|
-0.3803490943949657|
-0.8023364873492435|
0.8904908315998675|
-0.08850380273751515|
0.05642943072783355|
0.007370687615753255|
-0.7246016137946609|
0.8795300696414865|
-0.7601362051549565|
-0.6008034767891096|
0.4040292562063319|
0.20405979202125302|
0.598472328198275|
0.46002837639908234|
-0.5856290831692766|
0.06940244908338332|
0.9339654305783569|
0.965332071983008|
-0.5069580760503306|
0.33389211462378926|
0.5105516845050747|
-0.4827611494718126|
0.3994512087387833|
-0.7441112625706132|
-0.08239306195711918|
-0.13904862652395247|
-0.390137293742143|
-0.9697458498641529|
0.6956928063624783|
-0.7874192967758261|
0.5331113919189302|
0.021308832606342924|
-0.9286822469273526|
0.9739934985766421|
-0.7074789550336474|
0.47264026263350917|
-0.5261101420026321|
-0.04979401949580431|
0.05937203284834531|
-0.04948929039486483|
-0.09033787643299826|
-0.10542695610398604|
-0.7079024522392866|
-0.664897698722011|
-0.9999273952682554|
-0.27324358062195625|
0.23985977343057716|
0.9085120491623007|
0.2227796537699827|
-0.8225133887778807|
0.22122248008912707|
-0.12130899614644798|
-0.31211361569698387|
-0.25798797599995626|
0.6991332351342028|
0.5953536875784473|
-0.6323820894622904|
-0.928357995809188|
0.6588531260672131|
0.3128767518341671|
0.40074575535377505|
-0.049065736791134004|
0.4770632453159359|
0.5551693331883244|
0.8855970196714145|
0.8866073880642384|
0.5565035145369519|
0.5201914434010313|
0.2491793531931817|
-0.8393262651337147|
-0.4203526788870962|
-0.09172895418169358|
0.5926719189184296|
-0.5455306000665331|
0.9733243602483279|
0.4075922208602442|
0.026630793780783712|
-0.5596477862439506|
0.0811068872274873|
-0.054795611620412465|
0.5628718908018259|
0.7925603995047888|
0.7629885905722003|
-0.03292441042243205|
0.2542497874176961|
-0.32491946347958545|
0.7236842272944529|
0.07080828888242019|
0.45668713879462647|
-0.6137072327160003|
0.5956503273851044|
-0.374949081788129|
-0.42526747946925747|
-0.5782587632095765|
-0.9013808707414037|
-0.37292225979888627|
-0.5241622692693906|
0.915507570277051|
-0.8156533677556256|
0.09032484797161987|
0.9659732407668487|
0.6987900316640059|
-0.8150311911976283|
-0.6861209190228612|
0.7485189230163497|
-0.4203629162044474|
-0.13726755082789782|
-0.22437561491188734|
-0.5280389836813579|
0.31483335004717816|
-0.68574869943536|
-0.24414832078821522|
0.46577148222883896|
-0.9698825764687736|
0.7713639158558675|
0.16517564144519067|
-0.9895745285423815|
-0.5391374306665454|
0.361648342393168|
-0.595934611469836|
-0.0713906356512927|
0.4103664186883347|
0.11999581748049602|
0.3865514685031761|
-0.8725716813202459|
0.4245558029688019|
0.6861401277090694|
0.5342580562981037|
0.9273261409605932|
0.7118322423171334|
0.3079204096846856|
0.9279115638934257|
0.10833365282418288|
0.5576854480213667|
-0.010240239383654023|
-0.20987122994079407|
-0.4170657215349985|
0.9438641922845636|
0.5638979998480744|
0.7752597148884043|
-0.19687003756593313|
-0.9995476401933009|
0.7400006043823696|
0.38513989585370534|
-0.2090059632810293|
0.39841367732077804|
-0.2194093100510982|
-0.09053980888811693|
0.7054867651631102|
-0.922404023963182|
0.9671650883010222|
-0.21629189294492676|
0.23522697096915052|
0.03749294303855123|
-0.45828537668177216|
-0.29147084062310646|
0.9286897255797566|
0.9187263745671873|
-0.47685664764040653|
0.6941928911156314|
0.16005284591402152|
-0.0851288696931474|
0.515518638002346|
0.15864409175334543|
-0.4897513675318707|
0.740387641791557|
0.718280331409407|
0.04762860078745229|
-0.9843104884939451|
0.7847809518948262|
-0.9909406571405446|
0.893097818077859|
-0.7925111550944441|
-0.5899031430672261|
-0.7680195134557652|
-0.32862020539031633|
0.8261495039051248|
-0.33143779758530795|
